#define CONV3_KERNEL {7, -20, -3, 44, -45, 42, 43, 9, -45, -28, 12, -6, -16, 36, 3, 35, 25, -44, 10, 64, 3, -17, 9, 53, -26, -44, 23, 44, 59, 32, 30, -43, 15, 9, 8, 65, -38, 23, 30, 36, -112, -43, -29, 3, -4, -35, -15, -8, 64, 24, -31, -39, -20, 9, 35, -8, -127, -9, 50, 14, -5, -21, -49, 41, -13, -43, 24, 7, 60, 16, -40, -14, -10, -53, -45, -19, 49, -5, 23, -1, -17, -12, 62, -29, -1, 0, 3, 32, -48, -46, 24, 1, 20, 54, 20, -37, -11, -15, 58, -27, 44, 34, -37, 28, -92, -55, 6, 4, 22, -13, -3, 31, 34, 41, 3, -40, 17, -25, -3, -27, -2, 1, -14, 52, 43, 4, -5, 21, 12, -29, 15, -5, -30, 39, -9, 86, -6, 2, -35, -6, 20, -14, 42, 41, 19, -52, 12, -29, 48, -9, 44, -25, -77, 5, -23, -26, -23, 2, -10, -24, 23, 47, 7, 35, -27, -43, 38, 36, 3, -47, 26, 41, -17, -34, 30, 12, 19, 74, 3, -15, 53, -27, -29, 27, 52, -20, -57, 6, -45, 28, -53, -13, -30, 38, -1, 27, -21, 4, 33, -15, -3, -44, 30, -7, 40, 23, -34, 58, -23, 11, -14, 18, -49, 27, 17, 49, -7, 31, 60, -25, -7, -12, -34, 5, 50, -3, 16, -17, -38, -25, -32, 52, 57, 39, -65, 22, -24, 42, 17, -54, 14, 2, -19, -52, -55, -32, 48, 28, -68, -51, -50, 36, 12, 21, 24, 61, -53, -11, -24, -56, -42, 16, -20, 22, 94, 12, -66, -5, 19, -17, 60, -15, -13, -49, 2, 41, -33, -11, -39, 1, 11, 28, -8, 15, 62, -5, -43, 0, -13, 55, 3, -7, 8, 10, 19, -5, 8, 26, -42, 43, 17, 39, -7, -6, -14, 51, -33, -46, -16, -44, -29, -38, 21, -10, -9, 15, 15, 57, 65, -46, 4, -49, -28, -41, 23, 19, -3, 15, 20, -26, -4, -50, 36, 46, -12, 7, 57, -63, -12, -15, 43, -22, 44, 26, -58, 9, 11, -14, -4, -11, -35, -9, -21, 41, -11, 24, -22, -2, 21, 71, -25, -63, -20, 36, 19, -18, 23, -8, -11, 28, 28, -12, -23, 47, 18, 56, -51, -8, -10, -39, -29, -20, -17, -4, 3, -1, -1, 44, 32, 35, -45, -45, 20, 10, 16, 36, -38, 39, 27, -41, -22, -13, 19, -8, -7, -19, 33, -6, -56, -54, -53, 16, 29, 38, 7, 40, 9, -14, -5, -2, 62, 42, 16, 50, 27, 45, -22, 33, -10, 53, -39, 20, 0, 39, -30, -4, 8, 26, -34, -35, 47, 0, 44, -32, 31, -4, 69, -45, -71, 59, 3, 24, -20, 2, -34, 69, 127, 10, 17, 18, -82, -43, 81, -3, 19, 22, -11, -9, -33, 9, -39, 9, 40, 23, 34, 0, -27, 9, 1, -47, -49, -43, 22, -67, -1, -5, -9, -15, -53, -33, 18, 30, 30, -36, 34, -42, 42, 83, -34, 60, -25, 39, -29, 7, 27, -44, 84, 28, 62, 9, 42, 1, -31, 10, 36, -7, -25, 47, -51, -83, -8, 46, 38, 2, -52, 55, 9, 46, 8, -10, 11, 38, 3, 20, -15, -65, 28, 56, -53, -112, -49, -43, 74, 21, -54, 1, -23, 49, -42, -45, 11, -40, 63, -27, 30, 16, -61, -66, 18, 66, -56, -22, 17, -3, 31, 36, 4, -20, 56, -16, 2, -33, -11, 9, -41, -46, -15, 39, -18, -27, 25, 4, -18, 26, 2, -30, 15, -2, 2, -67, -16, -6, 58, -58, 8, -24, 8, -58, -26, -64, -21, -23, -101, 25, -27, 47, -46, -18, 41, -87, -77, -33, 11, 20, 36, -3, -127, -20, 9, -64, 2, -72, -59, 30, -16, -38, -39, 17, 60, -21, 27, 37, -24, 28, 8, 45, -4, 28, 5, 68, -39, 15, 27, -21, -37, 30, 31, 44, 34, -2, -26, -20, -38, 21, -45, -6, -2, -58, -49, 71, 8, 20, -73, 63, 60, 60, -8, -48, -41, -19, -36, 21, -24, -25, 37, 26, 44, -46, 29, -40, 8, -34, 82, 1, -27, -43, -10, -3, -16, -45, -21, 6, 6, 44, -11, 47, -66, -35, -18, 0, -10, -42, -32, -48, 14, 19, 55, 13, -13, 24, -13, 46, -35, 10, -9, -4, -8, -7, 0, -26, -67, -27, 12, 3, 33, -41, 64, -20, 53, 20, 36, 41, -5, -10, -32, 43, -9, 23, 21, 82, 39, 0, -56, -54, 72, 33, -10, -27, -18, -42, 7, 92, -23, 46, -18, 40, 31, -44, -42, 51, -10, -24, -8, 32, -36, -42, 54, -45, 30, -15, 49, 63, 18, -9, 44, -9, 18, 15, -34, -1, 80, -1, 58, -25, 49, -17, -16, 54, -13, 18, 29, 9, 1, -34, 30, 13, 52, -15, -17, -10, -52, 69, 76, 25, -70, 5, -32, 72, 62, -61, -26, -44, 8, -42, 9, -56, -14, 3, 74, -36, 69, 27, -60, 92, 13, 52, 55, -53, -61, 46, 0, -61, 103, -63, -4, -53, -47, -66, 23, 112, -107, -12, -67, -12, 53, 33, -51, 15, -42, -72, 54, 50, 73, -49, 45, 25, -99, -39, 66, 12, 13, -33, -54, -36, -9, -65, 40, -16, 64, 22, -75, 33, -24, 16, -91, 3, -65, -12, 23, 59, -55, 68, -67, -60, 53, 30, -42, 20, -2, -11, -27, -69, 17, -25, 54, 32, -52, -27, 25, 29, 42, 5, 36, -49, 3, -23, -41, 11, 17, 54, 48, -22, 49, 96, 58, 5, -72, -54, -8, 94, 37, 18, -87, 23, -10, -22, 21, -74, 73, -17, 73, -13, -17, -27, 16, -60, 37, 52, 28, -24, 25, 127, -61, -57, -66, -14, 60, -61, -68, -74, 41, 24, -59, -2, -34, -46, -22, 47, -96, 43, 6, 42, -36, 68, -32, -37, 24, -6, -21, 39, -62, -6, 71, 12, 21, -24, 21, 31, 37, 5, 39, -69, -18, 63, -28, -24, -91, -37, -24, -37, 7, 44, -44, 19, -30, 30, -29, 17, 20, -12, 40, -33, 1, -41, 20, -19, -29, 78, 62, -37, -57, 64, 52, -32, 29, 23, -18, 24, 69, -9, -31, -28, -38, 26, -30, 80, 35, -65, 2, -32, -33, 10, -41, 49, 6, 45, -45, -83, 49, -75, -19, -36, 5, -56, -22, 54, 52, -60, 15, -4, -83, -2, -70, -8, -22, 37, -64, -13, 48, -70, -33, 53, 83, 79, -30, -29, -8, 55, 38, -55, 68, 43, 22, 22, 29, 13, -45, -66, 2, 37, 55, 41, -54, -28, 25, -19, 39, 114, -59, -33, -55, -35, -71, 42, 9, -42, 30, -57, 1, -27, -4, 24, -26, 24, 14, 90, -68, 3, 68, -51, 73, -58, -28, 66, -2, 46, -45, 22, -7, 54, -14, 8, 63, 47, -8, 7, 25, -1, -41, 12, 63, -60, -46, -72, -47, -9, -8, -72, -36, -3, -37, -70, 9, -22, -64, -71, -16, -9, 11, 75, -84, -7, -70, -59, 50, 68, -81, 16, -14, 42, 17, -9, 12, -53, 5, -62, -15, -18, -26, 118, 66, -20, -28, 12, 70, 10, 85, -47, 41, -54, -41, 43, 81, 68, 60, 18, -29, 56, -59, 67, 72, -81, 47, 53, 65, -43, -61, 27, -19, 29, -20, 40, 38, -6, 32, 45, -44, -13, 26, 47, 62, 5, 9, -25, 20, -30, 72, 44, 40, -37, 69, -44, 51, 56, -96, 28, 13, -5, -23, -1, -15, -22, -38, 13, -27, -17, 34, -34, 46, 55, 11, 24, 0, -5, -25, 49, -22, -47, 34, -26, 57, -42, 21, 0, -41, -33, -10, -17, 76, -28, -4, 16, -35, 40, 45, -20, 3, 59, 10, 4, 51, 44, 16, 19, 0, 24, 6, -25, 3, -52, 49, 12, 16, 10, -20, 22, 6, 57, 54, 26, -27, -16, -35, 7, 2, -4, -3, -8, -23, -17, 15, 14, -13, 15, 70, 41, -57, -23, 24, 7, -17, 2, -51, 55, 15, -12, 26, 24, 8, -37, -6, 23, -37, 28, -66, -10, 61, -22, -15, -19, 25, 41, -50, 36, 2, 6, 56, -21, 57, 31, 39, 56, 45, 10, -24, 68, 39, -3, 12, -25, -42, 33, 63, 67, -25, -59, 49, 59, 6, 34, 17, 29, 22, -4, 11, -57, 40, 1, -81, 31, 21, 35, -46, -34, 10, 47, 13, -28, -47, -74, -41, 16, 40, -46, -48, 1, 43, -46, 41, -49, 94, 83, 14, -35, 25, 25, -59, 24, -32, 74, -128, 5, 16, -56, 32, -38, -9, -109, -62, 15, -24, -75, -29, -11, -16, -58, -60, -8, -52, -1, -10, 25, -81, -79, 6, 39, -18, -8, -21, -24, 16, -49, -102, -36, -31, -49, 51, -1, 66, -44, 26, -7, -37, 44, 14, 21, 6, 17, -53, -8, 96, 18, 0, 48, -42, -42, 65, -65, -9, -33, 13, -28, 76, -38, -63, -18, 13, 26, 53, 29, -34, 60, -27, 18, -15, -16, 15, 29, -44, -1, 8, -50, -82, 7, -70, 25, 42, -66, -31, -47, -12, 19, 65, -8, -51, -8, -34, 58, -67, -41, 30, -9, -6, 21, -9, -93, -15, -37, 9, 32, -28, -77, -103, -42, -34, 22, -32, -52, -47, -58, -49, -36, 28, -46, -22, -23, 50, -9, -41, -55, -35, 31, -20, -41, -10, -50, -26, 33, -6, -82, -51, 16, -21, 49, -5, 0, -43, -37, 36, 37, -17, 11, -13, 43, -1, -4, -56, -54, 4, 42, 15, 52, -66, 49, 12, -58, 32, 30, -40, 44, 36, -78, 8, 29, 38, 60, 89, 57, 36, 29, 42, 51, 4, -30, -55, -19, -17, 38, 38, 9, 22, 6, 22, -7, 15, -13, -7, 34, -13, -57, -18, 4, -18, 36, 8, -8, 19, 12, 14, 29, 37, 7, 27, 52, 22, 13, 27, -40, 8, 65, 8, 31, 18, 1, 57, -13, 85, 0, -8, 28, -27, 38, 0, -41, -30, 32, -23, -17, 2, -53, 48, -30, 42, -8, -94, -5, 44, -22, -56, 7, -55, 28, -20, 39, 24, 52, 46, 24, -64, 22, -8, 27, -8, -20, -25, -5, 7, -23, -8, 19, 9, 82, -65, -3, -43, 33, 11, -53, 20, -1, 29, 14, 40, 10, 36, 31, -4, 24, 4, -43, 41, -44, 6, 28, -41, 24, 22, 20, -17, 59, 14, -31, 27, -48, -11, -16, -14, -36, 16, 25, 20, -27, -19, -115, -44, 32, -42, -15, -9, 32, 30, -6, 3, -57, -88, 5, -66, 3, -55, 0, 14, -43, -5, 3, -48, -4, -45, -23, 15, -17, 16, 9, -36, 5, -21, 21, -11, -38, -5, -13, -7, 13, -24, -11, -73, 63, -3, 34, -32, -23, 22, -9, 12, 26, 11, -4, 14, -14, -28, 17, 57, -22, 68, -24, 13, 56, -3, -75, -14, -37, -9, -2, -31, -5, -50, 4, 14, -3, 83, 25, -16, -10, 47, 77, 17, 82, -35, 18, -11, 15, 74, -45, 27, -17, -48, -73, -89, -47, -28, 72, 22, -13, -64, -5, -14, 20, 12, 10, -7, -38, 25, -4, -13, -18, -45, 127, 16, -46, 71, 5, -24, -35, 7, -13, -12, -6, -22, 101, 119, -41, -10, 36, 42, 31, 20, 4, 76, -19, -6, -26, 79, 30, 58, 35, -24, 59, -2, 37, 40, -53, 22, 11, -29, 32, -106, -43, -37, -2, -12, -23, -73, 63, -5, 72, -41, -39, -36, -12, -49, -17, -22, -57, -97, -4, -71, 51, 1, -73, 28, -23, -2, -22, -20, 2, -3, -24, -48, 55, -61, -31, -46, 62, 48, 40, -17, 40, -38, -6, 43, 10, 49, -21, 25, 51, 21, -20, 38, 33, 25, -4, -7, 5, -14, -69, 4, 5, 11, 13, -25, -78, 22, 33, 60, 15, 31, 0, -36, -35, -58, -48, -55, -32, -8, -104, 8, -58, -83, 2, 3, -39, -4, 88, 34, -7, 25, -95, -41, 9, 20, 38, 82, 59, -3, -4, -71, -47, -21, 17, -21, -21, 27, -25, 27, 45, 17, -29, -12, -22, 31, 61, -28, 29, 52, 35, -11, -9, -20, 16, 66, 26, 0, -3, 45, -28, 14, -11, -14, 59, -17, 13, 25, -24, -61, -11, 6, -70, 53, -2, -5, 22, -69, 20, -11, -23, -52, 61, -78, 7, -52, -22, -32, -38, 39, -91, 34, 39, 16, 0, 23, -64, 1, 9, -27, 13, 31, -69, 40, 53, 74, 70, 97, 45, -94, -63, 32, 16, -12, 90, 69, 16, 25, -13, 11, -7, 49, 12, -43, -7, -67, -11, -27, -18, -62, 79, 20, 2, -23, -17, -51, 62, -35, 66, -22, -42, -39, -31, -51, -22, -31, -3, -60, 55, -60, -2, 43, 37, -75, -56, 67, 73, -5, 22, -1, 71, -49, -4, 13, -65, 22, 62, -1, 27, 52, -15, 29, -14, -40, -56, 6, -6, -35, -56, 9, 13, -14, 14, -9, -56, -24, 2, 2, -36, 36, 17, 34, -34, -26, 23, 2, 19, 11, -40, 13, 54, 50, 51, 15, -23, -16, 97, -22, -10, -18, 32, 10, 45, -2, -95, -29, -13, 2, 32, -17, -18, -82, 42, 84, 73, 49, -40, -31, -26, 60, 106, -18, -13, -46, 19, 5, 37, 76, -39, -62, 57, 1, -89, 7, -13, -55, 127, 23, 55, -36, 54, 31, 59, 49, -12, -17, 11, 21, 5, 2, -79, 59, 70, 39, 37, -75, 20, -64, -43, 32, 53, -18, 32, 70, -4, -51, -41, 68, -36, 29, 15, -12, 45, -33, -23, 71, 60, 52, 3, 26, -34, -45, 24, 46, -14, 64, 23, 10, 71, -74, 47, -41, 12, 36, -15, -32, -56, 64, 6, 40, 11, -17, 70, 20, -21, 53, 71, 8, 26, -23, 44, 56, -40, -47, -6, 63, 30, -55, -30, -10, -44, 12, -54, 104, 34, 66, -52, -30, -79, -10, -29, 19, -36, 48, -2, 56, 15, 4, 58, 33, -35, -35, -20, 19, 17, 55, 9, 35, 25, -13, 60, 4, 15, 28, 12, -13, 63, 9, 7, 9, -21, 17, 28, 55, -8, -22, -51, -41, -21, 8, 41, 73, -26, 13, 5, -66, -48, 12, 75, -26, 38, -29, 16, -49, -32, 9, 83, -49, -2, -8, -45, 4, -10, 60, -2, -55, 61, 67, -47, -65, -26, -4, -7, 38, -40, 2, 61, 68, -8, 56, 37, 29, 89, -10, 3, -45, -64, 50, -44, -46, -54, -18, -3, 109, 67, -21, -18, -44, -7, -44, -43, 64, -64, 92, 63, 57, -44, -65, -9, 88, 91, -55, 19, -61, 37, -12, 18, -64, -46, -32, -3, -63, -14, -12, 58, -13, 39, -16, 57, 28, -28, -7, 0, -71, -22, -62, 34, -83, 77, 71, 82, 71, -27, -43, -12, -38, -54, -68, -44, -42, -16, -21, -2, -17, 61, 42, 15, 60, 55, -6, 58, 56, 97, 31, -3, -92, -24, 8, -54, 56, -85, -30, 61, -41, -101, -53, -81, 13, -36, 7, 38, 57, -35, 73, 24, -26, 21, -37, -36, -68, -81, -27, 72, -18, -19, 20, 68, -91, -86, 92, -48, -83, 51, -20, 78, -32, 83, -73, 45, 56, 73, 11, 13, -2, 36, -94, -69, -21, -31, -64, 34, -85, -77, -22, -23, 27, 12, 42, 62, 78, -9, -5, 12, 21, -15, -85, -43, -26, -62, -68, -6, 57, -20, -50, -78, 17, 4, -5, -9, 58, -79, 34, -62, 25, 61, -38, 27, -54, -50, -60, 42, 29, 29, -56, 32, 101, 15, 83, 106, 70, -72, -25, 26, -7, 67, 23, -66, -36, 46, 85, -71, 9, 59, -38, -57, 88, 4, -86, -38, 93, -39, 38, 77, -44, -86, -46, -78, 127, -47, 58, 53, 2, -66, 25, 54, 9, -35, 67, -51, -19, -87, -69, -54, -84, 81, -32, -90, -62, -15, 7, 82, -19, -23, 1, -39, 58, 74, 97, 79, 83, 17, -11, -69, 13, -43, 7, 47, -58, 24, 52, -27, 13, 54, -34, 10, 17, 10, 46, 31, 54, -1, 23, -54, -14, 69, -42, -44, -86, -64, -62, 57, 50, 75, 9, 47, -8, -35, 42, 38, 80, 85, -41, 68, -81, -64, 96, -1, 19, 26, -94, 7, -62, 63, 35, 19, 69, -39, 82, -87, -41, -49, -59, 33, -107, -61, -38, -56, 81, -61, -77, -67, -104, 64, 61, -46, 10, -6, -76, -89, -29, 15, -12, -1, 74, -28, 21, 86, -20, -54, -72, 42, 73, 54, 66, 52, 26, -53, 66, 91, -35, 6, 75, -52, 55, -84, 51, -24, 47, -29, -26, -24, -22, 3, -87, 12, 67, -2, -80, 90, 1, 5, 27, -41, -86, -53, -47, -44, 73, -18, 25, 8, -76, 85, 33, -39, 11, 0, 91, 36, 89, -15, 22, 2, 55, 52, 3, 90, -90, -44, -93, -89, 46, 70, -52, 45, 23, -43, 77, 8, -14, -89, 37, 23, -76, 27, -22, 67, -70, 32, 23, -40, 67, 68, 24, -60, -46, -42, -16, -48, -54, 72, 34, -59, 2, -61, 78, -35, 59, -61, -67, -13, 67, 45, 50, 27, 67, -24, -70, 54, 14, 76, -13, 17, 41, -68, -15, 74, 34, -50, -51, 66, -34, 11, -45, -32, -73, 60, -51, 67, 42, -87, -12, -10, 39, 6, 10, 25, -19, -72, -71, 23, -10, 83, -46, 19, 48, 6, -22, 59, -75, -5, 10, -39, -48, -36, 44, -5, -65, 49, 3, -66, -11, 2, 13, -57, -41, -11, 20, -19, -44, -45, 37, -39, -41, -51, 61, 12, 52, 42, 16, 34, 25, 70, -15, -33, -33, 9, 4, 33, -27, -23, -11, -40, -20, -51, 23, 63, 23, 37, -17, 62, 41, 35, -79, -63, 16, -43, 5, 57, 44, -89, 34, 0, -55, 5, 32, 20, -10, 19, -30, -83, -55, 43, 6, 64, 18, 35, 54, -68, 98, 47, 44, -42, -72, 24, -31, 12, -7, -86, -32, 10, -56, 67, 56, -49, 30, 19, 7, -3, 35, -88, -3, -25, 5, 47, -45, 32, 59, 83, -15, -12, -28, -21, -31, 53, -61, 24, 52, -3, -45, 47, -50, -37, 40, 33, -53, 29, -63, -49, 3, 28, -26, -37, 44, -25, -79, 18, 57, 29, -4, 7, 29, -6, -46, 68, -28, -54, -9, -10, 25, 105, -23, 29, 60, -45, -6, -6, 127, 82, -43, -16, -81, -31, -12, 100, 18, 39, 47, -75, 32, -14, -15, -92, 92, 73, 22, -3, -63, 83, -5, -23, 31, 35, 24, 65, 2, -68, -6, -17, 71, 3, 23, 8, 56, 24, -8, 47, -63, 47, 61, -35, -59, -57, 5, -64, 37, 45, 32, 16, -82, -25, -59, 23, -73, 40, 44, 22, 32, -83, -56, -95, 78, -10, -27, -68, -66, 25, 23, 0, 8, 27, -44, 12, -57, 17, 29, -59, -10, 23, -62, 40, 45, 16, 23, 43, -9, 0, -37, -38, 46, 54, -18, -20, 18, -47, 30, 37, 23, -11, -44, -46, -35, -24, 0, -76, -21, 15, -47, -64, 9, 14, 25, -36, -56, 56, -51, 42, 61, -17, -3, 20, -66, 37, -20, -2, 61, 19, 66, 5, -15, 46, -16, -55, -29, -39, 58, 98, 39, -58, 6, 43, 94, 8, 22, -13, -11, 30, 1, -66, 47, 32, 30, -52, 20, 5, 55, 18, 5, 39, -13, 13, 54, 24, 32, -26, -24, 3, -10, -44, 27, -23, 8, 41, -71, 46, -47, -16, 41, 63, 27, 41, 1, 13, -24, 33, 64, -66, 15, -68, -51, 26, 8, -24, 26, -37, -43, -4, 19, -23, 21, 23, 12, -33, -12, -17, 42, -16, 29, -14, -25, 15, 16, 0, 24, 44, -32, 26, 22, 30, 23, 14, 17, 37, -40, -39, -32, -18, 25, 7, -15, 17, -46, -6, 8, -20, -39, -1, 97, 41, -3, -32, -27, 14, -8, 44, 4, 24, -21, 38, 7, 18, -9, -35, 8, 27, 38, 10, -22, -2, 58, 39, -16, -27, 13, -28, -25, 5, -27, 34, 35, -6, 7, 5, -6, -35, 23, 7, -37, 10, -5, -1, 1, 2, 12, -5, 12, -9, 46, -13, -28, 5, 15, 0, -11, -9, -13, 57, -18, 27, 8, 6, 19, -8, 3, 11, 35, 10, -26, 3, 24, 5, 5, -32, 7, -9, 48, -38, 29, 7, -18, -41, -32, 43, 6, 38, -32, -42, -58, -7, 11, -8, 50, -10, 22, -22, -22, -59, 21, -48, 46, 16, -35, -39, -43, -7, -33, 28, -25, 4, -20, 38, 8, 10, 13, -46, 40, 29, 21, 26, -28, 14, 27, -25, -37, 29, 21, -5, 40, 8, 13, -5, -15, -14, 33, 20, 51, -33, -23, 41, -38, 45, -28, 22, -26, 16, 15, 1, 6, -50, -16, -60, 37, 0, 45, -5, 9, 26, -88, -51, -6, 42, 64, 71, -40, -9, -31, -63, 29, 11, 3, -21, -4, 49, -127, -34, -9, -10, 45, -9, -54, 52, -10, -50, -35, -26, -37, 4, 7, -24, 26, -11, -28, 13, -12, 0, -10, -12, -40, 1, 41, -5, 21, -16, 1, 46, 2, 36, 15, -1, 55, 1, -17, -47, -21, -7, 29, -33, 6, 34, -10, 38, -57, 33, -9, 43, -9, 59, 32, -58, -30, -52, 20, -2, 9, 19, 13, 56, 23, 43, 32, 54, 22, 15, -59, -61, 26, 22, -6, 31, -13, 41, -39, 54, -10, -39, 75, 0, 16, 16, -32, 1, 4, 27, 25, 24, -33, 4, 12, 15, 6, 24, 46, -33, -6, -52, 0, 1, -12, 39, 22, 29, -38, 27, 52, 8, -20, 20, -2, 34, 23, 27, -6, 46, 44, 24, -29, -5, -24, -30, -44, -10, -7, -19, -13, 14, -39, -1, 18, -11, -6, 59, 32, -17, 30, 12, 24, 32, -19, 17, 34, -10, 29, -14, 50, 9, -24, -22, 1, -3, 29, 38, 15, -5, 0, 3, -17, -33, -36, -9, -2, -28, 9, 36, -21, 32, 11, 39, 13, 24, -10, -10, -32, -16, -6, -45, 24, 13, 5, -26, 26, -8, 14, -28, -1, -3, 12, -3, 20, -1, -4, 23, -5, 13, 3, -5, 24, 26, -29, -18, -5, -5, 14, 40, 6, 10, -21, -11, -7, -15, 10, -29, 28, -6, 18, 11, 15, -8, 2, 23, 35, -17, -13, -14, -15, -10, -18, -14, 1, -10, 5, -21, 4, 31, -18, -25, 17, 29, -7, -3, -41, -1, 28, 18, -22, -20, 20, -25, 13, 16, -30, 20, -7, -28, -18, -33, -18, 17, -7, 9, -25, -27, 2, -12, 12, 25, -10, -8, 9, 23, -19, 16, 30, -28, -26, -28, 30, 23, 6, 7, -4, 16, 10, 29, 28, -10, -24, -4, 0, -8, 0, 21, -30, -17, -20, 30, 10, 7, 30, 11, 3, -20, 29, -24, 4, 54, 18, 13, -1, -24, 16, 26, 21, 19, -4, 22, -26, 23, 31, 6, -8, -14, -6, 25, 16, 2, 2, -13, 24, 15, -20, 12, -22, 1, 20, -21, -18, 18, 6, -24, 9, -14, 9, 31, -9, -4, -18, 2, -44, -8, 45, -11, -27, 8, -10, 17, -12, -19, 22, 3, -14, -5, 8, 9, -3, -1, 24, 6, -25, -18, -24, 4, 7, -3, 7, -24, 30, 29, 3, 5, 61, 10, 23, -10, -19, 20, -5, 7, -7, 22, -3, 18, -11, 28, 4, -1, -9, 11, -8, 39, 13, -5, 29, 25, 32, -23, 7, -18, -26, 41, -8, 31, 3, 11, 5, -9, 34, -2, -4, -11, 9, 6, -16, -25, -6, -27, -58, 7, -14, -21, -8, 22, 15, -15, 2, -42, -32, -22, -16, 7, -3, -10, -6, -22, -48, -13, -19, 12, 40, -8, 19, 6, 20, -35, 3, -12, 13, 21, -24, 22, 12, 33, 46, 17, 38, 28, 7, 6, -2, -31, 17, 16, -16, 27, 24, 21, 11, 11, 36, 3, 66, -1, -13, 0, 21, -15, 18, -8, 8, -29, 22, 5, -22, -9, -2, -14, -2, 16, 28, -10, 4, 2, 24, -1, -15, -11, 22, -5, 36, -1, 36, -18, -18, -59, 12, -23, 24, 8, 39, 17, -4, 77, -67, -12, 41, 22, 69, -7, -26, -47, 16, -27, 21, -27, 0, 27, -9, 81, -128, -21, 41, 40, 60, 37, -24, -1, -23, 6, -27, -14, -1, 10, -33, 5, -87, -3, 25, -9, -14, 16, -34, -17, 7, -25, 2, -19, 11, 27, -24, 17, -22, 7, 20, -11, 17, -13, 2, -3, -14, -52, -39, -3, -11, 2, 45, 64, -22, 9, 2, 16, -70, -67, -29, -42, 37, 31, -20, -77, 57, 55, -39, 70, -20, -20, -42, 37, 4, 14, -63, 34, 35, -20, 75, -57, 81, 25, -20, -39, -14, -69, -37, -60, 12, 1, 43, 15, 4, 7, 10, 27, 29, -51, -53, -65, 30, 33, -24, -18, 3, 35, -46, 36, -69, 39, -29, -26, 83, 36, -47, -31, 8, 45, 27, -59, 20, 49, 4, 45, 45, -39, -17, 29, -39, -46, -42, -64, 2, -40, -15, 55, 60, -15, -51, 31, 28, -22, -23, 37, 56, -55, 39, -43, 101, -5, 74, -15, 22, -34, 14, 63, -34, -81, 59, 90, -32, 2, 27, 28, -15, -33, 81, 40, 52, -5, 32, -21, -63, -59, -48, -14, 13, -20, 56, 19, -32, -15, 48, 69, 26, -13, -1, 3, -13, 48, -27, 15, 8, 13, 21, 58, -23, -31, -46, 47, -16, -11, -21, 24, -27, 27, -13, -5, 13, 40, 47, 39, 103, 6, 47, -16, -61, -13, 58, -61, -68, -66, 15, 49, -27, 15, 13, 28, 7, -7, 23, 59, 33, -44, 9, 41, -43, 30, -77, 52, -3, -25, -40, -40, 85, -10, -26, -49, 60, -34, -40, 37, -2, -39, -10, 17, 63, -25, 64, 2, 124, -19, 45, -12, -7, -15, 7, 18, 1, 2, -17, 79, 47, 30, 47, -70, 116, -67, -5, 40, 42, -19, -43, -2, 42, 17, 26, -12, 70, 34, 57, -6, 49, -50, -54, -50, -62, 54, -54, -50, -24, 33, -41, -63, -26, -10, 65, 55, -25, -18, -30, 34, 70, 19, 65, 32, -18, 23, -13, -44, 58, 35, -40, -88, 81, -42, -56, 14, 60, 1, -35, 127, -16, 4, 16, 4, -62, 47, 43, -77, 96, 32, -58, -79, 56, -50, 42, 1, -26, 25, 7, -47, -31, -24, -6, 38, 75, -57, 29, 61, -62, 79, -3, 47, -39, -38, 27, 22, 74, 29, 15, -45, -2, -69, -94, 46, -33, -22, 63, 51, -68, 48, -65, -50, -36, 54, -16, 31, -29, 46, -12, 49, 27, 9, 7, -16, 16, -77, -67, 36, 72, 64, 43, -66, -83, 24, 68, -43, -38, 30, -11, 35, -29, -84, 47, 44, 28, -38, 17, -18, -85, 7, -16, -9, -57, 65, -18, -73, 10, 58, 20, -21, 36, -33, 11, -55, 32, 21, -67, 17, 24, 20, -74, 69, 3, 23, -4, 39, -12, -57, -75, 47, -23, 14, 2, -82, -76, 69, 9, 70, -78, 1, 8, -4, 43, 69, -9, 29, 59, 46, 8, 11, -52, 6, -16, -53, 47, -113, 30, -43, 51, 36, -28, 17, -26, -27, -30, 16, -1, -36, 38, -65, -54, -120, 63, -8, 56, -72, -16, 0, -74, -81, -5, 57, 41, -25, -57, 4, 42, 7, -22, 65, 53, -42, -62, 51, 12, -65, 103, 41, 62, -23, -95, -13, -67, 86, 26, -33, -47, -37, 56, 50, -3, -10, 66, -31, -25, 37, -38, 42, -52, -5, 71, -13, -63, -11, -39, 93, 12, 80, 46, -31, 6, -24, -92, 17, 3, -48, 11, 83, -30, -30, -35, 4, 67, -16, -40, -68, 81, 5, -25, -24, 69, 29, -6, -65, -80, 56, -49, -12, -2, 5, 36, -38, 71, -30, 68, 22, -25, 12, -28, 43, 25, 53, -50, 12, 39, -53, 12, 83, -40, 57, -47, -39, 37, 86, -69, -51, -27, -25, 13, 77, 116, -4, 45, 75, 38, 45, 4, -27, 77, 49, -20, -67, 81, 37, -65, -11, 15, 40, -69, 70, -27, -36, 59, -46, 26, 15, -14, 10, -26, 67, 19, 75, 44, 40, 88, -28, 102, -21, 13, 120, 34, 70, -29, -21, -25, -20, -40, 7, 8, 50, 24, 13, -23, -66, -5, -26, -62, -17, 58, 10, 31, 32, -31, 17, -42, -58, 27, 54, 42, 55, -4, -20, -64, 3, -78, 12, 30, 32, -76, -4, -51, -11, 11, -62, 61, -3, -17, -52, -23, -1, -34, -17, -2, -57, -40, -2, -26, -49, -59, 60, -15, 13, 121, 12, -2, 31, 7, 8, -68, -71, 60, 102, 30, -67, -78, 40, 127, 38, 12, 43, -26, 63, 4, 56, 35, 35, 43, 59, -64, -65, 18, 35, -14, 74, 108, -42, 36, -2, -52, 30, -60, 38, -10, 1, -35, 1, -30, 39, 21, 50, -6, -56, -10, -72, 10, 16, 16, -26, -6, -39, -77, 21, -3, 43, 65, 51, -37, -89, -20, -34, 122, -91, -21, 34, -35, 76, -75, -77, 12, -21, 121, 68, -43, -36, -23, -10, 55, -50, -43, -9, -11, 90, -125, 8, 39, 33, 97, -35, 34, -55, 77, -43, 32, -55, 94, 16, 66, 109, -15, -4, 19, 64, -39, 14, -98, -90, -53, -44, 15, -69, -35, 55, -8, 39, -88, 29, 28, -63, -31, -61, -21, -56, -16, -18, -19, 32, -6, -35, 24, -45, -5, -26, 90, 15, 50, 25, 22, -21, 5, 8, 16, 61, -37, -7, -71, 34, 13, 15, 54, -23, -42, -12, -44, -74, -39, -60, 25, 53, 12, 27, -2, -1, 64, -24, 25, -56, -75, -69, -34, -61, -52, -12, 28, 53, 3, 11, -13, 6, -39, -41, 59, 0, 22, -25, 11, 35, 41, -6, -31, 42, 5, 4, -28, 63, -15, 7, 62, -14, -49, 0, -20, -8, 28, 40, 67, 27, -6, 36, 17, 12, -33, -16, 35, 68, -11, 3, 1, 59, 30, -11, 62, 24, 19, 28, 0, 8, -68, -48, -39, -35, -43, 36, -75, -64, -8, -44, -41, -14, 32, 6, -10, -99, 61, -25, -48, 22, 2, 30, -18, -4, 34, 7, -25, -22, -9, -1, -26, 24, -42, 56, 10, -31, 54, -35, -64, 62, -20, 6, 1, -36, 8, -12, -27, 14, 20, -8, -12, -27, 35, 26, 25, -38, 21, 39, 29, -83, 17, 22, 3, 29, -34, -48, -96, -37, -3, -24, 53, 109, -16, 38, -24, -86, -20, 1, 45, -41, 80, -28, -128, -30, -84, -17, 17, -16, 17, 34, 6, 55, 32, 10, -5, 0, 90, 44, 89, 61, 39, 26, -66, 81, 78, 70, 58, -21, 30, -9, -36, 85, 10, 7, 38, 54, -23, 15, 60, -28, 24, 53, -5, -93, 24, -21, -45, 33, -1, 6, -22, 13, -11, 39, 44, 12, -46, -45, -18, -20, -5, 31, -33, -21, -46, 7, -3, -24, -9, 21, -10, 18, -17, -21, 14, -26, -50, 11, -19, -65, 1, 34, -12, -12, 9, -32, 9, -36, 30, -40, -22, -29, -25, -28, -11, 73, 3, -29, -40, 40, 90, -25, -17, 29, 57, -9, 10, -49, 25, 31, -32, 54, -71, -34, -64, -32, -2, 84, 51, -14, 24, -35, -5, -59, 3, -3, -23, 1, -125, 23, -28, 37, -9, 6, -52, 3, 25, -69, -12, 27, -15, -4, 32, -27, -13, -37, 86, 48, 16, 38, -48, -38, 40, -24, 46, -12, 55, 34, -28, 111, -55, 29, 37, 30, 54, -31, -61, -94, 9, 1, 10, -20, 12, -36, 3, 126, -112, -28, 54, 12, 19, -12, -6, -18, -24, -9, -36, -14, 27, 27, 46, 29, -56, 15, -22, -6, 24, -23, -52, 27, 15, -44, -14, 22, -16, 17, 20, -11, 20, 47, -11, 13, 3, -15, -15, -5, -42, -16, 60, 10, 10, 52, 62, -52, 4, -62, -69, -62, 60, -29, 28, -23, 9, 35, -8, -99, 76, -80, 49, 15, -10, 63, -76, 65, -7, -50, -60, 29, 27, -21, 79, 14, -53, -33, 45, -86, -60, 73, 112, -18, -34, 49, 18, -92, -101, 17, -15, 38, 62, 33, 34, -57, 120, 28, 41, 34, -24, 5, 29, 38, 22, 1, 14, 68, -2, -24, -66, -26, 127, 83, 27, -69, -8, 2, -4, 50, 64, -1, -25, -71, 79, 41, 70, -30, -63, 29, 40, 7, -21, 31, -1, 44, 76, -39, 23, 67, -55, 63, 59, 50, -36, 39, 52, 14, 49, 22, -66, -40, 57, -1, -7, 6, -24, -58, -36, -42, 37, 57, -65, -84, -60, 43, 8, -57, 9, -56, -78, 12, -28, 25, 17, -23, 82, 46, 39, 5, -111, -24, 64, 45, 60, -22, -68, -11, 7, -14, -40, -108, 31, -52, 82, -73, -26, 20, 115, 50, 45, 3, -32, -47, -33, 53, -40, -13, -57, -28, 22, 5, 72, 62, -30, -16, 8, 1, 79, -23, -22, 6, 15, 44, 17, -47, 20, -48, -39, -79, -38, 33, -5, 61, -76, -14, 26, -28, 74, 29, -42, 22, -39, 42, 31, 55, 69, -34, 47, -73, 37, 67, 4, -56, -54, -37, 9, 69, 41, -43, 35, 39, 11, -24, -48, -75, -54, -21, 34, -37, -17, -105, -97, -82, -45, 55, 13, -86, 7, -43, 48, -24, -17, 53, -24, -9, -62, 13, 21, 43, 39, 51, -58, -16, -60, -16, -26, 49, 49, -9, -5, -17, -13, -30, -57, -6, -4, 60, -86, -1, -42, -26, 52, -43, 52, -42, 77, -11, 58, 81, 31, 30, 24, -46, 48, 66, -54, -20, 67, -15, 47, 6, -46, -44, -56, 41, -51, -24, -62, 28, -23, 20, 3, 57, -63, -47, -26, -60, 55, -18, 64, -79, 12, 17, -79, 61, 5, 58, -63, -68, -64, -29, 28, -44, -32, -66, 19, -13, -60, 22, -30, 50, 0, 58, -83, 42, 50, 44, 42, 88, -66, -17, -13, 53, 36, 17, 1, 47, 40, -68, 46, -39, 54, -45, 29, 2, -21, 46, 23, -5, -76, 36, 98, -47, 44, 7, 95, -78, 20, -3, -46, 51, 83, -22, 73, 71, -109, 31, 55, -21, 40, 2, 57, -75, 18, -92, 12, 22, 71, 20, -44, 94, -26, -8, -51, 36, 41, -97, 3, -71, 42, -35, 35, -4, -50, 32, 0, 58, 92, 77, 52, 30, -51, 55, -30, 11, 26, 19, -70, -32, -25, -22, -63, 0, 100, 9, 33, 49, 49, 30, 33, 51, 1, -39, 28, 103, 8, 55, 29, -16, 44, -9, 71, -10, -57, -58, 34, 33, -47, 46, -22, 62, -54, 60, -8, 6, 89, -52, 45, 8, 10, -70, 56, -8, -3, -15, 22, 71, -58, -62, 32, 52, 12, -62, 50, -56, -17, -36, -49, -60, -26, -2, 25, -2, 21, -51, -28, -62, -1, 25, 9, -64, 20, -29, 26, 40, -40, -63, 12, -1, -16, -43, -42, -47, 69, -18, -88, 24, -52, -35, 20, 50, -43, -23, -65, -63, -37, -22, -47, -50, 61, 71, -71, -33, 27, -68, 109, -15, -55, -8, -116, -54, -16, 2, 3, -53, 58, 16, 39, -36, 5, -8, -34, -44, 39, -29, 23, -46, -64, 5, -64, 64, 70, -53, 13, 7, -12, -11, 5, -87, -83, 17, -1, -1, -67, 4, -41, 20, -75, 53, -19, -36, -9, -21, 43, -50, -27, -74, -76, -2, 56, 43, -7, -38, -67, -19, 40, 57, -14, 3, -27, -21, 33, 87, 31, 41, -37, 66, 27, 25, -47, -34, 34, -36, 44, -45, 2, 31, -22, 51, 58, -56, -1, -13, 47, -29, 119, 50, -73, -7, -4, 68, 65, -4, 29, 20, -46, 49, 63, 34, 0, -65, 27, 20, 16, -5, 37, -4, 110, 39, -65, 1, 40, 22, -16, 65, 12, -57, 3, -14, 53, 10, 77, -54, -85, -83, 59, -27, -20, -72, 21, 12, 33, -23, -128, -67, 21, -7, 91, -37, 45, 61, 40, 59, -56, -13, -41, 41, -15, 53, -54, -22, -36, -47, 22, -53, 49, 43, 73, -18, -26, -21, 51, 0, 40, -50, -121, -31, -47, -54, -44, 81, -30, -35, -67, 1, 41, 8, 66, 42, 64, -57, -44, 4, 41, -43, 6, -49, -14, -34, 29, -52, -38, 20, -41, -50, 23, 16, -6, -23, 37, -26, -24, -36, -54, -37, 0, 1, 18, -52, 62, 56, 19, 105, -83, -80, 24, -39, 63, -47, -56, -74, 59, 50, -22, -74, 63, -58, 47, 118, -9, 43, 6, 19, 9, 44, -12, -64, -9, 39, -31, -51, -16, 4, -65, 78, -54, -44, -43, -36, -14, 78, -49, -82, -13, -116, 9, -62, -6, -21, 62, 41, -89, 43, -53, 23, 24, 32, -77, -41, -96, -102, 39, -8, -109, 102, 47, 77, 46, -60, -65, 21, 39, -52, -56, 64, 44, 96, -49, -41, 44, -10, -47, -79, -89, -78, -101, 30, -85, 12, -121, -51, -17, 81, 75, -23, 95, 101, -6, 19, 45, -78, -18, -99, -46, -99, -42, 60, -38, 5, -57, 51, -117, 42, -72, 9, 76, -68, -16, 97, -36, 91, -12, 28, 43, 91, -8, 59, -81, 65, -7, 39, -36, 109, -10, 1, 62, -105, 81, -68, -113, 112, -116, -101, 80, 87, -3, 61, 109, -50, -95, 9, 81, -72, -9, -63, 1, 97, -88, -22, 113, 1, -24, -85, 74, 111, 55, 92, -30, 105, 68, 64, 33, -108, 19, -27, -71, 87, -31, 62, -40, -75, -80, -4, -57, 34, 21, -94, 14, -54, -80, 40, -111, 74, 85, 79, -70, -42, 110, -31, 98, -10, 21, 104, -51, -17, 36, 22, 32, 56, 82, 61, -22, 90, -34, 58, 86, -117, 105, 90, 39, 68, 18, -43, -1, -56, 70, -61, -65, -19, 9, -79, 17, -9, -32, -65, 91, -64, -83, 73, 8, 97, -119, 53, 88, 10, -115, 41, -29, -64, -16, -113, 15, -120, -51, 62, 39, -9, -76, 107, 26, -73, -40, 49, 102, 82, 49, 18, 76, -65, -10, 0, -91, -76, 26, -75, 93, 9, -120, 82, -44, -83, 102, -86, 98, 110, -68, -26, -65, -7, -51, -125, -86, -7, 30, -94, 7, -95, -89, 10, -6, -75, 72, -59, -91, -76, -1, 74, 72, -62, -24, 89, 33, 0, -44, 24, 12, -30, -83, -2, -60, 48, 76, -111, 62, 6, 38, -11, 15, -39, -121, -71, 32, -8, 31, 96, 39, 103, 22, -14, 78, 57, 12, 14, -89, 69, -58, -112, -49, 24, -29, -90, -76, -115, 71, -17, -30, -95, -128, -41, -116, -65, -74, 9, 50, 64, -37, -101, 60, -44, 114, -85, -76, -9, -63, 91, -113, -30, 41, -22, -34, 98, 36, 21, 61, -5, -72, -91, -10, -31, -114, 34, 62, -6, 109, -125, -55, 86, -43, -86, -22, -37, -91, 94, -112, -110, 109, -20, 79, 96, -32, 85, -13, -71, -89, 22, -13, 17, 106, -30, 15, -29, 89, 38, -99, -69, -107, -15, -91, -12, -86, -61, -71, 116, -84, -10, 23, -65, -77, 62, -35, -60, -85, 11, -106, 27, -34, 11, -36, -33, -46, -25, 79, -44, -20, -1, 35, 39, 46, 72, 32, 9, -34, 26, -46, 34, 48, 21, 39, -13, -49, -18, -40, 19, -40, -7, 47, 9, 9, -45, -27, -7, 9, 29, -57, -42, -81, -2, -12, -27, 15, -12, 63, -59, 25, 8, 40, -24, 54, 59, -86, -10, -37, -11, 7, -14, -42, -14, 69, -36, 9, -30, 31, -30, 20, 9, -117, 23, 36, -15, 15, 41, -89, -2, 43, -44, -14, -37, -47, -6, 37, 4, -25, -24, -65, -20, 21, -25, -28, -10, -5, -25, -42, 11, 1, -2, -29, 48, -23, 25, -37, -10, -19, -10, 43, -37, 14, -47, 23, -10, 24, -3, -14, 21, 18, -7, -14, 3, 35, -34, 16, 1, -3, 28, -41, -34, -12, 38, 30, 43, -9, 9, 51, 18, 5, 17, -39, -16, -23, 10, -1, -3, -18, -24, 33, 65, -10, -65, 9, 45, -12, 26, 10, -16, 3, 35, 28, -43, -17, -13, 5, -7, -65, 8, 29, 25, -1, 30, 22, 23, -18, -28, -20, 5, 6, 34, 12, -14, 2, 19, 18, -43, 9, -20, -38, -34, 10, 38, 23, 27, -2, -3, -20, -24, 74, 21, 9, 20, 8, -3, -2, 24, 15, 4, -24, -22, -5, 11, 6, -6, 88, 27, 25, 27, -23, -44, 60, 10, 5, 22, 25, 41, 44, -38, -3, -39, 127, 34, 19, 40, -8, 8, 7, -38, 30, -39, 14, 37, -34, -30, -34, -33, -1, -17, 6, 13, -14, 1, 18, -2, 2, -9, -26, 9, 18, -6, -42, 17, -16, 22, 7, -48, -9, 29, 1, -49, 20, 19, -17, -36, -27, -4, 9, 7, -81, -2, 33, -2, 74, -8, 31, -17, -5, -1, -7, 21, 19, -12, -12, 24, -74, -10, 58, 9, 22, 2, 33, 76, 4, 18, -7, -10, 7, 6, -4, -48, -6, -10, 28, 24, 55, 37, 32, 16, -31, 27, 18, 12, -19, 36, 30, -30, -53, -1, 13, -51, 29, -42, -9, 27, 14, -12, 39, 42, 6, -2, 19, 21, 46, -5, 31, 18, 24, -37, -3, -67, -6, 38, 13, 41, 1, 19, 33, 82, -22, -28, 68, 22, -11, -4, -36, -63, -18, -49, -19, 2, 40, 17, -35, 11, -29, 12, 47, -17, -20, 58, -18, 13, -23, 41, 33, -16, 9, -9, 32, 3, -8, 18, -22, -22, 21, 2, -13, -29, -38, -45, -4, -2, 12, -6, -12, 10, 20, -7, 31, -17, -3, -3, 17, 27, 56, -52, -7, -48, 19, 39, 5, -26, 35, -49, -30, 68, 100, 46, -5, 44, -53, 17, -18, 47, -16, 36, -17, 10, 59, 32, 14, -39, 15, 32, 11, 27, -56, 50, 68, 87, 27, -23, -75, 62, -30, 22, -53, -94, -113, 17, 22, 24, -23, -60, -73, 71, -36, 31, 2, 28, -63, 37, -104, 50, -39, -20, 28, -7, -42, -48, 49, -15, 42, 62, -25, 52, 17, 22, -7, -3, -4, 44, 26, 24, 61, 54, -55, -33, 1, 18, -15, -18, 31, 36, -4, 57, 35, 25, -23, 52, 49, -38, -32, -10, -3, -39, -9, -92, 19, 0, -76, 40, 90, -3, -75, 48, 64, 48, 10, -101, -13, -36, -83, 0, 40, 1, 43, -51, -75, 68, -8, -108, -69, 46, -22, -23, 46, 21, -75, 26, 77, -5, 35, -46, -47, -63, -11, -55, -1, -16, -50, 10, 21, -55, -10, -29, 38, 21, 25, -61, 58, -38, 20, -24, -60, -60, -70, -54, -32, -24, 41, -17, -21, -52, -72, -79, -64, 47, -34, 25, 4, -55, -98, -39, -22, -37, 121, -29, 56, 56, -45, -34, -23, 11, 35, 127, 75, 88, -50, -37, 1, -56, -67, -51, 96, 15, -88, -40, -20, -56, 108, 103, -39, 48, 17, 27, 28, -54, 30, -97, 15, -55, -44, 23, 22, 76, 69, 26, -2, 14, 44, 12, 85, -36, -33, 13, -98, 47, -61, 36, -32, -48, -2, 58, -59, -89, -40, 70, 53, -66, 37, -17, 105, -24, -10, 17, -19, -23, -82, -100, -95, -35, 6, 34, -49, -9, 1, -8, -47, -61, -20, 45, -64, -43, -14, -5, -46, -69, -46, -21, 20, -57, 13, 74, -47, 12, -20, -91, -46, -53, -17, -44, 37, -116, 6, -38, 22, 63, 40, 20, -12, 87, -23, 36, -45, -89, -36, 0, -20, -38, -40, 0, 43, -27, -49, 7, -8, -7, -36, -39, -36, 9, -121, -27, -70, -7, -17, 99, 56, 54, 38, -71, 92, 63, 65, 59, 17, 16, 28, -19, -28, -52, 28, 85, 37, 67, -52, 20, 55, 84, 50, -34, -9, -4, -53, 14, 11, -29, 53, -18, -49, 6, -19, 49, -6, 2, 31, 20, 64, -110, -67, 24, 72, 81, 31, 9, 26, -33, 36, 81, -25, -43, 63, -27, 47, 14, -29, -11, 24, 13, -47, 27, 77, 14, -29, -29, 26, -6, 39, 52, 15, 66, 37, -47, -59, 40, -53, -28, 30, -26, 14, -11, 22, 0, 1, 22, -27, 36, 26, -37, 21, -36, -17, -71, -1, 12, 53, -11, 100, 53, 2, -41, -64, -57, -22, 89, -28, -18, -52, -81, -42, 41, -30, -8, 3, -14, -81, 10, -45, -11, 73, 18, 40, -30, 16, -52, 65, 44, 44, 30, 3, 2, -96, 18, 36, -9, 22, 16, 35, -65, 12, -92, 41, -32, 17, -56, -16, 25, -49, -30, -8, -53, 28, -41, -17, 32, -42, -1, 22, -22, -57, -78, 27, 19, -50, -23, -32, -26, -12, 10, -50, -33, -8, 31, -11, -20, -52, -33, 87, -32, 14, 7, -11, -15, 12, 41, -53, -28, -32, 41, 10, -14, 34, 40, -53, 8, 89, -17, -23, -29, 66, 44, -60, -7, -36, 36, 60, 32, 15, 1, 23, 35, 19, 0, 16, 48, 22, -39, 35, -55, 50, 17, 48, -12, -32, 34, -69, -36, 2, 9, 41, 29, -34, 36, -27, -34, -28, 56, -31, -16, -37, -12, -26, 70, 87, 9, 20, -50, -34, -10, -22, -8, 51, 53, 5, 46, 47, -47, 47, -34, 127, 36, 64, 33, 7, -14, 7, -20, 82, 85, 23, 28, 28, 89, 21, -21, 47, -30, 27, -33, 50, -22, -16, 12, 56, 9, -7, -7, 30, -49, 48, 35, -7, -4, 32, 7, 20, -66, 22, 56, -30, -10, 17, -33, 1, -19, 87, -35, 43, -42, 0, -28, 46, -28, 1, -22, 6, 19, 17, 5, -5, 43, 29, -42, 30, -27, 45, 48, -57, -5, -40, -8, -9, -18, -12, -17, 55, -43, 17, 46, 32, 49, -7, -44, -60, -1, 38, 9, 44, -2, -26, -26, -13, -34, 49, -29, -50, -39, 3, -24, 30, 7, 31, 57, -37, 3, -49, 17, -15, -4, 83, 59, 12, 30, 5, -9, 18, -20, 21, 70, -34, 60, 8, 23, 40, -44, 29, 24, 81, 25, 4, 21, 26, 7, 50, 64, 18, 24, -5, -7, 27, -8, 43, 49, -51, 19, 36, 1, 43, 21, 43, 17, -18, -20, -20, -13, 23, -8, -5, -17, -34, 41, 43, 54, 10, 83, -25, 62, 21, 0, 10, -16, -55, -60, -21, -29, -4, -55, -64, -26, 73, 54, 3, -3, 31, 3, -3, 36, 16, -45, 33, -39, 14, -6, 2, -23, -25, 32, -53, -16, 27, -4, 12, -22, 54, -23, -26, -9, -35, 41, 1, -62, -30, -23, -53, -34, -2, 27, -49, -13, -10, -21, -4, -21, -47, -12, 34, 20, -44, 38, -55, 31, 26, -15, -46, 5, 17, -76, 3, 40, 25, 33, 41, 26, 36, -10, -8, 27, 18, -15, -46, 50, -14, -59, 84, -28, 39, 14, -12, -6, 22, 63, -41, 30, -50, 24, 6, -8, -38, 47, 0, -27, -83, 2, 23, -8, 47, 56, 17, 8, -32, 33, 39, 29, 3, 63, -99, 18, -27, -15, -27, -3, -64, -46, 20, -1, -32, -10, 14, -12, -49, -21, -33, 14, 62, 17, 53, 28, 21, -45, 12, -25, 43, -25, -42, 8, 22, 12, -47, 6, 40, -38, -25, -14, -50, -18, -11, -38, 12, -27, -12, -35, 40, -33, -102, 12, -21, -9, -15, 18, -32, -11, -39, -33, 10, -73, -46, -16, -24, 36, -48, 2, -33, 19, 41, -45, 21, 43, -15, 8, 30, -37, 6, 13, -29, 14, -2, 25, -29, -7, -12, 41, -13, 2, 50, 2, 9, 44, -16, 0, -23, 47, 9, -8, 127, 52, 33, 6, -7, -49, -7, -14, 25, 57, 39, -3, -46, 87, -88, 21, 6, -20, -39, -2, -44, -94, 25, -2, 33, -43, 12, 31, 34, -5, -91, -56, -15, -16, -43, 1, 19, -91, -45, -41, -42, -29, -47, -39, 28, 0, -38, -22, 44, -29, 44, -4, -68, -3, 35, 64, 15, -3, -17, -12, -3, 28, -1, -19, 0, -39, 15, 60, 2, 49, 22, 1, 16, -24, 2, -27, -9, 50, -21, 16, -14, 54, 44, 34, 39, 20, 47, 86, -49, -26, -37, 28, -28, 73, -58, -6, -69, 22, -21, 58, -22, -30, -34, 16, 15, 23, 30, 41, -4, -49, -29, 26, 12, 69, -7, 21, -34, -24, -32, 11, 29, 62, -27, -8, 20, -32, -43, 23, 36, -32, 12, 4, -15, 22, 11, 67, 46, 26, -52, -15, -18, -5, 32, 13, -2, 6, -23, -21, -9, 39, 37, 61, -33, -54, -16, -52, 55, -22, -17, -31, -29, -12, 20, 11, 32, 50, -29, 47, -61, -22, -41, -40, -23, -86, 108, -9, -93, -24, -88, 31, 61, -2, -16, 20, 4, -36, -35, -43, 10, -4, 83, 61, -68, 12, -20, -56, 14, -28, -30, -12, 22, -24, 4, 10, -20, -17, 36, 22, 30, 28, -18, -51, 35, 22, 29, -19, 28, -18, -25, -29, 19, -18, -23, -25, 1, 15, -44, -71, 60, 4, -1, -48, -3, -53, 31, 32, -13, 3, -8, 61, -37, -42, -63, 5, -10, 60, 32, 39, -67, -52, 34, -12, 29, -14, -7, -39, -79, 16, 33, -26, -1, -1, 59, 42, -73, -46, 49, -34, 33, 94, -82, -22, -35, 34, 37, 24, 35, 43, 43, 10, -2, -65, 79, 25, -44, 42, -104, -6, -13, -34, 4, 91, 38, -33, -2, -45, -8, -4, 70, -54, 20, -49, 20, -22, -80, 2, 13, 13, 62, 33, -58, -37, -37, -36, 21, -81, 17, -65, -83, 31, -86, 16, 30, 15, 55, 10, 26, -92, -41, 34, -39, -16, 5, 41, -51, -30, 34, -32, 71, 17, -35, -23, 25, -41, 69, 29, 6, 57, -60, 97, -23, 41, 13, -38, 15, -7, -25, -38, -30, 86, 20, -36, 69, -10, 17, 29, 50, 45, 77, 14, 11, 123, 36, -29, -30, 23, -19, 27, 60, 23, -47, 81, 19, 49, 120, 34, 17, 17, -54, -7, -40, 14, 26, -63, 69, 20, 49, -7, 7, 2, -57, 23, 36, -54, -63, -67, 47, 0, -46, 44, -13, 31, -7, -67, -34, -17, -15, 5, -56, -62, -29, -6, 53, 42, -7, 28, -33, 15, -8, -8, 12, 35, 33, 29, 3, 15, 39, -11, 49, -64, 50, 57, -6, 59, -59, 9, 50, 45, 71, 18, -12, -2, 65, -33, -40, -68, 47, 4, -47, 2, -9, 25, -12, 42, 30, -38, 2, -77, 7, 29, -27, -41, 13, 28, -33, 32, -4, 23, -4, 59, 33, 10, -49, 7, -14, -94, 21, 0, -5, -20, 33, -16, 29, -10, 62, -24, 79, -45, 37, -19, -57, -61, 6, 26, -54, -2, -28, 27, 54, 8, 46, -38, 127, 0, 9, -51, -62, 42, -21, -22, 36, 62, -23, -55, 57, -44, 31, -16, 85, -27, -41, 16, -88, -3, -13, 11, -21, -47, -62, 56, 42, 91, 109, -1, 22, -33, -44, 10, -8, 26, -11, 27, -33, 66, -12, 11, -53, 3, 12, 35, 10, 31, -3, 46, 44, -29, 9, 64, -18, 74, -54, 63, 30, 11, -13, 10, -23, 28, -22, 35, 34, 76, -10, -23, 45, -19, -44, 9, -47, -88, 27, -57, -36, 9, -52, 43, 46, -8, -42, 39, 39, -20, 18, -5, -35, -26, -30, 28, 8, -43, 42, -39, 67, -37, -60, 23, 45, -16, -39, -32, 37, 13, 27, 75, 59, -13, 28, 33, 50, 32, -90, 81, -85, 56, 59, 88, 12, 12, -93, -88, -47, 102, -68, -2, -12, 83, 21, 72, 70, 23, 69, -55, 87, -14, -109, -15, 42, -49, 29, -79, -32, -104, 85, -83, -28, -91, 74, -25, -13, 61, 14, -104, 37, -9, -97, 3, -45, -64, 65, -76, 80, -33, -65, 52, 66, 80, -55, 24, -11, -22, 19, -54, 3, -82, 43, 18, 24, 0, 31, 0, -93, -109, -90, -94, -67, 102, -24, -82, 0, -91, -9, 4, -39, 72, 46, 39, 43, 27, -121, 37, -106, -91, -12, -35, 46, 46, 108, -25, 90, 72, -74, -105, -57, -71, -109, -4, 41, 21, 38, -81, -92, 42, -95, -82, -67, 35, 19, 67, -23, 7, 8, -102, 51, -29, -104, 81, -3, -37, 91, -43, -39, -49, 39, 47, 0, -19, -47, 2, -21, 31, 72, -1, -91, 37, -21, -91, 105, 90, 112, 106, -60, 62, 23, 68, -77, -60, -90, 44, -69, 65, 93, -10, 83, 55, 4, 52, -51, 59, -47, 0, 82, 25, 2, -1, 94, 94, 67, 19, 63, -16, -17, -17, -39, -2, -127, 58, -60, 46, 25, -93, 34, -96, -41, 6, 30, 48, -32, -53, 32, -83, 12, 59, -95, -48, -2, 86, -79, 71, -82, -87, 37, 90, 36, -91, -73, -75, -96, 7, 8, -82, 2, -23, 29, 96, 46, 80, -32, 68, -24, 2, 61, -31, 25, 80, 85, 75, 50, 104, -7, 99, 56, 5, 4, -38, -34, 3, 15, 54, -12, 79, 32, -39, -31, -13, -101, 37, -27, -77, 22, 17, -40, 18, 96, -85, 8, -101, -31, 61, 53, 72, 101, 6, 28, -35, 80, -90, -14, -84, 43, 30, 54, -92, -56, -81, -40, 1, -8, 52, -71, -71, 104, 94, -98, -97, 16, -40, -52, 54, -56, 54, 27, 48, -21, -39, -28, 89, -51, 28, -61, 37, -43, 89, -46, -96, 21, -71, 17, 69, -27, 54, -28, -42, 35, 37, -55, -7, 45, 90, 18, -89, 34, -14, -92, -72, 103, 7, -18, -4, 70, -43, 49, -88, 88, 25, 42, 27, 91, 106, 102, 72, 66, -74, 72, -10, -84, -30, 94, -41, 12, 43, -65, -7, -23, -1, -51, -17, 48, -63, 57, 19, 40, -93, -1, -57, -53, 46, -10, 75, -7, -49, -88, -94, 93, 53, 44, -10, -75, -22, -39, -37, -5, 14, -101, -20, 44, 8, 23, -25, 50, 38, -111, -5, -119, -51, -81, 26, -12, -57, -62, 50, -114, 66, 3, 92, -76, 107, -23, 28, 45, -2, -53, -84, -89, 49, -27, -88, -46, -27, 4, -97, 37, 20, 31, 56, -14, 86, 72, 79, -69, -99, -86, -33, 41, -86, -119, 81, -49, 71, 72, 44, 72, -92, 2, 61, -34, -112, -58, 50, 40, 83, -23, -34, 59, -10, -8, 72, 89, -51, 101, 2, -21, -65, -15, -64, -36, -82, 28, 69, -97, 97, -23, 77, -106, -99, -61, 104, 34, -113, 32, -11, -4, -39, -48, 14, 9, 89, -99, -76, 13, -71, 84, -13, 20, -124, 60, -92, 26, 55, 62, -52, -24, -63, -109, -27, 46, 83, -118, -35, -11, -70, -43, 73, 73, 100, -33, 39, -33, -121, 84, 99, -59, 83, -7, 27, -90, -91, -63, -27, -99, 103, -82, 1, -27, 115, -77, -32, -51, -97, -119, -9, -40, 14, 75, 87, -92, 54, -40, -77, 66, 0, 3, 109, -98, 33, -103, 41, 66, -87, -10, -81, -117, -48, 66, -12, 8, -49, 106, -33, 84, -116, 48, 15, 82, 79, 1, 92, 75, -7, 27, 22, 74, -42, -14, -48, -112, 94, 15, -77, -56, 73, 9, -38, -68, 7, -41, -83, -98, 7, 38, 76, -55, 50, 48, -105, -69, -83, -98, 5, 41, 95, 112, -6, -36, -64, -37, 3, 70, -57, 85, -33, 88, -41, 73, 44, -51, -114, -89, -41, -77, -65, 85, -107, -31, 75, 103, -79, -9, 33, -17, -99, -116, 114, -23, -12, -67, -97, -105, -115, -5, 54, 82, -76, -49, -21, -45, 5, 103, -93, -112, -92, 110, -105, -84, -73, 109, 27, -27, -58, -84, -94, 60, -19, -9, 20, 16, 84, 100, -34, 109, -128, 43, -28, 116, -49, -32, 29, 63, 83, -86, -12, -107, 3, 24, 94, -1, 85, -82, -75, 5, -86, 63, -15, -39, -14, -102, -95, 58, 53, 52, -3, 58, 91, 87, 106, -22, 9, -109, 3, -99, 23, -109, 2, 68, -17, -110, -18, -37, -30, -115, -108, 48, -52, 102, -117, -91, -80, 58, 107, 42, -14, 53, 58, 88, -8, -118, -53, 21, 9, 54, 111, -100, -13, 7, 1, 100, 28, -61, -120, -33, 26, 96, 110, -12, 87, 79, 25, 39, -23, 36, 89, -37, -92, 47, 77, 9, -110, -68, -70, -73, -3, -20, -30, -3, 85, 26, 14, -62, 18, 39, 75, -57, 25, -49, -41, -73, -27, 24, 41, 107, 36, -22, -43, -56, 44, -34, 23, -54, -15, -23, -27, -88, 8, 66, -21, 106, -31, -23, -69, -80, 12, 11, 42, 40, -1, -42, -43, -26, 5, 28, 104, 29, 2, -27, -57, -95, -71, 11, 115, 10, 22, 32, 25, 29, 31, -47, 10, -51, 5, 26, -35, -59, 18, -59, 31, 56, 18, 47, -17, -4, 60, 22, 23, -34, -59, -54, 56, 14, -48, -24, 15, -128, 22, -39, 11, -81, -19, -37, -55, 90, 48, -90, -34, -21, -52, -8, 3, -85, -70, -28, 22, -61, -71, 38, -68, 24, 41, -26, -1, 63, -88, 67, -7, -93, 60, -32, -81, -10, 55, 35, 65, -17, -25, 52, -60, 38, -11, 42, 87, 13, 95, -40, -5, -40, -2, 22, 46, -67, 43, -108, 2, 64, 33, -61, 42, -57, 47, -34, -80, 25, -8, 35, 41, -17, -7, 18, 35, 52, 48, -14, -29, -71, -6, -7, 21, 19, -8, 0, -27, -46, 90, 18, -16, -42, 26, -9, -73, 49, 56, -57, 51, -35, -23, -35, -9, 71, 11, 54, 29, 24, -20, -88, -3, 37, 45, -26, -37, -13, -54, -64, 4, -1, -35, 2, 2, 44, -5, 67, 14, -43, 29, 53, -9, 70, -12, 29, 18, 59, 54, -25, 91, 19, 73, 48, -66, 14, -53, 14, 24, -1, 18, -6, 56, 18, -33, 110, 1, 4, -44, 46, -6, 7, -84, 24, -4, -59, -20, -23, -79, 75, -14, -36, 56, 43, -8, -33, -37, 28, 0, 8, 67, 43, 58, -53, -29, 52, -76, 88, -63, -52, -32, 45, 37, -21, -33, 41, 42, -28, 46, 27, 17, 55, -45, 24, 43, -83, 55, 87, 29, -28, -17, -7, 45, 43, 28, -19, -47, -8, -13, 92, -59, -44, 17, -43, 33, -24, -55, -48, 38, -40, 25, 39, 5, 2, 8, 37, -58, 26, -14, 34, 27, -46, 40, 55, 21, 30, 72, -7, -43, 102, -8, 50, -45, -54, 27, -11, 20, 28, 3, 10, 104, 29, 26, -7, -14, -5, 23, 64, 44, -10, -7, 32, 27, -44, -3, 2, 18, -15, -11, -66, 84, -69, -17, -34, 11, -19, 72, -48, -38, 56, -77, -48, -42, 23, -20, -22, -5, -19, -50, -31, 14, -53, 24, -76, -43, 16, -37, 56, 40, -67, 64, 37, -49, -42, -4, 12, -10, 0, -83, 40, 45, 42, -55, 36, 50, 12, -5, 35, 13, 15, -29, 127, -48, 83, -54, -14, -15, -2, -33, 46, 40, -12, 76, -82, -36, 57, 68, 76, 7, 30, -9, -7, -36, -31, 18, -45, 40, -47, 67, -61, -13, -3, -21, 18, 29, 5, -73, 3, -76, -92, 55, 46, 7, 32, -54, 11, -43, 2, 53, -67, 29, -20, 3, 24, 36, 28, -10, 40, 20, 9, -46, 4, -1, -30, -14, -4, -12, -26, -46, -69, 1, -20, 12, 66, -60, -26, 27, -3, 0, 44, 23, -38, -43, 36, -24, 8, 29, 15, -64, -70, -21, -23, -68, -29, -104, 3, 48, -33, -23, 24, 14, 19, -85, -23, -6, 9, -15, 57, 10, 54, -5, 18, -9, -85, 17, 16, 29, -87, 25, -26, -74, -82, -68, -37, 54, -46, 1, 6, 10, 22, -31, 41, -62, -3, -11, 51, 26, 50, -65, -73, 44, -49, -11, 35, 82, -63, -70, -22, 3, 75, 48, 3, 48, -72, -2, -36, -28, 72, -3, -79, -32, -8, -45, 41, -11, -46, 103, 2, -4, 17, -25, -32, 24, -61, -44, 52, -24, -35, -31, 27, 57, 32, -21, 25, 26, 26, -12, -51, -19, -39, 98, 72, 49, 118, -65, -63, -94, -9, 58, 33, 70, 56, -21, 56, 55, -24, -1, 36, -44, -6, -55, -28, -31, 56, -66, 10, 99, -28, 10, 23, -62, -64, -63, 54, 69, -19, 34, 43, 37, 111, -33, -46, -34, -23, -2, -51, 44, -15, -64, -79, -12, 44, -29, 91, 2, -46, -23, -44, 43, 43, 7, -41, -5, 54, 29, -66, 3, -35, -76, -2, -29, 60, -11, 17, -41, -71, -24, -21, -27, -51, 58, -37, -21, -1, 54, -68, 54, 48, -65, -66, 25, -70, -81, 103, 26, 3, 6, -65, 58, -58, 10, 47, 29, 16, -35, -22, -30, 31, -31, 77, 39, -4, -3, 15, 76, -8, -52, 74, -24, -17, -22, -16, 14, 29, 17, -19, -50, 29, 43, -70, -16, -36, 55, -33, -64, 8, -22, 1, -17, -50, -29, -31, 45, 62, -28, 34, -46, -45, -66, 20, -11, -66, 16, -39, -4, 48, -83, 29, -12, 57, -20, 76, 26, 22, 28, -27, -25, -105, -40, -31, 58, 4, -64, 60, 45, -16, 57, -57, 43, 57, -29, 30, 19, 41, 16, 57, 37, 25, 7, 54, -70, -50, 50, -48, -43, -60, -33, -33, 73, -14, -25, 6, -37, -20, 36, 5, 37, -8, -43, 41, 49, 25, 21, 34, 44, 55, -51, 22, 42, -34, 31, 25, -3, 5, -9, 81, 41, 94, 1, 47, 11, 11, -34, -55, 7, -9, 26, -16, 33, -10, 33, 73, 8, 51, -21, -34, 10, 61, -9, -26, 68, -10, 42, 30, 41, 28, 9, 127, 21, 53, 33, -26, 42, 66, -49, -50, 18, 44, 38, -15, -36, -16, -10, 53, -20, -7, 51, 60, 1, -22, 37, -1, -16, -6, -43, 15, 14, 2, 15, -17, 42, -44, -11, -11, 1, 18, 36, 51, 58, 40, 20, -8, 9, -5, 19, -48, -15, 13, 43, 55, 8, 46, 61, -27, 23, 7, -76, -23, 20, -9, 31, -24, 48, -19, -37, -31, 30, 60, 22, -2, 26, -5, -50, 53, 46, -22, -83, 75, 39, -59, -34, -35, -28, 26, -29, -13, -23, 38, -17, 1, -46, 39, -15, 22, -34, 35, -48, 43, -68, 25, 91, -60, -11, -51, -67, 14, -27, -7, -8, 13, -9, -36, -26, -41, -49, 21, 44, 35, -9, -39, -53, -29, -46, 21, -37, 40, 39, -57, 12, -34, -65, -23, 38, 19, 47, -4, -45, 34, 26, -17, 3, 25, 21, -117, -20, -50, 45, 24, 15, 24, -29, -76, 52, -8, -2, -13, -79, -28, -4, -13, -24, -1, 0, 24, -11, -40, -50, 6, -4, -6, -21, 50, 31, -69, 20, 8, -24, -58, -90, -65, 6, -64, -12, -37, -2, 3, -1, -13, 7, 82, 16, 10, 32, -33, -6, -31, 27, 6, -51, -1, 56, 29, -18, 12, 3, -12, 6, 29, -72, -71, -84, -40, 8, -30, -37, 23, 36, -6, -28, -51, -42, -44, 20, 54, 22, 14, 8, 58, -46, -70, -79, -31, 2, -41, 35, 12, 60, -27, -23, 22, -1, 4, -77, -28, 18, 26, 3, -48, -34, 24, -40, -37, 52, 0, 0, 19, -12, -3, -5, -2, -22, 23, -10, 5, 33, 16, 29, -5, -39, 39, -7, -28, -47, -63, -53, 6, -77, -13, -40, 8, 48, 24, 56, -35, -5, 57, 35, 48, -49, -10, -64, -12, -28, 25, -58, 42, 36, 40, -39, -55, -25, 35, -2, 72, 2, 51, -26, -13, -87, -32, 29, 70, -29, 62, 11, 37, 67, -64, 10, -9, -17, 4, -36, 25, 30, -39, 71, 16, 42, -2, 11, -9, 21, 20, 28, 11, -17, -28, -33, 69, -25, 35, -47, -48, -89, -63, -37, 31, -38, -36, 13, -40, -53, -34, 24, 22, -41, 63, 43, 62, -66, -35, 60, 90, 60, -14, 22, 79, -18, 14, -77, 73, 1, 84, 28, 8, -63, 5, 53, -63, 58, -84, -22, -24, 12, 83, 42, -46, 7, 66, -34, -44, 22, 55, 1, -42, 58, -17, 39, -73, -40, -65, -22, 16, 26, -6, 50, -75, 32, -52, 9, -5, -47, -55, 70, -56, 25, 33, 18, -45, -13, -65, -55, -69, 32, -71, -36, -5, -2, -74, 2, -55, 64, -35, 37, 56, -36, -27, -66, -32, 32, 94, 41, -48, 76, -53, 30, -51, 87, -32, -21, 13, 17, 44, -20, 48, 51, 19, 18, -76, 68, 2, -71, -41, -22, 30, -27, 52, 74, -60, 63, -68, -53, 58, 12, -34, 43, -68, 41, 65, -29, 41, 84, 70, -32, -38, -73, -42, 61, 26, -11, -14, 1, 3, 4, -20, -18, -59, 47, -2, -12, -31, -4, -33, 22, 0, -72, -65, 15, -13, 64, 27, -36, -61, 35, -55, -35, -18, 7, -58, -63, -40, 49, -21, -31, -37, -68, -27, 80, -5, 20, -14, 74, -67, -22, -11, 16, -24, -15, 62, 25, -128, 57, -31, 20, 55, -24, -1, -40, -17, -89, -81, -93, 49, 65, -69, -84, 42, -68, 64, -20, -35, -45, -14, -55, 27, -42, 71, -88, -13, -69, 0, 47, -99, 19, -71, -62, 25, -68, -85, -63, -24, 8, 54, 2, 21, 58, -79, 43, -38, 61, 58, -58, -17, 47, 48, -94, -7, 44, 43, -70, 72, 11, 89, 92, -74, -60, 53, 39, 93, -73, 32, 7, 75, 42, -66, 48, 60, 71, 49, 54, 43, -48, -19, -74, 16, 17, 91, 68, 5, 13, -58, 77, -51, -23, 46, -51, -41, 14, 55, 24, -26, 55, -83, -19, -49, -43, 45, 63, 37, -19, -42, -58, -87, 56, -2, -38, 0, -108, -3, 5, -61, -59, -16, -59, 55, 57, 58, 20, -71, -61, -3, 5, -76, -67, 48, -41, -61, 81, 72, 61, -51, 72, 6, -30, -91, 36, 31, -63, -19, -55, 63, 26, -73, -40, 20, -78, 9, -23, 12, 0, -40, 34, 64, 47, -47, 104, 51, 26, -49, -7, -45, -62, -12, -41, 52, -12, 11, -56, -67, -25, 69, 26, 10, -60, 59, -71, -74, -66, 41, -75, -51, 54, 25, 60, -33, -47, 73, 61, -21, 47, 0, 16, -37, -53, -10, -53, -21, 5, -41, -51, -26, -45, -41, -3, 24, 11, 25, -78, 23, -46, 23, 0, 43, -5, -24, 38, 9, 22, -5, 42, 46, -36, 30, -27, 58, 24, -19, -2, -32, 59, 14, -63, -48, -2, 6, 20, -21, 6, -33, -62, 3, 33, 53, -34, 2, 113, 9, -43, -59, -40, -43, -79, 25, -8, -23, -55, 52, 0, 37, 51, -44, 40, -66, -42, 0, 43, -62, 3, 1, -40, 39, 55, 8, -18, -40, -18, -29, -8, -44, -49, -6, -19, 17, -6, 24, 29, 32, -25, -53, -67, -40, 43, 16, -64, -59, -44, 9, -55, 108, 14, -76, 33, 42, -8, 13, 21, 39, 24, -27, -31, -4, -51, 61, -27, 30, -5, 62, 14, -29, 89, 33, 21, -14, 14, 7, -15, 67, -3, -16, 27, 51, -28, 24, 31, -52, 60, 27, 31, -12, -57, 29, -26, 113, -17, -100, 37, -4, 36, -43, -20, -4, -23, -24, -39, 16, 29, 12, -40, -58, -58, -55, 56, 53, -28, -27, -4, -34, -15, 3, 3, -3, -25, 25, -63, 88, 68, -1, 48, -31, 29, -108, 59, 71, 110, -68, -41, -29, 54, 61, -24, 20, 57, -7, -75, -33, -118, 14, 80, 50, 98, 25, -48, -25, -21, -17, -62, -56, -55, -30, 71, -13, 73, 121, -65, -4, 58, 43, -46, 95, -55, -28, -48, 24, 51, -58, 84, 0, 100, 87, 56, 38, 34, -23, -3, 12, -5, -10, 5, -52, -54, 4, -11, 16, -48, 53, -66, 9, -79, 55, -21, -25, 48, -8, 8, -75, 44, 26, 12, -65, 37, 52, 23, 28, 54, -31, -73, 26, -11, -8, 39, -46, -87, 84, -6, 10, -76, 36, 30, 8, -13, -50, -61, 86, 3, -44, 28, -7, 31, -45, 45, 2, 63, 10, -38, 7, 27, 6, 39, -19, 44, -26, -37, -95, -28, -11, 63, -39, -20, 12, 0, -50, 26, -24, 99, 31, 42, 13, -40, 20, 8, 21, -41, -61, -63, 42, -33, -26, 54, -24, 32, -9, -5, 35, 58, 127, 9, 5, -32, 36, -10, 18, -96, -44, 45, -35, -36, -2, -2, 33, 89, -44, -19, 30, 34, -28, -44, -21, -33, 52, 36, 0, -68, 65, -37, 3, 77, 3, 25, 57, 44, -50, -31, -14, -100, 33, 4, -35, 12, -33, 48, 43, 53, 18, 62, 15, 56, 57, 11, 23, -47, -3, -23, -38, 14, 17, -15, 8, 0, 20, 25, 41, 11, 10, -2, 22, -3, -74, 5, 12, 15, 5, 15, -25, -48, 23, 50, 37, -6, 24, 2, 28, 50, -75, 35, -11, 68, -55, 37, -15, -1, 123, 61, 43, -46, -74, -13, 8, -8, -41, -6, -30, 87, 14, -21, 14, 46, 66, -29, -59, -53, -43, -26, 38, 24, -6, -64, -60, -31, 38, 7, 10, 43, -90, -2, 11, -18, 6, -57, -44, 23, -2, 7, -21, 54, 16, -21, -7, -44, 2, -22, 19, -21, 34, 20, -35, -16, -28, -2, 10, 0, -51, -27, -22, -93, -13, -18, 17, -56, 10, -14, -50, -1, 13, -45, -49, -70, -18, -12, -24, -90, 9, -5, -10, -90, -32, 7, -10, -10, -36, -48, -77, -1, 17, 12, -12, 19, 31, 53, -67, 5, 25, -53, 23, 28, -13, 17, -48, 9, 0, -17, -6, 50, 19, -5, -84, 23, 16, -10, -46, -1, -21, 7, 3, -40, -3, -29, -12, 37, -25, 7, 33, 23, -12, 36, 4, 3, -17, -44, -22, 10, -20, 30, 35, 1, -21, 40, 6, -25, 27, 28, -64, -7, 36, 35, 35, 24, -21, -23, 16, 26, -42, 8, 93, 25, -9, -13, -66, 31, -11, 109, 2, -63, -40, -15, -1, 31, -82, -30, 10, 65, -17, 39, 72, 20, 11, 96, 2, -74, 16, -14, 27, 6, 22, 14, 6, 18, 47, 127, 56, -17, 11, 13, 6, 35, -34, 5, 4, 9, 12, -37, 1, -11, 56, -31, 10, 25, 14, 10, -3, -12, 16, 8, 22, -51, 50, -8, -66, 14, -30, -18, -50, -47, -1, -6, 11, -26, 12, 5, 21, 29, -14, -33, -25, 32, -29, -18, 38, -29, -19, 4, 19, -53, 48, -24, -3, 40, -44, 20, -41, 15, -13, 29, 55, 30, 11, 26, 12, 17, 29, -23, 10, -37, 17, 30, 14, 13, -1, 48, -16, -16, -1, -10, 3, -27, -4, 18, -6, -5, 29, 4, -18, -12, 16, -12, 17, 14, 26, 12, -4, -7, 13, -28, -37, -49, 41, 13, -25, -7, -3, 27, -13, 13, 27, -20, 43, -63, 13, -7, 46, 62, -19, -20, -23, -7, 37, -22, -38, -26, 34, -62, -7, -32, -17, -5, -17, -6, -1, -12, -27, 26, 25, 16, 16, 3, 13, -9, 5, -2, 5, 22, -33, -22, 9, -9, -17, 25, 20, -9, -1, 29, 32, 36, 43, 29, 56, -53, -53, 9, 58, -31, -24, -17, -37, 28, -17, -62, 13, 2, -34, -16, -67, 37, 12, -28, 28, 36, -10, 52, -44, -54, 33, 3, -53, 41, -13, 30, 47, 38, 37, -21, 51, 22, -32, 15, -50, 29, 22, 109, 53, 20, 3, -13, -13, 4, -33, -53, 15, 23, -57, -44, 14, 6, -44, 43, 16, -65, -49, -3, -37, 41, 28, 75, -77, 40, -43, 14, -41, -57, -24, 56, -44, 0, 25, 28, -58, -8, 32, -17, -44, -17, 18, -39, -44, 47, -4, -100, 38, 34, 36, 55, -34, -49, -33, -15, -85, -37, 17, -21, -53, 15, 17, 33, -84, -67, -30, -36, 5, 57, 40, 19, -107, -70, -40, -23, 28, -72, 7, 55, -24, 21, 37, -47, -63, 5, 39, 51, -100, -69, -97, -6, 93, -68, 6, -4, 29, -4, -27, -123, 20, 4, -57, -28, 7, -12, -40, 46, 55, 50, 23, -49, -1, 39, 14, 48, 45, -16, 22, 69, 68, 69, 127, 56, -13, 43, -33, -66, 71, -8, 72, 28, -18, 39, -62, 90, -19, -47, 23, 44, -88, 43, -1, -48, 40, -29, -58, 35, 71, 49, -37, -49, -23, -74, 22, 91, 54, -46, -3, -101, 29, -33, -22, -72, -15, 8, 35, 107, -81, 28, -2, -29, 47, 53, -58, -2, 37, 3, -25, -91, 28, -52, 25, 35, -54, 1, 36, 39, 47, 39, -56, -4, 69, 61, -51, 27, -13, -7, -28, 72, 73, 36, 35, -3, 35, 6, 39, 41, -43, 87, -3, -26, 43, 15, 16, 8, 1, 54, 35, 51, -36, 25, -2, -19, -3, -80, 70, 63, 50, 16, -14, -74, 59, 6, 18, 45, 15, -80, 25, 5, 16, -29, -1, -29, 24, -47, -56, 20, 68, 35, 24, 5, -59, -42, 36, 61, 45, 38, 79, 45, -28, 5, -49, 21, 35, 51, -12, 45, -53, 54, -2, -4, -17, 101, 19, -40, -56, 25, -50, -53, 54, 19, 2, 35, -55, 32, 38, -30, -25, 27, -27, -49, 13, -48, 20, 15, 86, 44, 16, -25, -22, 56, 22, 50, 12, -43, 35, 49, -40, 51, -39, -104, 51, -39, -33, -7, 11, -16, -39, -19, 45, -49, 10, 66, 9, -29, 13, -98, -19, -40, -68, -10, 24, -40, 54, -1, 1, -53, -21, 46, -18, 30, -61, 16, 7, -49, 23, -3, -8, 29, 41, 6, -53, -28, -27, -33, -31, -35, 51, 10, -34, 50, 48, 42, 22, -34, -11, -30, -43, 33, 25, 39, -31, -8, 19, 5, 16, 59, 3, -19, -7, 22, -18, 57, 9, 55, -50, 24, -24, 4, -16, -9, 79, 10, -128, -78, -83, -66, 43, 61, -55, 10, -27, -26, 43, 28, 40, 17, -22, -18, -68, 23, -11, -59, 39, 32, 44, -49, -9, -61, 57, -26, 12, -20, -10, -39, -52, -7, -43, 33, -10, 19, -59, -35, -10, 5, 6, -37, 6, -48, 71, -24, 20, -33, -26, -35, -44, 28, -22, -63, -21, -7, -19, -11, -48, -95, 51, -17, 26, -5, 52, 18, -3, 39, -22, -17, -6, -2, 14, 31, -7, -21, -4, 23, 3, 28, -33, -46, -13, -14, -7, 12, 28, -60, 18, -44, 6, 53, -32, -24, -23, 37, 57, -23, 21, 20, 17, 70, -18, -13, 15, -7, 25, 55, 46, 42, 13, 30, 61, 49, 18, -35, 36, -27, 48, 33, 0, -22, -12, -63, -21, 8, 32, 7, -16, 19, 8, 40, -23, -65, -45, 36, -14, 15, 33, -19, 51, 13, 41, 7, -23, -19, 38, 87, 21, 80, -43, -2, -32, -19, -45, -60, 46, 55, -70, 21, -32, -58, 64, 52, 36, 41, 30, -54, 3, -35, 8, 66, -23, -8, 16, 43, -32, 50, 59, 5, 1, -17, 35, 49, 25, 35, -37, -2, 9, 43, 58, 60, 2, 0, 36, 4, 48, -13, 54, 83, -43, -22, -51, 25, 87, 47, 13, 38, 0, -28, 8, -80, 9, -28, -46, -5, -46, -9, -7, -83, 13, -42, 36, -34, -71, 9, -19, -10, 2, -7, 7, 3, 6, -27, -10, -42, 0, -38, 21, 0, -55, -16, 61, -48, 16, -46, 40, 9, -57, 31, 28, -32, 29, 27, -9, 15, -50, -10, -40, 69, 37, 43, 20, -23, -15, 16, -14, 13, -9, 18, 17, -35, -63, -15, -42, -18, -10, 54, -26, 18, -24, -45, -32, 25, 7, -31, -4, -27, -10, -11, 14, -23, -16, -29, -26, 67, 35, -11, -70, -23, 111, -14, 60, 18, -48, 9, -68, 24, -28, 20, -8, 60, 40, 15, -11, -23, -11, 6, 74, 18, 7, -34, -20, -12, 14, 53, 27, 42, -33, 12, -32, -12, -6, -28, 17, 25, 8, 3, 41, 71, 40, 81, -29, 35, -21, -29, 2, 25, 36, 44, -41, -33, 38, 49, 25, -33, -41, 43, 6, 6, -34, 36, 30, 5, -51, 21, 8, -53, -3, 13, 14, 42, -38, 38, -39, -66, -31, -4, 45, -4, -53, -28, -37, -33, 50, -3, -29, 64, 48, 19, 3, -70, 25, -42, 1, 5, -38, 3, 2, -4, 34, -27, 13, 41, -5, 5, -6, -48, -31, 30, 14, 18, 6, -7, -31, -25, 45, -11, 45, 44, -32, 5, -39, -29, 40, 31, 45, -5, -62, -38, -39, -15, -23, -12, 16, 27, -1, -40, 0, 45, 34, -15, 17, -33, -20, -17, 44, 24, 46, -15, -15, -27, 4, 7, -11, 40, -11, -36, -12, 68, 3, 18, 77, 39, -43, 17, -28, -97, 24, -4, 35, -60, -18, 35, 36, 21, -50, -43, 28, 53, 22, 32, -43, -8, -36, -64, -35, -3, -22, 38, 39, 16, -82, -20, -2, 3, 12, -51, -18, 41, 0, -74, -27, -47, -21, -41, -22, -11, -43, -17, 1, 35, -26, -13, -71, -3, 56, -36, -12, 35, -6, 56, -4, -37, 35, 3, 127, -20, 18, -3, 7, -19, -8, 51, -3, 104, -23, 35, -71, 72, 27, 33, 48, -36, 10, -1, -7, -72, 8, -34, -22, 62, 41, 47, -29, 73, 35, 33, 71, 48, 15, -21, -43, -81, 6, -33, 1, -18, -3, 13, -40, 86, 21, -31, 66, 53, -15, 13, -75, -28, 7, 47, 2, -18, -7, 25, -24, 58, 88, -2, 39, -28, -10, 6, -8, -8, -3, 81, 48, -26, 28, -3, 12, -29, 33, -31, 19, 30, 10, 35, 11, 39, 32, 74, 20, -81, -18, 27, -54, 22, 26, 39, -70, 14, 24, -15, 24, -10, 13, 16, -18, -53, -28, -10, 26, -54, 103, 1, -84, 42, 11, 38, 0, 50, 26, 68, 31, 12, -17, -24, -8, -26, 125, 17, 16, -25, -37, -12, 36, 28, -21, 68, -25, 0, -48, 41, -25, 17, 32, 23, 71, -9, -51, 28, 64, 23, -10, 3, -26, -26, 8, -12, 34, 46, -62, 10, -45, 25, -32, -31, 21, 23, 29, 19, 14, -59, 3, -48, 12, -67, -37, 9, -43, -17, -77, 45, -17, -5, -28, 43, 19, -27, -35, 22, 38, -74, -18, 11, -12, -37, 35, -28, 2, 26, 27, -60, -32, 15, -14, 8, -23, -79, -8, 46, -26, 2, 34, 15, 33, 10, 39, 24, -23, 46, 24, 10, 17, -7, 62, -16, -46, 10, 18, -40, 6, 25, -110, 98, -63, -81, -78, 92, 58, 25, -97, 14, -32, 19, 113, -67, -33, -96, 50, 70, 18, 15, -66, 84, -107, 112, 71, 57, 30, 127, 62, -102, -100, -2, -73, 112, -28, 6, -84, -109, -98, 104, -24, 24, -29, -60, 98, 69, -64, -49, 9, 41, -65, -27, 52, -42, 91, -97, 27, 98, 89, -77, 37, 46, -69, 85, -96, -71, 45, 88, 101, -25, -14, -8, 7, -49, 61, -24, -20, 105, -88, -34, -36, -37, -77, 28, -16, -76, 51, -29, -73, 13, 59, 0, -12, -83, 31, -76, -79, -59, 73, 69, -38, -47, 32, 107, -56, -1, 41, 117, 100, 106, 78, 50, -42, 75, -83, 34, -3, -73, 112, 89, -4, -33, 104, 104, 101, 120, -52, -24, -3, -85, 15, 42, 98, 14, -66, 0, 25, 61, 16, -45, -13, -100, 112, -82, 31, -53, -57, -12, 39, -99, 108, -5, -76, 9, 49, -38, 90, -79, 32, 117, 90, -55, 47, -32, -91, 113, -89, -16, -122, -94, 11, 101, 17, 35, 3, 87, 46, -78, 23, -82, 4, -92, -4, 22, -121, -38, -12, 14, 74, 102, -63, 83, 55, -21, -66, -20, -9, 89, -82, -50, 27, -3, -84, 86, 19, 83, 16, 57, -21, -68, -2, -84, 92, -101, -77, -39, -103, -86, -127, 4, -85, 9, -118, 83, -66, -92, 69, 77, -24, -92, -45, -69, -55, 71, 23, -69, -99, -52, 18, -5, -59, -53, -81, -38, 50, -101, -14, -53, 4, -70, 46, 71, 27, 14, -62, 124, 21, 110, 31, 91, -96, -95, -65, 67, 124, -7, -21, 71, -56, -10, -76, 52, 38, -58, 40, 58, -45, 52, 25, -76, 11, -20, -40, 72, 10, 33, -59, -15, -86, 51, 35, 95, -98, 14, 44, 19, 83, 24, -69, 100, 86, -12, -77, -107, -37, 46, 34, -13, -38, -103, 76, 15, -44, -46, 33, -67, 87, -17, 67, -74, 4, -91, -49, -37, 67, 82, 93, 75, -20, -26, -53, -96, -86, -101, 24, 109, 70, 2, -11, 86, 36, 73, 115, -8, -108, -30, -66, -67, 80, 0, -29, 18, -58, -37, -79, -70, 71, -56, -99, -75, 52, -28, 11, 64, 57, -26, 16, -26, 70, 42, 82, 43, 102, 16, -99, 5, 65, -60, -98, -107, 1, -99, 126, 61, -25, -13, 103, -69, -11, -111, 98, 43, 32, 60, 10, -79, -52, -11, -41, 9, 42, -2, -32, -57, 13, -57, -23, 7, -22, -23, -64, 35, -6, -35, 11, 40, 55, 21, -9, -104, 58, -58, 48, 24, -46, -68, -128, 37, -14, -14, -13, 40, 14, -14, 17, -21, 66, -55, 34, -42, -111, -45, 19, 40, 36, 1, -12, 35, 106, 25, -5, -98, 48, 9, -26, -8, -106, -12, -29, -1, 84, 67, 13, -39, 28, 34, -52, 1, 22, 18, 22, 1, 8, -2, -79, 50, 30, 68, 26, 27, 18, 44, -25, -10, -20, 36, -16, 80, -53, -11, -29, -28, -14, -15, 16, -43, 3, -35, 44, 2, 72, 3, 46, 18, -100, -4, 43, 59, -32, 8, 31, -80, -12, -52, 26, -12, 48, 55, 34, 51, -10, 6, 73, 79, 11, -12, -41, 5, 32, 66, 54, 20, 25, -28, 36, 17, -71, -28, 11, 16, -9, 27, -44, -43, 54, -56, -36, 8, 55, 30, 0, 9, -59, -33, 26, 39, 25, 48, -34, 29, 53, -16, 18, 37, 4, 21, -64, 12, 43, 70, 26, 45, 27, -3, 54, -50, 12, -48, 35, 41, 34, 19, 46, -38, 29, -25, -21, -12, 35, -31, 8, -30, 18, 34, 23, 65, 24, 17, -4, 49, 5, 25, 49, 36, 49, -45, 66, -35, 21, 30, 9, 36, 67, 14, 38, -8, 95, 20, 31, 35, 39, -9, -31, -15, -12, 6, 49, 67, -10, 43, -51, -10, 35, -19, 16, -11, 29, -54, -46, -1, 19, 55, -24, -75, 23, 33, 26, 53, 8, 23, -74, -27, 20, 33, -25, 41, 49, 5, -15, -91, -12, 33, 0, 47, -4, 3, -28, -9, 89, -15, 37, 39, 30, -35, 35, -50, -52, -7, 53, -49, 31, 45, -20, 55, -33, -2, -16, 50, 54, -22, 31, 0, -52, 11, -29, 23, 76, 54, -10, 41, -27, 28, 26, 14, -26, 63, -32, 18, 24, 38, -5, 32, 37, -52, 16, -26, 1, -20, 60, -18, -32, -4, 40, 2, 46, 8, -17, 22, 17, -3, -15, -52, -25, -21, 5, 6, -60, -3, -13, -24, 4, 33, 0, 40, -23, 32, -14, 44, 64, -29, -36, 4, -18, 7, 32, 13, -17, 36, 38, -67, -24, -8, -31, 32, 4, 53, -25, 31, 18, 68, 20, -7, -73, -16, 36, -6, 55, -30, 5, -44, -1, -32, 27, 62, 7, -42, -51, -24, -1, 50, -16, -39, -22, -30, -9, -10, -42, 70, 28, 30, -11, 18, -37, 46, 18, 14, -5, 23, 10, -56, -27, 18, 34, 15, 53, -51, 9, 12, 1, 10, 38, 16, 55, 82, -107, -40, -44, 26, 23, 6, 20, -84, 42, -76, -35, 13, 4, 43, -44, -25, -99, 11, 9, 55, 24, 19, -7, -71, 5, -46, 74, 17, 0, 36, -25, 5, -48, -29, 36, 56, 36, 15, -48, -19, 18, 60, -5, 15, -53, -1, -19, 72, 66, 14, 22, -11, -3, 8, 14, 12, -10, -41, 35, -83, 18, 34, 46, 69, -25, 21, 27, -20, 19, -63, 9, 3, -20, 41, 45, 19, -33, -27, 60, 127, -50, -32, 19, -10, 30, -2, 32, 12, 15, 18, 82, 66, 52, 13, -43, 49, -71, -49, 75, 59, -51, 36, -19, -59, 1, 14, 84, 55, 23, -47, 10, 33, 21, -30, 21, -49, 26, -36, 15, -40, -47, 8, 4, -48, 44, 34, -4, -20, -33, 30, -51, 24, -48, 51, 37, 60, 9, 46, -11, 44, 8, -20, -5, 32, 34, 17, 56, 41, 20, -13, -19, 33, -58, -7, 33, -53, 17, 34, -36, 20, 35, 21, 20, -36, 77, 17, 69, -6, -56, -35, -32, -35, 14, -52, -14, 48, 41, 15, -69, 12, -58, -34, 13, -84, -49, -20, -38, 12, -5, 37, -43, -81, -28, 31, -7, -45, -60, -24, -5, 16, -8, 25, 39, -31, 8, -45, -30, -40, 3, 23, -38, -4, 1, -46, -43, -17, -22, 43, -5, 50, 52, 14, 33, -38, -16, 1, 71, 40, 56, -13, -21, -25, 51, 8, -10, -25, -35, 38, 65, 15, -49, -48, 11, 49, 67, -51, 4, 30, 15, -20, -58, -48, 22, -43, -16, 36, -36, -30, -106, -46, -12, 24, 36, -22, -34, -48, 19, -67, 17, -40, -8, -35, -12, 30, 0, -50, 22, -49, 3, -5, -37, -74, 3, 19, 28, -38, -48, 4, -78, 26, -54, -12, -35, 30, 29, 31, -51, 27, 4, -28, -42, 22, -37, 3, -35, 26, -70, 37, 28, -30, 36, 19, -56, 48, 23, -33, 23, -17, -14, -26, -1, 15, -103, 12, 21, 52, 46, 40, 5, 73, -75, -25, -19, 24, -25, -64, 62, 35, -22, -39, -25, 15, -31, 49, -32, 73, -29, -61, 5, 13, -17, -9, 0, 28, -53, 51, 35, 27, 64, -73, -39, 18, 21, -18, 2, -16, -22, -7, 15, -43, -46, -29, 53, 45, 1, -41, -39, -10, -31, 35, 23, -12, 48, 54, 25, 32, 27, 18, -18, -32, 63, -2, 30, -13, -22, 5, 65, -20, -59, 21, -81, 13, 42, 19, 53, 14, -38, -75, -16, -24, -5, 17, 3, 28, -10, 73, -72, -71, 47, 0, 35, -43, 5, 4, 14, -32, -16, -13, 28, -50, 21, 3, -35, -37, -20, -44, 27, -14, 20, -2, 24, 11, 34, -54, 9, 6, -5, 6, 2, 43, 14, 21, -42, 31, 4, -19, 85, 0, -6, -33, 50, -6, 33, 61, 17, 23, 99, 40, 37, 22, 7, 44, 27, 52, 55, 12, 29, 2, 39, 100, -10, -28, -39, -7, 10, 28, 13, 29, 15, 42, -24, -39, 11, -1, -26, -51, -19, 30, -72, 21, 25, 40, 19, 32, 86, -29, -2, -9, 32, -43, -28, 72, -36, 31, -101, 39, 61, 9, 44, 13, 38, -85, -56, -52, -15, 20, -18, -33, -64, 18, -76, 49, 7, -25, 18, 1, 8, 78, 26, 24, 34, 0, 37, 87, 27, -42, -7, 25, 45, 6, 4, 33, 43, 85, -30, -25, 24, 7, -19, 78, 62, -44, -64, -36, -85, -4, -4, -75, -1, 10, -11, -7, 22, 25, 35, -22, -20, 5, -4, 62, 91, 70, 26, 93, 68, 21, 4, -35, -48, 36, 62, 20, 14, 32, 7, 71, 26, -65, -48, 54, -36, -9, -37, -75, 26, -31, 7, 24, 2, 48, -46, 12, -25, 53, -55, 20, -70, 71, -14, -50, 40, 32, 46, -4, 5, -32, -70, 15, -12, -51, 33, 73, -41, -55, -73, 28, -18, -31, -31, -22, 82, 25, -43, -22, 4, 0, 106, -5, 8, -38, -11, 28, -44, 13, 58, 30, -57, -2, 26, 76, 61, 16, -25, 59, 64, 67, 59, 19, -12, -28, -51, 0, -46, -54, 39, 21, 44, -1, 30, 11, -8, -44, 15, -17, 43, 39, 36, -5, -68, 28, -45, -40, -35, 3, 32, -27, 2, -54, -30, 33, 13, 16, 42, 47, 36, 24, 50, -53, 11, 35, 2, -26, -22, -80, 12, -56, 28, 4, -10, 13, -76, -57, 39, 46, 48, -41, -20, -87, 28, -22, 17, -21, 24, -41, 21, 91, -128, -15, -38, 16, -16, -28, 16, -14, 9, 49, 3, 3, 22, -36, -31, 31, 29, 35, -44, 62, -6, -9, -13, 9, -1, -61, -12, 24, -30, 51, -5, -12, -63, -16, 6, -37, -57, 31, -52, -16, 62, -78, 19, -102, 68, 26, 62, 25, 0, -37, -72, 63, -59, -28, 37, -107, -2, -74, -63, -42, 90, -22, -37, 42, -18, -59, -44, -64, 72, 49, 72, -55, 81, 23, 21, 40, 58, 18, -2, 3, -57, -72, -60, -61, 58, 15, 45, 63, -41, -60, -30, -58, -13, 68, 68, 6, 24, 30, 29, 33, -57, -60, -20, 0, 9, 62, -46, 83, -91, 63, 0, 37, 110, -32, 71, 42, -16, 51, -8, -31, -91, -38, -42, -37, 36, -31, -29, -53, -11, 39, 14, -28, -26, 61, -21, 31, -32, -38, -9, 21, -51, 45, 0, 20, -42, -75, -8, -9, 35, -14, -82, 28, 68, 18, 75, 11, -82, 57, 67, 61, -18, 60, 66, 69, 22, -43, 57, 30, -75, 20, -34, 45, 10, -75, -63, -15, 121, 44, -62, -51, 1, -20, -54, 27, -82, -44, 14, 24, 61, 1, 80, -21, 100, -13, -33, -2, 44, -33, 77, 105, 33, -71, 48, -19, 44, 33, 22, 51, -11, 47, 5, 3, -46, 35, 54, -12, 1, -65, 44, -61, 54, -12, 87, 15, 72, 62, 32, -57, -13, -52, 26, 105, -6, 65, -56, 12, -75, -21, -72, 9, -128, 53, -55, -72, -9, -6, 29, 30, 10, -115, 28, -36, 17, -25, -4, 16, -64, -58, -86, -26, -7, 30, -26, -7, 60, -112, -59, -71, -28, 77, 74, -115, -10, -38, -42, 24, 13, -54, -37, 45, -30, -35, 47, 54, 4, -61, -59, -74, 113, 25, -64, 49, -68, -71, -31, 15, 4, -54, -44, -25, -8, 24, -39, -44, 48, -38, 110, 63, 29, 3, 29, 8, -70, -71, -37, 59, 47, -3, 69, 81, -34, 50, 28, -25, 36, 62, -7, -85, 51, 10, 10, -53, -24, -42, -76, -1, 31, 71, -31, -15, -26, 53, -66, -47, -37, -4, 1, 4, -60, 30, 49, -90, 12, 5, 37, 90, -14, -52, -1, 29, -46, 31, -69, 28, -64, -16, 3, -34, 29, 20, -68, 19, -3, -38, 21, 54, -24, -34, -73, 111, 26, -27, -60, 52, -52, -6, 10, 69, 40, 52, 37, 41, -69, 4, 50, 66, 17, -47, 2, 58, -85, -80, 57, -6, -5, 61, 12, -69, 7, -9, 32, -24, 108, 33, 46, -7, -83, -18, 78, 42, 73, 18, 91, -80, -65, 9, -30, 69, 21, 13, -39, -16, -88, 25, 33, -39, 69, 59, -39, 59, 2, -52, 42, -67, -8, 9, -2, 41, -79, -52, -68, 39, -17, -25, 28, -67, -18, -30, 49, 9, 70, -43, 19, -20, -128, -77, -47, -30, 19, -13, 45, -42, 59, -52, 3, 25, 43, -17, 63, 100, -35, 18, -45, 74, 51, 36, -93, 30, 44, -5, -20, -45, -31, 27, 1, 21, -57, 36, 73, -15, 72, 74, -6, -17, -44, 44, 45, 63, -5, 34, 8, -47, 13, 63, 62, 24, 31, 37, -56, 36, -44, 41, -4, 2, -7, -40, -31, -7, -47, -5, -1, -32, 97, -54, -10, 7, 37, -40, 72, 2, -38, 38, 55, 26, -24, -43, -25, 50, 67, 21, 34, 9, 58, 86, -4, 9, 9, -6, 9, 73, -74, 6, 0, -9, -46, 2, -51, -55, 19, 31, -23, 4, 28, 33, -29, 29, -12, 50, 37, 57, 20, 29, -17, -50, 34, 57, -20, -34, 16, -52, 53, -19, 32, 40, -34, -5, -33, 67, 38, 31, 46, -35, -19, -57, 44, -61, 46, -46, -27, 9, 21, 45, -13, 26, 1, -40, -56, 46, 14, 24, -56, 14, 40, 23, 54, 48, -79, 16, 31, 15, 43, 36, -24, 32, -28, -65, -9, 25, 30, -62, 29, 15, -32, 22, -82, 52, 60, -18, 37, 3, -52, -12, 24, -22, 19, 45, 54, 38, -26, -30, -50, -43, -25, -40, -50, -54, -59, -29, -10, -47, -43, -32, 6, -32, 4, -15, 40, 16, -78, -35, 47, -12, 11, -35, 4, 33, -48, -41, 57, 60, -3, -60, -27, -10, 48, 12, -3, -22, -42, -9, 3, 18, 19, -52, -27, -46, 12, -25, 52, 36, 88, -1, -57, -12, -41, -35, 55, 38, 5, 8, 67, 16, 32, 0, 7, -4, 44, 73, -5, -44, -30, 47, 30, -8, 47, -17, -15, 57, -19, -16, 44, 35, 90, -26, 20, 27, -3, 6, -21, -11, 18, -41, -29, -23, 56, -55, -25, 11, -42, -5, 18, -15, 34, -14, -36, 17, -59, 54, 39, 48, 41, -27, -50, 35, -31, -78, 4, 32, 64, 37, -13, 2, 49, 35, -77, -13, 59, 13, 66, 20, -22, -22, 34, -5, -11, -47, 29, -4, 21, 0, -81, -35, 23, 63, -17, 55, -31, 8, 58, -54, 54, 21, -3, 19, -44, 22, -17, 34, -6, -54, 12, 54, 19, 24, 26, -72, -45, -41, 14, -37, 50, 9, 19, -52, -51, 21, -30, 10, 36, 20, 4, 34, -16, -21, 37, 23, 35, -22, -13, 47, -32, 7, -26, -33, -16, 10, -2, 23, -11, -41, 16, 42, 21, 19, -19, 3, -49, 50, 51, 30, -43, -55, -24, -52, -8, -17, 44, 26, -10, 30, -43, -58, 19, 3, 11, 36, -25, -47, 33, -65, 36, 31, -13, 7, -20, -19, -76, -5, 45, -17, -16, -26, -51, -15, 23, 42, 48, 40, -40, -42, -4, -20, -23, -16, 58, 15, -31, 32, 21, 33, 34, 35, 16, -57, -9, 20, 16, -2, -54, 17, 4, 1, 49, 35, -46, 28, 1, 30, 39, -5, 28, 28, 13, -20, -42, -41, -33, -4, -3, -29, -84, -17, 4, 9, 35, 16, -46, 7, -31, -25, 28, -61, 6, -9, 35, -13, 21, -15, 7, 42, -2, 25, -62, -20, 13, -39, -9, -14, -35, 28, 52, -5, 28, -39, 47, 41, -9, -34, -18, 43, 11, 12, 47, -25, -14, 1, -42, -15, -23, 33, -39, -32, 19, -43, -14, -16, 13, 48, 61, -21, -91, 16, -8, 33, 24, 40, 43, 58, -27, 17, -42, -17, 46, -23, 82, -21, 5, 36, -52, -13, 5, 30, 7, -7, -40, -10, 47, -17, -16, 48, 31, 39, -16, -25, -24, 10, 21, 9, 34, 29, 20, 42, -10, -43, 18, 62, 43, 45, 7, 51, -37, 18, -26, -34, -48, -32, 34, 26, 20, 46, -45, -53, -29, -2, -65, 37, -3, 31, 35, -22, -27, -16, -1, -38, 29, 34, 18, 20, -91, -30, 19, -24, -46, -2, 24, 43, 22, -41, 32, -38, 14, 10, 41, -21, 14, 15, -34, -25, 16, 26, 60, 34, 32, 50, -15, -67, 35, -45, 10, 41, -35, -19, -26, -26, -3, -32, -4, 2, 0, -13, -24, 29, 10, -40, 8, 26, -31, -37, -38, -36, 65, 14, 104, -56, 19, -69, -36, -44, 56, 23, 0, 21, -44, -4, -48, 10, 1, 11, 16, -63, 61, -38, -4, -6, 10, -3, 26, 1, 10, 53, 48, 25, 47, -33, -66, -51, 60, 33, 29, 23, -30, -8, 40, 98, -93, -70, 21, 40, 4, 32, 0, -59, 16, -10, 23, -59, 46, 41, 43, 98, -128, -60, -10, 49, 69, 42, 33, -18, 35, -52, -14, -43, 65, 34, 2, 21, -61, 60, -25, 1, 48, -12, -9, -13, 7, -55, -27, -38, -26, 16, 12, 58, 9, -2, 42, -31, -13, 9, -57, -12, -8, 32, -21, 14, -5, 49, -45, 46, 18, 32, 21, -49, -40, 58, 20, -63, -37, 49, -4, -35, -15, -8, -2, -32, -48, -43, 13, 28, -13, -29, -45, -17, 57, -40, 41, -38, -22, 21, -51, -31, -61, 28, -64, -27, 45, -48, 45, -35, -3, -6, -2, -36, 49, -27, -58, 52, -5, -57, -43, -9, 47, -10, -20, -4, 68, -48, 4, 7, -20, -49, -39, -4, -14, -13, 27, -20, -46, 68, -32, -22, 51, -19, 43, -21, 32, 43, -3, 47, -25, 37, 28, -30, 42, -57, -22, 1, 46, 48, 29, 25, -49, -3, -37, 24, 16, -6, 9, 28, -76, 27, -29, -53, -61, -40, -47, -11, -46, 29, -49, 57, 4, -66, 59, -25, -56, 35, 35, 31, 41, 20, 71, -13, 28, -31, -36, 52, -41, 3, 40, 46, 35, 72, -35, -18, 57, 47, -27, -42, -4, -43, 8, -19, -83, 15, 41, -51, -5, 73, -26, -26, 14, -46, -8, -38, -39, -11, -1, -15, -45, -48, -54, 42, 28, 38, -58, 57, 12, -40, 46, 55, -55, 59, -42, 42, 22, -26, -69, -44, -73, 51, 24, 32, 37, -16, 36, 75, -10, 39, -12, -14, 127, -46, 75, -26, -36, -3, -41, -34, -2, -31, 26, 34, 19, -28, -51, -14, 33, 70, 63, 12, -63, -17, 76, -50, 1, 93, -5, -42, -4, 56, 17, -56, 54, -3, -73, -28, 53, 65, 6, -35, -42, 36, -8, -71, 5, 56, 11, 8, -10, -59, -72, 12, -55, -33, 60, -41, -42, 5, 49, -2, 50, -4, 11, 22, -53, 15, 30, -4, 55, -57, -19, -3, -9, 43, -26, 14, -36, -34, -6, -19, 15, -33, -1, -20, 23, 5, 8, -2, -53, 91, -55, 23, -43, -28, 37, -1, 25, 6, -39, -33, -47, -29, 1, -19, 14, 5, -57, -30, 40, -34, 44, -37, 2, 3, -57, -41, 6, 66, 48, 29, -48, -4, -56, 21, 61, 11, 32, 7, 39, -45, -29, 29, -7, -26, -16, -44, 21, -53, -38, 6, 20, 37, 47, 43, -11, 50, -10, 44, 46, 51, -24, 53, 3, -29, -28, 11, -27, 38, 65, 16, -6, -7, -30, -31, 56, 62, -49, 4, -31, 54, -52, 39, 45, -21, 13, -2, 54, 48, 21, 18, 6, 14, 31, 45, 42, 5, 19, -43, -52, 36, -28, -23, -1, -9, -38, 32, 8, 21, 63, 40, -15, 23, -39, 4, -2, 13, -5, 36, 16, -27, 35, 13, 33, -15, -21, -35, -4, -51, -43, -20, -30, 12, 25, -56, -20, -46, -52, -35, -18, -56, -32, -24, -14, -40, 29, 21, -24, 12, 9, -22, -18, -16, -26, -38, -5, -54, 24, 48, -4, -30, -18, 56, 39, -34, -11, -5, -54, 9, -30, 6, 21, 5, -68, 12, 28, -20, 4, 13, 33, -10, -21, 19, -17, -38, -29, 44, 31, -15, -58, 11, 7, -40, 7, -39, -60, -16, 46, 11, -4, 34, 18, -28, 19, 3, 3, 34, -41, -16, -26, -13, 27, 0, 34, 9, 6, -43, 18, 13, -18, 32, 45, 30, 22, 0, -39, -24, -21, 39, -6, 26, -32, -58, 78, 57, -2, -30, -20, 43, -23, 37, -11, -54, -36, 30, 8, 55, -16, -60, -26, 11, -7, 1, -37, 32, -29, 58, -12, -80, 30, 41, -19, -8, 23, 23, -6, 9, 47, 87, -27, -49, -12, -61, -13, 8, 14, 21, 23, 10, 31, 47, -22, -41, -2, -26, -17, 11, 41, -62, -59, -25, 34, 5, 69, -4, 65, -29, -41, -8, 48, 7, -30, 67, 61, 57, 32, -13, -8, 47, -16, -44, -3, 34, -18, 25, -68, -84, 46, 49, -30, 127, 28, 1, 2, -33, -45, 5, 67, 16, -47, 40, -39, 83, 73, -41, -18, -18, -24, -16, 53, -27, 43, 11, 46, 54, 52, -22, 16, 71, 20, -5, -13, -11, -38, 12, 1, -26, -60, 25, 77, -22, 39, 3, 1, -22, 41, -60, -23, -51, 35, -17, -24, -34, 38, -14, 11, 32, 62, 11, -29, -2, 32, 12, -43, 3, -57, -26, -33, 42, 7, 6, -14, -42, -44, -27, -19, 8, 20, 32, -34, -40, 16, -36, 9, -5, -41, 31, 20, 21, 7, 10, 39, 58, 16, -24, 21, 34, -44, -27, 33, -23, -17, -23, -5, 12, -43, -11, 2, -36, 8, -27, 7, -9, -27, 61, 28, 14, -41, -39, 92, 60, 0, -27, -56, -13, 26, -26, 22, 17, -14, 8, 29, -11, 11, 35, 52, 30, -12, 37, 35, -16, -4, 17, 16, 43, 12, -37, 37, 0, 30, -35, 6, 14, 14, 31, 49, -11, 52, 16, -39, 20, -12, 29, -46, 7, 18, -16, -21, -5, -44, 38, -8, -22, 40, 28, -12, 36, 13, 11, 37, 20, -6, -22, 50, -11, 42, 19, 30, 33, 9, -43, 93, -25, 44, -47, 6, 16, 49, -63, 51, 86, 78, 84, -64, -16, 49, -64, 96, -42, 49, -73, -71, -25, -89, 118, -113, 67, -21, -80, -2, -20, -3, -81, 4, -18, 19, -127, 21, 20, -28, -4, 68, -84, -48, 29, -18, 81, 52, -75, 46, 29, -31, 16, 65, -17, -89, -36, -4, -16, -10, 5, -31, 98, -97, -30, 69, 29, -63, -17, -77, -51, -58, 30, 76, 17, 70, 23, -36, -68, -53, 27, 55, -44, -98, 102, 20, 23, 88, 64, 105, 80, 65, 15, -28, -17, 100, -41, -50, 17, 3, 106, -78, -16, 52, 53, 44, -4, 46, -26, 1, -83, 100, -72, 13, -75, 46, -5, 79, -57, -32, -2, 59, 41, -7, -67, -18, -65, -36, 64, 60, -93, 55, 47, -46, 49, 64, 89, 18, -68, 52, -49, -61, -81, -14, -11, -41, 14, 77, 27, -27, -58, 89, 51, -45, 38, -33, 60, -62, 62, -53, 6, 46, 11, 80, -28, 4, 32, -24, 49, 2, -21, -93, -86, 44, 88, 33, 6, -53, 109, -57, 70, -31, -29, -58, 76, -20, -15, 12, 79, 71, -40, 79, 6, -46, 33, 27, -53, 94, -24, -44, -89, -63, -19, 48, 26, -43, -65, -51, 86, 80, 66, -64, -76, 68, 84, -8, 41, -51, 25, -6, 28, 83, -24, -3, 1, -37, 81, -39, 79, 28, -19, -15, -80, 64, -82, 51, -8, 88, 41, -24, -9, -74, 27, 43, -43, -68, 86, 45, 81, -82, 62, 57, -33, -77, 11, 71, 36, 92, -80, -85, 53, -12, -90, 81, 18, -82, -2, 82, -64, 24, 69, 59, -56, 78, -59, 110, -42, -61, 28, -95, 20, -14, 82, 32, -57, 35, 89, 68, -83, -29, 46, 10, 71, -47, -95, -76, -40, 12, 70, -71, -65, -57, 79, 64, -67, 39, 86, -41, 22, -22, -78, 69, -9, 5, -46, -79, -36, 40, 49, -44, -3, 22, -44, -33, -81, -89, 70, 8, -57, 24, -31, 34, 92, -60, -38, -10, -75, -64, 66, 18, 42, -13, -13, 34, -48, -73, -48, -91, -73, -45, -87, 47, -46, 18, -13, 55, -49, -13, 68, -94, 43, -55, -50, -84, 44, 69, 40, 18, 51, -25, -21, -85, 57, 69, -57, -95, 14, -46, -70, -42, -27, -35, 24, -82, -5, -29, 38, 32, 1, 32, -21, -51, -51, -101, -38, 75, -85, -62, 18, 40, 30, 53, 22, -52, -17, 39, 12, 55, 45, -4, 25, -5, -11, 22, -49, -12, 34, -19, 43, 9, -8, -4, 41, -33, -9, -31, 1, 35, 23, -22, 39, 19, -11, 32, 34, 44, 79, -59, -11, -55, 44, 5, 46, 57, 17, -29, -41, -24, 29, -12, 55, 44, 10, -15, -11, -2, -43, 12, -40, 67, -59, -31, -52, 3, 46, -13, 33, 54, 77, -3, -56, 5, 56, 17, -27, 56, 27, -2, -47, -13, -42, 36, -34, -37, -37, 42, 44, -20, -42, -72, -32, -7, -48, 55, -38, -54, -22, 49, 63, 48, -6, 5, -37, -56, -8, -40, -1, 88, 35, -31, 0, -11, -37, 38, -14, 39, 39, -11, 1, 55, 17, 44, -22, -16, -17, -28, -64, 15, 15, 19, -12, -56, -50, 15, 9, 3, -54, 40, -26, -41, -34, -20, 28, 67, 46, -1, 17, -43, 49, -16, 17, -9, 22, 38, 45, -24, -35, -1, 24, -20, -13, 65, -13, -13, -5, -15, 4, -37, 8, -37, -32, 49, -17, -18, -34, -12, -63, 17, -9, 59, -68, -42, 11, -43, 40, -107, 18, -8, -41, -54, 50, -66, -44, 31, -1, 4, -105, -13, 46, 30, 11, -128, -20, -126, -46, 28, 44, 43, -65, 43, -121, 13, -17, 8, 7, -28, -37, -66, -55, 28, 18, -17, -24, -87, 65, 42, 29, 17, -60, -7, 23, -40, -27, 48, 54, -49, 0, 42, 17, -29, 42, 23, 60, 39, 18, -55, -45, 5, 40, 10, -50, 4, -35, 60, -26, 12, -31, 39, 39, -55, -74, 34, -41, -39, 78, -16, 55, -59, 11, -74, 36, -17, -95, 28, -23, 64, 73, 1, 14, -55, 10, -6, 12, 81, 10, -55, -11, -89, -16, 25, -11, 14, -8, -59, 33, -17, -28, -33, -40, 65, 35, -17, -74, -14, 14, -8, 30, 0, -43, -58, -54, -25, 52, 29, 26, -72, 10, 30, 37, 6, 44, -13, 18, 34, -17, -33, 41, 26, 2, 72, -38, 29, -19, 54, 29, 30, -3, -40, 27, -45, 30, -59, 52, -12, -4, 113, -4, 5, -21, -39, -41, 59, 43, -17, -4, -29, -41, -8, -5, -71, -27, 36, 55, -35, 15, -65, 29, -35, -46, 14, -52, 41, 11, -18, -43, 10, 15, -43, 20, 3, 54, -42, 68, 32, -45, -7, 35, -20, -39, 58, 32, -4, -55, 1, 8, 55, -16, 5, -12, -23, 36, 2, 26, 16, -31, -61, 41, -58, -24, 60, 13, 6, 21, -9, 35, 4, 40, -50, -40, -89, -4, -44, 57, 77, -27, 94, 17, -47, -69, -47, 1, -27, 55, 34, 1, -43, -45, -37, -32, 64, 64, 61, -10, -87, 36, -11, -69, -49, 103, 31, 15, 41, -28, 46, -52, 51, 52, -59, -22, 47, 25, 0, -44, -86, 13, -36, -32, -35, -24, 7, 49, -36, 58, -27, 32, 28, -26, 29, -7, -77, 24, -32, -41, -61, -14, -41, -80, -16, -14, -21, -4, -44, -32, -69, -22, -40, -74, -97, -95, -32, -19, 18, -29, -12, -126, 13, 77, 105, -1, 83, -68, 80, 77, -73, 40, 7, -30, -60, 20, -53, 44, -63, 52, 127, -50, 69, -61, 21, 57, 19, 111, 37, -4, -38, -7, 47, 49, 48, 23, -9, 22, -44, 64, 3, -16, -52, 35, 61, 20, -16, -52, 36, 22, 50, -50, -41, 24, -24, 39, 64, 19, 15, 13, 38, 64, 23, -50, -20, 14, 54, 62, -9, -20, 31, 44, -79, -109, 55, 0, -70, 19, 39, -26, 61, -39, -9, 55, 42, 27, -2, -25, -70, -5, 75, 90, 36, 22, -36, 53, 2, -79, -40, -46, -17, 23, -80, -20, 64, -21, 27, 25, -24, -45, 72, 7, -60, -86, 35, 38, -56, -2, 55, 90, -19, -49, 18, 14, -23, -29, 42, 31, -9, 20, -60, 60, 44, -1, 22, -34, 8, -53, 38, 6, -49, -3, -12, 35, -27, -47, 32, 75, -3, -61, -93, 45, 24, -73, -70, -56, 9, 8, -41, -60, 40, 14, -10, -14, -6, 46, -63, -6, 44, 10, 23, -50, -11, 3, -51, -54, -1, -79, -35, 24, 60, -41, -65, 4, 4, 52, 42, 20, -29, -36, 35, -7, -27, -15, 25, 16, -20, 19, 16, 5, -22, -7, 36, 60, -17, -39, -75, -41, -13, -56, 18, 2, 8, -3, -15, -10, -1, 41, -28, 44, 33, 56, 40, -39, -20, -32, 68, 61, 25, 40, 28, 51, 24, 2, 28, -11, 45, 82, -50, -6, -5, 40, 61, 41, 80, 7, 80, -41, 33, 44, -30, 46, -27, 82, 65, -24, 13, -24, 30, 28, 71, 30, -25, 22, -34, 8, 13, 19, 29, -22, -26, -54, 48, 16, -43, -38, 5, -45, -22, 2, -36, 6, 37, 41, -5, 21, 36, -1, 19, -19, 23, 25, 53, -35, 65, 49, -24, 3, 20, 7, -45, 73, -17, -25, 40, -39, -2, 70, 31, 58, 40, -63, 22, 60, 28, 28, -2, -21, 15, -8, 15, 84, -2, 33, -94, 5, 49, 68, 28, 19, -10, -4, -70, 6, -14, -15, -55, 14, -3, 9, -53, -24, 44, 34, -69, 33, -38, -84, 68, -55, 37, -11, 49, -18, -55, -21, 14, 14, -3, 37, -73, -12, 3, -5, 61, 44, 67, -45, -16, -47, -69, 36, 8, -39, 2, -1, -77, 67, 75, 80, 24, -62, 6, 63, 39, 57, 10, 59, 66, -60, 2, 52, 51, 27, -45, 67, 65, 12, -59, 67, 37, 127, -15, 20, 18, -63, 26, 65, -18, -30, -19, 27, -7, 56, 68, -29, 18, -50, 71, 41, -97, 38, -15, 13, 13, -12, 65, 32, -58, -6, -29, 66, 53, 8, 7, 65, -42, -27, 49, -21, -11, 92, -30, 62, 60, 56, -15, -5, -28, -53, 12, 40, 2, 42, -33, 71, -9, -61, 3, 109, 3, 22, -26, 14, 55, 74, 19, -3, 2, 24, 30, -11, 70, 52, 73, 9, 88, 24, 82, 67, -14, 91, -75, -23, -89, -51, -9, 65, 77, -40, 26, -110, 46, -87, 64, 44, -2, -24, -61, -27, -72, 71, 74, 32, -102, -54, 72, -65, -9, -68, -52, -59, 49, 56, -60, 7, 28, -13, -11, -61, -50, 17, 4, 9, 63, 17, 18, 31, 48, -42, -30, 7, 1, -57, 36, 42, 2, -3, -66, 90, -48, -91, -13, 49, 60, -33, -45, -29, 1, 20, 50, 24, 63, 79, 28, 13, -6, -87, 27, 5, 45, 8, 32, -4, -59, 60, 30, 47, 13, -39, -28, -10, 7, 26, 39, 4, -26, 72, -54, -1, 58, -16, 48, -58, -88, -27, 45, 18, 31, 46, -41, 53, 46, -24, 59, 41, 22, -17, 43, -33, 42, -30, -22, 35, 15, -83, 4, 12, -71, -11, 0, 60, 7, 34, -13, 1, 17, -16, 43, -36, -25, -46, 30, 51, 31, 10, 29, -41, 25, -59, -2, 13, 9, 35, -52, -43, 61, 20, -36, 45, -9, 91, 38, 36, 26, -15, -6, 28, -29, 15, -44, -13, 43, -65, -53, 15, 3, -11, -27, -70, 43, 47, 5, -2, 53, -43, 0, 46, 35, 3, -39, 0, 1, 12, -84, -8, -29, 33, 46, 59, -52, 25, -18, -17, -8, -8, -41, 60, 32, 54, 15, -14, -54, -20, -44, -53, -48, 64, 29, -26, -29, 32, 8, 9, -28, 19, -14, 17, -9, 5, 71, 5, 70, -55, -23, 25, -6, 32, -29, 37, 5, -67, -51, -3, 100, -20, 92, 19, -37, 23, -40, -14, 19, 60, -23, -16, -18, 20, 17, 19, 43, -31, -24, -49, 15, -28, -39, 56, 0, 29, -59, 34, 22, -5, 7, -11, -101, -17, -65, -28, 38, 24, -37, -48, -12, -6, 12, 18, 17, -55, 46, -2, 46, 37, -8, -10, -9, 8, 32, -9, 56, -10, 53, -11, -5, 51, 12, -32, 57, -15, 47, 19, -6, -30, -8, 15, 45, 45, 9, -10, -39, -26, -71, 24, -62, -19, -34, -3, -123, -23, 51, -23, -53, -53, -20, -39, -27, -52, 20, -47, -52, -2, -14, -20, -30, -68, -53, -88, 1, 1, 26, 41, -2, -3, -39, 9, 12, -78, -50, -2, 7, -37, -47, -26, 10, 19, 12, 13, 38, 9, -6, 6, -14, -9, 12, -7, -31, 10, 9, -32, 0, -70, 37, 11, -10, 3, 14, -81, -14, 25, 17, -10, -32, 4, -23, -11, -63, -24, -5, -58, 22, -5, 51, 11, -38, -4, 8, -24, 10, 64, 19, 59, -9, -24, -38, 49, -7, 50, 81, 66, 61, 11, -24, -74, -1, 27, -14, 71, -13, -58, -5, -23, -29, 70, -57, -2, 20, 16, -9, -1, 127, 25, 14, 37, -6, -36, 48, -19, 32, -36, 4, -42, 24, 22, 30, -14, 60, 27, -34, -18, -37, 9, -20, 1, -26, -26, 46, 26, -19, -45, 43, -41, 10, 33, -27, 26, 21, 3, -41, 1, 13, -36, -1, -20, -97, 15, -59, -30, -8, 10, -40, -64, -19, -50, -32, 15, 17, -4, -1, -29, 6, -21, -31, -34, 23, -42, -24, 5, -11, 17, -12, 18, -28, 2, -8, -1, -11, 40, 58, 14, 39, 32, -29, -43, 32, -22, 15, -4, 3, -3, -35, -28, -14, -34, 52, 57, 12, -6, 22, -38, 5, -1, 17, 16, 12, -41, -21, 20, 45, 34, -4, 40, 22, 54, 14, 3, 32, -29, 49, 2, -54, -27, 9, 38, 40, -20, -54, -7, 35, -47, -30, -91, -24, 4, -28, 17, 33, 62, 22, -42, 15, 28, -3, 9, -43, -64, 46, 2, 16, -3, 2, -48, 10, -8, 25, 4, 10, 23, 50, -2, -26, 52, -19, 27, 15, -22, 31, 22, 43, 59, 51, 52, -20, 45, 25, -25, 14, 47, -31, -10, -18, 35, -15, -36, -19, 56, 14, -75, 121, -1, 113, -19, -5, -22, 33, -2, -2, 40, -6, -23, -72, 59, -21, 71, -27, 22, -51, -33, -52, -15, -68, 5, -64, 23, -65, -6, -36, -31, 104, 80, -44, 25, -69, -18, 50, -19, -22, 16, -20, 34, -24, -32, -24, -46, 127, 27, 5, -59, -5, -31, 7, -30, 1, 48, 24, -54, 25, -56, 54, -12, 32, -10, 54, 0, -35, 10, 46, -43, 47, -1, 38, -1, 6, 55, -8, 82, -19, -59, 9, 21, 23, 25, -46, -5, 29, 105, 31, -68, 25, 42, 40, -14, -19, 3, -86, 35, -114, 54, -64, -15, 39, 0, -62, -43, 27, -8, 7, -124, 74, 4, 53, -14, -81, 90, -45, -52, -70, -42, -19, 27, 56, -15, 17, 36, -35, -31, 22, -12, -75, -34, 13, -40, 9, -66, -26, 62, -14, 23, -38, 16, -54, 46, 98, 30, -13, -50, -2, -39, 41, -23, -39, -31, -37, 14, -5, -32, -63, 6, -101, -26, 2, -60, 2, 76, 10, -5, -50, -84, -7, -36, -21, -33, 50, 2, 5, -12, 8, -11, 92, 13, -26, -35, 12, 47, 23, -12, 5, 40, -22, 40, -36, 6, -8, -22, -91, 49, -42, -65, -18, -19, -5, 54, -23, 4, 23, -28, 31, -16, -42, -73, 66, 24, 37, -32, 28, 56, -34, 54, -7, 3, -70, -54, -15, -1, 5, -36, -51, 34, -56, -19, 32, -17, 27, 25, 63, 46, 44, -24, 31, 4, 24, 3, 38, 80, -9, -16, -39, -16, -58, -27, 15, 15, 12, 7, 9, -7, 9, 38, 25, 60, 55, -2, -21, -41, -24, -56, 61, 58, 2, -53, -12, -27, -32, -16, 28, 5, 0, -8, -63, -25, -21, -47, 60, -33, 6, -11, 20, -41, -18, -22, -44, 67, 24, -12, -24, 29, 54, 27, 6, 50, -40, 53, 31, -41, 35, 43, 11, 17, 33, -18, -21, -26, -59, 4, 68, -30, -17, 6, -28, 30, 25, -7, 12, 38, -3, -65, -19, -43, 25, -29, -18, -30, -61, -15, 6, 56, -48, 17, -43, -49, 57, 23, 10, -13, -53, 43, -26, 70, 60, 0, 46, -46, -2, -7, -17, -13, -12, 3, -5, 44, -18, -3, 40, 76, -4, -26, -33, 36, 19, 4, -11, -36, -50, 73, 16, -31, 33, 41, -56, 49, -8, 62, -46, -45, -17, 49, 5, -24, 48, 31, 46, 20, 28, -24, 69, -29, -4, -40, 58, 50, 81, -2, 42, 46, 27, -22, 59, -4, -3, -19, -9, 68, -112, -85, 8, -15, 20, 36, -44, -52, 27, -12, -1, -66, 21, -16, -17, -68, -86, 13, -33, 29, -53, -1, -12, -58, -2, 24, 21, 8, -74, -5, -17, -14, 47, -13, 39, 19, 29, 55, 40, -6, 40, 30, 24, 53, 21, 23, 17, 77, 5, 19, -5, -12, -33, 49, 62, 0, 37, 24, -8, -14, 19, 3, 26, 63, 1, 11, -42, 13, 8, -6, -25, 40, -28, -4, 33, -18, -35, 17, -10, 72, -20, -54, -14, 50, -30, -33, 11, 12, 32, -87, -14, 56, 18, 30, -36, 31, 29, 11, 22, 55, -100, 11, -53, -102, 20, -8, 19, -5, -42, -10, -37, 45, 22, 10, 127, -51, -34, -4, -23, -13, 30, 36, -20, 38, -45, -36, -11, 55, 68, 27, 54, -8, 37, -7, 84, -27, -3, -35, -23, 39, -32, -50, 15, 10, -36, -23, 4, 12, 38, -27, 27, 16, 48, -32, -9, -52, -34, -12, 2, -27, -97, -61, 23, -33, 9, -57, -8, 80, -52, 11, -67, 4, -39, 9, -7, 44, 64, -3, 29, 3, -47, -40, -43, -66, -7, 34, 17, 16, 1, -21, 36, -51, -12, 44, 17, -59, -67, -1, 45, 24, 27, 15, -24, 24, 37, -25, -42, -17, -42, -14, -28, -32, -58, -59, 54, 34, 10, 1, -14, 11, 24, 48, -6, -29, -70, -18, 25, 35, 58, -27, 24, 54, 12, 75, 60, -84, -12, -27, 8, 76, -37, -35, -59, -31, 52, -13, -68, 91, 4, 38, -36, -75, 27, -28, -14, 28, 24, 15, -91, -13, -36, 54, -7, -92, 29, -43, -58, -69, 32, 45, -11, -74, -76, 52, -63, -4, -49, -6, 3, -16, 38, -32, -6, -56, -10, -43, 20, 16, -69, 16, -48, 17, 61, -32, 44, -3, -9, 38, -17, -85, -38, 28, 67, -45, -96, -11, -34, -22, 56, -6, 8, 20, -33, -47, -62, -111, -42, 12, 23, -56, 46, -25, -88, -21, -64, 4, 60, 87, 18, 37, -73, -39, -67, -24, -17, 23, 111, 49, -21, -17, -15, -5, -48, -63, -27, 1, 12, -57, -22, -10, 41, 42, 58, -15, -11, 65, 36, -4, 40, -38, -31, 49, 27, 5, 59, -45, 23, 25, -22, 50, 25, -12, -2, 27, -31, -47, -3, 78, -28, 46, 5, 55, 16, 48, -32, 55, 86, -22, 97, 55, -67, 89, 33, -48, 81, -45, -19, -3, -5, 44, -35, -43, -75, 49, -28, -13, -5, -58, -16, 93, 29, -54, -37, 19, -43, 5, 52, 93, -97, -70, -65, -15, 64, 15, -55, 11, -23, -30, 56, -72, 44, -55, 104, 38, -48, -9, -57, 47, 122, -93, -55, -59, 57, -25, 105, -60, -29, -95, 12, -68, 51, -9, -35, 58, -30, -14, 70, 6, -6, 34, 74, -75, -24, -17, 11, -50, 36, -5, -55, -74, 25, 40, 67, 66, 24, -43, 72, -45, -78, 50, -31, -54, -98, 62, 19, 52, 33, -73, 82, -24, -48, 30, 67, -23, -26, -30, -26, 6, 26, 24, -32, 72, -55, -23, -68, 8, 64, 123, 55, 76, -34, 86, 44, -36, 113, -82, -8, -41, -51, -49, 21, -88, -30, 127, -8, -23, 2, -50, -56, 67, 1, -15, 39, -64, -52, -63, 6, -7, 37, 15, 22, -47, -60, 21, -37, -57, -37, -8, 74, -9, 93, -17, 56, -41, -28, -80, -67, -15, 49, -90, -70, -29, -23, 81, 18, 59, 13, -34, -33, -46, 72, 51, 39, 46, 18, 44, -6, -24, -37, -16, -25, -26, -64, -9, -44, 19, -61, 47, -44, -72, 77, -24, 12, -44, -71, -59, -88, -52, 93, -5, -22, -71, -56, 1, 5, -31, -22, -24, 12, 15, -79, 49, -16, -67, 67, 40, -78, -52, -26, -6, -3, -63, 67, 49, -71, 29, -26, 22, -28, 66, 77, 22, 20, 64, -62, 43, -13, 77, 72, -12, -48, 38, -6, -17, -3, 30, -88, 64, 31, 78, -16, -49, -42, 43, -68, -34, -10, -76, -53, -47, 57, 37, 6, -74, 10, -39, -16, 47, 60, 15, 74, -50, 32, -51, -56, -42, 38, 76, 21, -30, 24, -33, 51, 22, 51, -24, -76, 94, 75, 77, 68, -62, -58, 54, 9, -66, -23, -23, 18, 26, 27, 62, 76, -33, -2, -49, 4, 18, 10, 1, 25, -33, -90, 10, 7, -9, -51, -50, -32, 21, -35, -70, -27, -45, -26, -57, 19, 52, 15, -36, -30, 7, -18, 19, -55, -91, 71, 3, -51, -3, -42, -93, -16, 33, 45, 28, 51, 70, -8, -25, 21, 73, 9, 1, 52, -21, 38, -9, 19, -27, -35, 4, -43, 19, 58, -36, 48, 40, -20, 8, 49, 15, 15, 53, -10, 16, 41, -42, 38, 33, 33, -45, 25, 35, 19, 19, 52, 8, 13, -76, -10, -60, 15, -40, 64, 34, 68, -57, -66, -7, 15, -47, 0, 53, 26, 24, -42, 29, -68, 18, -5, 64, 23, 25, 38, 49, 89, 24, 88, -32, -20, -32, -63, 40, 43, -86, -66, 93, 68, -55, -25, 27, 92, -25, -43, -33, -57, -36, 57, 13, -17, -44, 18, -33, -24, 74, -32, 94, -116, -17, -25, 41, 58, -91, -77, 65, -17, -12, 33, -42, -4, 50, 34, -87, 21, 14, -70, 11, -62, 3, 21, 76, -69, 36, -1, 3, -74, 47, -50, 24, 50, 29, -79, 47, -65, -23, -30, 86, 27, -9, 50, -65, -65, -37, -37, -8, -50, 34, 18, -39, -14, -26, 83, 53, 47, 48, 50, -74, -75, 2, -24, -66, -26, -39, 22, 16, 59, 6, -11, 50, 39, 8, 21, 36, -85, 20, -13, -20, 2, 15, -33, -39, -14, 76, 45, -84, 17, -75, -11, -30, -8, -40, -78, 35, -102, 23, 67, 22, 80, -45, -34, -17, 53, -40, 5, 51, 36, 31, -29, -66, -102, -36, 109, -4, 60, -91, -62, -57, 26, -4, 25, 92, 22, 46, -17, 38, -51, 34, 74, -9, -44, -9, -78, -2, 40, 63, 18, -61, -67, -75, -59, 26, -46, -75, -72, 17, -68, -71, -6, -28, -49, 29, 33, 36, -48, -48, 25, 42, 6, 75, -58, -78, 60, 50, 113, 42, -23, 54, -24, 53, -46, -57, 41, 70, -15, -64, -17, -57, 76, 25, 34, 8, 36, 82, 67, 9, 69, 70, -17, 36, -114, -25, -59, -26, 85, 48, -39, -50, -49, 21, 59, -66, 51, 57, -77, -56, -128, -43, -20, 35, -2, -42, 104, -6, -30, -4, 14, -19, 65, -63, 4, -15, -120, -17, -23, 17, -90, 72, -3, 67, 25, -31, 63, -61, 88, 25, -68, -67, -97, 19, -46, -62, 36, -66, -61, -2, -12, 80, 74, -87, 45, -9, -7, 35, -4, 30, -87, 28, -68, 51, 29, 52, 3, 66, -8, -124, 13, -57, 22, -68, 58, -31, -87, -37, 74, 12, 80, -39, -59, 65, -57, -58, 48, -8, 11, -61, 82, -61, -13, 59, -51, 32, 9, -24, 37, 27, -3, -71, 10, -53, 24, -9, 89, 14, -80, -46, 13, 72, -38, -73, 67, -14, -46, -14, -39, -25, 7, -65, -90, -15, -63, -54, 8, 39, 45, 46, 1, -47, -13, -15, 68, 47, 1, -28, -34, -21, -26, -37, -19, -19, -13, -5, 21, 10, -5, -33, -16, 37, -29, -43, -116, -46, 18, -9, 110, 26, -12, -10, -2, 10, 60, -32, 28, -4, -11, 21, -17, 1, 44, 39, 7, 36, -92, -61, 14, 104, -22, -3, -59, 17, -44, -6, 6, 58, -6, -2, 30, 85, 36, -29, 29, 74, -63, -62, 51, 38, -19, -88, 100, 43, -32, -39, 65, 78, 58, 27, 43, 13, -11, -48, 13, -24, 36, -7, -7, 27, 76, -2, 45, -19, 21, 11, 50, -44, 27, -34, 34, 44, 34, 57, -32, -13, 53, 70, 75, 53, 0, 32, 68, 15, -12, 23, -22, -44, 0, 10, -51, -27, -45, -51, 16, 31, 38, -5, -16, -34, 23, 39, 36, 22, -20, 45, -69, 52, 47, -40, -75, 40, -29, -18, 9, -89, 42, 72, 80, -19, -18, 19, -127, 26, 127, -63, 19, -16, -19, -17, 30, 51, -15, -53, -8, -33, 46, -30, -77, -35, -60, 32, 68, -15, 15, 15, 56, -16, -14, -20, 31, 27, -50, -15, -86, -42, -58, 2, -66, 23, -10, -8, -21, -29, -65, -24, 18, 48, -38, -75, 98, 20, 19, 4, -49, 29, 1, 64, -56, 33, 15, -1, -15, -28, 41, -66, 56, 36, -31, -48, 2, -33, 47, 36, 18, -35, 14, 24, -38, 16, -4, -17, -45, -3, -86, -5, 16, -81, -26, 38, -36, -24, 28, -35, 4, 4, 9, -15, -5, -64, -62, 24, 40, -50, -22, -49, -25, 9, 9, 17, 1, -27, -15, -18, -35, 34, 3, -32, 34, -51, 20, 25, -42, -15, -5, -51, 25, -33, -30, -31, 25, -31, 53, -52, -25, -46, -54, -41, 19, 64, -34, -55, 41, 40, 38, 16, -19, 24, -79, 15, -26, -1, 13, -49, 38, -37, -28, -30, 43, -21, -50, -51, 18, 34, -46, 53, 70, 66, 21, -74, -13, -14, -56, -30, 4, 40, 14, 13, -18, -33, -9, -28, 19, 44, -1, -24, -45, -55, -23, -34, -15, -31, -15, 34, -34, -25, -31, -39, -14, -13, -29, -10, 17, 20, 57, 44, 0, -36, -26, 56, 11, -55, 2, 17, -49, 14, 27, 34, -5, 56, 10, 20, 62, 34, -23, -39, -6, -6, -45, -45, 42, 68, 26, -26, -37, -49, 32, 43, -14, -17, -27, -39, -52, 3, -8, 23, 11, -20, -67, 8, -28, 23, -70, 26, -1, -19, -27, 48, 16, -8, -28, 46, 52, 11, -67, 32, 60, 0, -58, -62, -16, 33, 68, -14, 6, -2, -21, 28, -40, 30, -8, -54, -31, 34, 53, -40, 76, 22, -34, 1, 27, 30, 19, 69, 127, 36, -55, -38, -12, -70, 10, -34, -55, 12, 41, -6, -52, -7, 52, -57, -11, -50, 30, -7, 3, -57, -25, 33, 47, 41, 45, 52, 0, 12, -81, -72, 53, 15, -28, -39, 38, 28, -36, -59, 17, 27, 30, -9, -95, 55, 19, 36, -70, -28, -51, -24, -91, -17, -4, -89, -15, 50, 47, -79, -63, -10, -29, -41, 22, 2, -1, -19, 67, 81, -46, -26, 60, -27, -44, 21, 0, 43, 75, -51, 64, -4, 55, -4, -14, -16, 56, -82, 62, -27, -59, 41, -61, -26, 47, -20, -34, 26, 70, 19, -13, -21, -22, 50, -52, 50, 7, -5, -40, -16, 23, 44, 35, -23, -53, -49, -19, -22, -58, 8, 27, -7, 19, 35, -74, 13, -30, -48, -8, 40, -50, -14, 49, -33, -4, 25, 69, 31, 28, 5, -25, 15, 59, 59, -26, -32, 8, -90, -3, -12, 64, -23, -48, 5, -56, 80, -127, -15, -70, -10, 54, 6, -14, -37, 41, 23, -21, -39, 2, 47, -48, -46, 41, 44, -8, 76, 67, 88, 44, 23, -35, -92, 36, 27, 36, -14, -9, -20, -56, -56, 18, 46, 40, -84, 14, -2, 18, 45, 0, -21, 15, 60, 45, -49, -73, -54, 65, 21, 31, 24, 63, -28, -42, -34, 38, -12, 12, 49, -14, 41, -76, 14, 51, 8, 40, -39, -42, 46, 77, -5, -6, -46, 5, -26, 50, -38, -69, 49, 36, -48, 4, -21, 59, 9, 53, -65, 58, -37, 58, -42, -15, 10, 17, -28, 55, 68, 66, 70, -42, 61, -1, 28, 15, -63, -9, -42, 3, 11, 16, -84, 48, -36, -54, -50, 21, -6, 60, 45, 72, 13, 59, 38, 1, 45, 33, 57, -34, -48, 0, -13, 21, -47, 31, 24, -5, 49, 68, 54, 29, 68, -43, -53, 37, -16, 5, 8, -27, 0, 33, -14, -36, 58, 82, 51, 15, -61, -6, 25, 21, -21, -53, 45, 42, -22, -34, -49, 65, -15, -76, -49, -33, -15, -24, 19, -45, -69, 19, 3, -60, 18, 13, -69, 44, -19, 6, -57, -66, 43, -31, -2, -33, -58, -33, -97, -32, 32, 51, -56, -29, 18, -35, 24, 34, -22, -3, -56, -69, -67, -80, 87, 27, 82, -91, 62, -50, -57, -38, 58, 86, -62, -14, -7, -20, -72, -65, 50, -22, 52, -44, -90, 64, 5, -14, -92, -65, 89, -43, -22, 5, -16, 29, 4, 4, -37, 69, -18, 7, -107, 114, -49, -24, -49, -100, -86, 73, 22, 8, -65, -128, -29, -33, -92, -52, -92, 14, 73, 14, -11, -100, 10, 18, -53, -40, -40, 0, 41, -70, 48, -48, -16, -20, -2, 50, -82, 41, 94, -3, -35, 10, 22, -56, 65, -47, 51, 4, -25, -55, 19, -4, -41, 83, 55, 14, -39, -10, -6, -42, 78, -74, 86, 8, 76, -74, -29, -16, 54, -45, 4, -52, 37, 102, -77, 126, 38, 21, -64, 25, -2, 42, 19, -75, 34, 41, 60, -66, 85, 37, 103, -58, -16, 1, -61, -15, 52, -85, 62, -80, 71, -105, -51, -12, 18, 25, -21, -92, -69, -63, -27, 24, 78, -14, 22, 11, -63, 53, 62, -47, 46, 68, 82, -36, -37, -35, 6, 28, 2, 24, 37, 57, 51, -58, -15, -69, -45, 48, 10, 36, 71, -74, 34, -19, -42, -47, 29, -43, -25, -47, 42, -61, 29, -24, 29, 120, -45, 6, -2, -28, 34, 9, 27, 16, 56, 31, -9, 82, 37, 21, 22, -33, 1, -5, -61, 55, -3, -96, -63, -5, 60, -49, -12, 89, 21, 44, -3, -50, 79, -59, 72, -47, -14, -17, -64, -51, -46, 5, 38, 51, -24, 40, 26, -30, -56, -44, 46, 53, 83, 67, -62, -64, -22, 74, 52, 27, -29, 97, 57, -16, -35, -14, -18, 74, 2, -18, 32, -21, 74, 11, -18, -63, -25, -72, -75, 38, -36, -6, -71, 84, -57, 23, -77, -18, 29, 54, 27, -47, 64, -14, 44, -8, 69, -22, 71, 87, 101, 31, 22, 78, -62, -8, 10, 111, 51, -45, -27, 2, 10, 63, -87, -58, 78, 7, -35, -36, 80, 13, -73, 74, -65, 76, 15, -32, 27, 5, 1, -13, -49, 14, 2, 42, 52, 50, 38, 92, 80, -17, -78, -58, 55, 65, -61, 31, 80, 2, -68, 81, -15, 49, -63, 0, 30, -20, -25, 25, -30, 6, 38, -3, 48, -3, 32, -59, -84, 112, 50, -8, -12, -34, -48, 24, 79, 61, 12, -53, 68, 40, 71, 35, -57, 54, -41, 8, -71, -91, -32, 80, 23, -60, 14, -35, 27, -20, -38, 4, -1, 81, 37, 17, 15, -5, -6, -19, 68, 3, -9, -4, -35, -67, -18, 62, 0, 111, 40, -52, -42, -39, -15, -7, 9, -13, -34, -52, -41, -49, 13, 28, 11, 127, -21, -77, -19, -10, -57, 61, 94, -23, -14, -68, 34, 22, 22, 53, -29, 75, 1, 15, -19, -8, 29, 13, 23, 30, 11, 3, -7, 41, 50, 23, 80, -28, -20, 6, -12, 0, -53, 7, 29, -69, -46, -74, 0, 34, -33, 7, -116, 41, -19, -22, -24, -58, -45, 2, 27, 12, -53, -26, -44, 24, -26, 9, -37, 21, -5, 45, -36, 26, 27, 30, 50, -30, -17, 37, 27, -50, -43, -28, 48, -33, 0, 13, -51, -8, -22, -6, 72, -5, 73, -64, -51, 21, 20, -18, 32, 21, 35, -19, -17, 49, -34, 30, -21, -9, 88, -46, 8, 26, 15, 42, 20, 42, -46, -57, -30, -19, 62, 35, 6, -1, -83, 8, 64, 52, 10, -3, -34, -23, 14, 35, 33, 16, -8, -98, -81, 2, -35, 17, 39, 22, 15, 17, 18, 0, 5, 53, -22, -32, -70, -55, 11, -14, -13, -24, 45, -37, -49, -25, 1, -4, -36, 51, -20, 2, -6, -9, -73, -8, 48, 51, -5, 43, -2, 2, 70, 10, 33, -79, 9, 6, 44, 11, -60, -38, 24, 21, -39, 62, -24, -44, -40, 11, 7, -3, 52, -4, 29, -31, 7, 62, -42, 14, 48, -14, 51, 1, -52, 99, 66, 32, -26, -38, 8, -6, -41, -27, -16, -16, 88, 14, 30, 29, -16, 4, -13, 102, -8, 35, -83, -41, -10, -48, -58, -36, 43, 15, -1, -32, -50, 12, 42, -9, -32, -29, 11, 63, -43, -9, 3, -57, -23, -44, 6, -9, -39, 58, -23, 0, -25, 38, 26, 8, -39, 19, 11, 45, 30, 27, 4, -46, 9, -7, 0, 74, 39, -50, -14, 40, 47, 38, 7, 19, -6, -35, 33, 46, 4, 49, 38, 21, 57, -13, -30, -34, -22, 34, -44, -28, 5, -47, -11, 9, -87, 6, -15, 34, 5, 36, -26, -42, 49, 7, 88, 27, -35, 22, -43, 31, 31, -25, -29, -1, 9, -32, -20, 36, 44, -3, 42, -33, -1, -44, 38, -36, -62, 34, 16, -8, -5, -1, -4, 72, -14, 30, -21, -13, 33, 16, 37, -4, 16, 61, 46, -58, 0, -41, -11, 17, -44, 40, -20, -28, -21, 31, -9, 9, -14, -8, -8, 35, 38, 62, -19, 43, -21, 14, 20, -12, 1, -10, -27, -13, 17, -115, 6, -5, -17, 17, -29, -5, 3, 34, 3, 32, -15, -25, -12, 10, 24, -128, -24, -11, 36, 24, 17, -43, -16, 25, 9, -32, -30, 6, 43, 12, -62, -24, -4, -28, -4, 36, 10, -4, -24, 21, 55, -11, 55, -32, 8, 32, -17, 50, 12, 24, 28, -33, 34, 22, 9, -19, 0, -28, -5, 6, 14, 24, 40, -62, 18, 7, -11, 5, -11, -32, 5, 24, 17, 21, -40, -17, 30, -11, 82, 16, -12, 1, 7, -28, 4, -7, 13, 43, -21, -9, 29, -26, -22, -21, 17, -30, -15, 31, 44, 5, 34, -81, -76, -17, 1, 20, -41, -42, -3, -17, 37, -56, -17, 55, 2, -23, -44, -77, -29, 6, 25, 13, -5, 26, 27, 36, 7, -8, 1, -2, -22, 28, -23, 23, 43, -34, 2, -3, -52, -25, -54, 10, -34, -30, 8, -9, -17, 7, -8, 17, 20, -52, 2, -20, -45, -30, 17, 51, -27, 74, 18, -35, -40, 20, -42, 35, 65, 10, 76, -37, -14, 9, 30, 32, 24, 81, 17, -83, -35, -54, -63, 74, 47, 20, 48, -19, 10, 38, -36, 0, -49, -14, 9, -58, 13, 8, 41, 29, -28, -25, -58, -45, -24, 10, 4, 13, -11, -40, 18, 3, -19, -1, 13, -3, 36, 16, 4, -9, -3, -12, -14, -45, 30, -48, 10, 15, 18, 34, 26, 4, 16, 32, 21, 23, -37, -31, -19, -12, -19, -97, -10, 66, -9, 21, 9, -61, -34, -23, 4, 10, -53, 0, 33, -31, 23, -6, -38, 34, -32, 6, 50, 13, -21, -33, -43, 7, 12, 32, -3, -11, -6, -48, -16, -30, -2, -7, 59, -21, -30, 6, -36, -30, -5, 12, 37, 11, -11, -79, 12, -24, -22, -25, -6, -21, -37, 7, 26, 24, -22, -20, -32, -36, 4, 29, 13, 36, -8, 7, 11, 11, 11, 17, 31, 21, -25, -4, 28, -17, 24, 40, -15, 18, -3, 31, 17, 5, -9, -32, -22, -29, -16, 19, -31, -25, 30, 55, 11, -44, 15, 18, 19, 45, -13, 31, 24, -7, -16, -20, 19, 2, 34, -12, 19, 12, 14, -20, 44, -11, -11, -28, -8, 37, -3, 10, 19, 14, -9, -22, -9, 29, -30, -7, -5, 20, 3, 2, -43, 26, -23, -6, 23, -3, -23, 79, 11, 9, -59, -25, -26, -66, -19, -41, -22, -9, -19, -53, -31, -15, -38, 127, 77, -63, 14, -47, -56, 16, -22, -34, -56, 31, 64, -38, 2, -14, 6, 72, -12, 40, -23, -10, -4, 3, -17, 10, -15, 15, -9, 42, -9, -33, 1, -68, -41, 90, -12, 24, -1, -56, 1, 42, -38, -31, -8, -32, -46, 25, 35, -89, -45, 35, 5, -31, -39, -6, -21, -40, 16, -48, -1, -36, 20, 17, -18, -28, 1, -53, 20, 4, 45, -24, 21, -25, -94, -46, 41, 16, -12, 16, -106, 32, 43, 53, -56, 27, 43, 45, 46, -15, -23, -42, -64, -9, -25, 29, 13, 16, 44, 76, 7, -3, -58, 17, 85, -24, 95, -20, 33, -2, -18, -29, -43, -5, 4, -43, 22, -23, 58, 15, -10, 37, 25, -19, -23, 4, 45, -28, -10, 73, -4, -30, 43, -20, 48, -9, -39, -24, -54, 27, -49, 3, 47, 67, -51, 13, 64, -22, -56, 1, -30, -76, -34, -19, -43, -52, 24, -39, -20, 72, -25, -29, 58, 81, 7, 66, -43, -57, -47, 80, 7, 28, 11, -3, 37, -1, 21, 24, 14, 7, -50, -41, -46, 35, 51, -46, 116, 17, -45, 47, 27, 35, -36, 44, -22, 8, 31, 33, 30, -6, -16, 44, 27, -1, -13, -10, -20, 40, -19, -4, 28, 0, -10, -16, 52, 37, -57, -2, -69, -11, -21, 37, -7, 14, -29, -18, -24, -35, -4, -86, -48, 27, -52, -2, -68, -8, 54, -23, 28, 50, -41, 24, -28, 39, -12, -9, 18, -22, -16, -5, -21, 18, 9, 23, -16, -45, -4, -69, -53, 42, -30, 38, -21, -9, 56, -4, -46, 42, -26, -22, 25, -41, 2, -75, -18, 11, 12, -4, -5, -39, -28, -37, -11, -51, -1, -27, -18, 9, 29, 7, 23, -21, -21, 48, -32, 4, 18, -4, -14, 49, 75, 38, 20, 2, 0, 60, 59, -8, -33, 23, -1, 25, -77, 51, -17, 44, 56, 46, 48, -11, 75, -29, 31, 109, 57, 58, 26, -14, -58, -10, 23, -6, 58, 46, 48, 16, 104, -79, -41, -4, 53, -25, 55, 10, -57, -7, -5, 45, -66, 69, -34, 36, -2, -126, -57, -38, -23, -12, -14, -13, -68, 35, -22, 23, -33, 62, -49, 29, -19, -42, -10, -36, 36, 47, -54, -6, -24, 14, 24, -33, 14, -61, 51, 79, -3, 98, 13, -92, 34, 34, -55, -4, 9, 57, -17, -24, 26, 35, 3, 27, 82, 9, -24, 6, -60, -39, -26, 49, 28, 44, -63, 16, 21, 25, 5, 0, 49, -33, -49, -69, -36, 22, 31, -33, 8, 51, -33, -7, -48, 73, -34, 45, 13, -47, 5, 59, -39, 5, -7, -94, 35, -38, -24, 44, 38, -32, -51, 52, 34, 32, 49, -57, 12, 54, 31, 14, 41, -7, -33, -77, 37, -7, -71, -57, -23, 71, 3, -48, 30, -16, 6, 40, 66, -53, -20, -36, -9, -21, -25, 4, -8, 39, -28, -88, 11, -117, -93, 100, 11, 24, 97, -91, 13, -5, -4, 23, -10, -5, -40, -94, 21, 82, 6, 50, 108, 28, -28, -27, -15, -19, -41, -42, 14, -5, 21, -99, 93, 10, 78, -12, 18, 24, 1, -33, -84, 52, -8, -28, 31, 17, -55, -68, 44, -1, 72, 10, 32, -63, -34, 21, -6, -34, -18, -54, -41, -51, 54, 17, 58, 62, -32, 35, -36, -48, 14, -15, 48, 65, 11, -64, -34, -114, -3, 79, 21, 37, -51, -2, -102, -37, -18, 61, 51, -53, 57, -68, 103, -94, 34, 97, 69, 63, 8, 29, -23, 16, -56, 77, 27, -38, -34, 27, 24, 127, -25, -25, 13, 56, 2, -28, 11, 32, 6, -44, -8, -51, -17, -30, -81, 68, 29, 46, -64, 23, 7, -59, -47, 14, -13, -15, -16, 44, 29, -37, 49, 41, -7, 117, 14, 13, 26, -4, -51, 9, 46, 91, 23, 3, 62, 39, -18, -77, -65, 79, 72, 104, 25, 51, 27, 16, 117, 52, 19, -20, -11, -41, 71, 79, -28, -85, -13, -8, 46, 92, 18, 3, -23, 30, 19, 70, -23, -63, -2, 95, -2, -12, 20, -54, 56, 37, -52, 14, -22, 10, 106, -40, 2, 12, -21, -26, -13, 113, -15, -21, -39, 5, 25, 20, 54, 8, 14, 66, 20, 48, -26, -32, -8, 79, 31, 53, -49, 36, -24, 50, 119, -13, -78, 61, 7, 42, 114, -95, -89, -10, -25, 22, 80, 71, -44, -31, -28, -26, -80, -4, 29, 32, -27, 23, -1, -106, -38, -67, 37, -1, 52, 10, -64, 0, 3, -59, 15, -32, -63, 14, 57, -11, -75, 20, -36, -66, 13, 24, -19, -15, 1, 1, 29, 0, -12, 45, -20, 31, -60, -10, 7, -20, -4, -102, 57, -97, -60, -78, 68, 6, -74, -28, 32, 18, 66, -22, -16, 57, -43, 25, 31, -17, 75, 37, 63, -96, -59, -83, 63, 66, -93, -85, -2, -92, 14, 70, 97, -66, -68, 93, 44, -68, -77, -24, -75, 103, 89, 114, 48, 91, 28, -41, -47, 47, -21, 20, 28, -60, 102, -19, 78, -99, 35, 93, 27, -63, 53, 75, -88, -78, 88, -53, 55, 10, -77, -2, 65, 78, -32, -37, 28, -38, -85, 95, -72, 57, 68, -62, 17, -25, -4, 34, -69, -121, -66, -125, -10, -33, -46, -98, -24, 74, -60, 11, -3, -32, 