#define FC1_WEIGHT {0, 15, -49, 33, 29, -28, 26, 8, -6, 37, 4, -46, 23, -2, -4, 1, -50, 22, 38, -24, -7, -36, 0, 10, -25, 30, -5, -35, -37, -44, 45, -18, -40, -21, -37, -10, -52, -16, 28, -19, 7, 20, -22, 38, 27, 38, 13, 35, 5, 14, -40, -41, -39, 22, 25, -13, -19, 31, -1, -20, -32, -32, -12, 23, -12, -9, 39, -11, -45, 21, -29, -47, -22, 41, -16, -21, 2, 16, 28, -26, 21, -2, 1, 47, 13, -37, 45, 36, -37, -20, 26, -42, -12, -36, 17, -19, 21, -25, -36, -41, -20, 16, -46, 50, 20, -37, 32, 35, -54, 36, 27, 42, -27, -15, 15, -32, -8, -6, 36, -16, -59, 52, 17, 46, -25, -3, 18, 2, 38, -32, 47, -12, 6, 24, -21, -44, -25, 22, -39, 11, -31, 46, 35, -4, 51, 33, -10, -36, 17, -41, -42, -27, -14, -64, 31, -25, -5, 2, -38, -52, -30, -20, 59, -20, -29, 29, 29, 24, -8, 22, -39, 10, -37, 41, -56, -45, 9, -37, -14, -45, 22, 15, 31, -19, 40, 27, 66, -46, 45, -10, 36, 58, -25, 37, -14, -2, -52, 33, -29, 37, -26, 27, 3, 29, 56, -26, 20, -12, -42, 51, -45, 74, -15, 18, 31, 41, 3, 13, -15, -45, -2, 11, -44, 50, 18, 17, 16, 13, 24, -50, 58, 20, -40, 35, 11, 15, -50, 12, -9, 30, 16, 8, -29, -50, 19, 10, -23, -14, -14, 14, 25, -43, -4, -25, -37, -49, -18, -49, 13, 45, 20, -4, 5, 16, 2, 50, 4, 11, 45, 55, 25, -48, 32, -53, -4, 46, 18, 35, -6, 23, 30, -2, -28, -15, -24, 11, 42, -9, 15, -2, -51, -46, -38, -24, 18, 40, -38, 31, 9, -51, -38, 31, -6, 5, 0, 9, 14, 25, 39, 59, -22, 35, 24, -57, 19, -18, -51, -9, -22, 30, 59, -44, -49, 21, 24, -22, -14, 2, -26, -41, -46, 44, 48, -40, -10, 47, 43, -43, 5, 33, 27, -24, -12, 16, 39, -27, -28, -39, -34, 17, 26, -25, 12, 18, -20, 0, -54, -7, -38, -20, -8, -45, -7, 62, 28, 69, 22, -44, 17, -8, -26, -65, -66, -13, 21, 13, 11, 36, 43, 57, 46, -35, -34, 63, -36, 58, 6, 9, 41, 60, 87, -34, -31, -9, 12, -38, -4, -21, -54, -18, 54, 7, 1, 70, -13, 9, -2, -40, -42, 47, -58, 18, 64, -3, 55, -38, 18, 26, -9, 49, 2, 3, 33, 23, -22, 28, 29, 84, 47, -76, -10, -8, -2, 72, 34, 6, -4, 7, 17, -38, -52, -42, 75, -21, -62, -47, 29, 49, 29, 61, 42, 1, 57, -43, -28, -24, 16, 4, -6, 4, -45, -25, -19, 12, -31, -70, -6, -22, -31, 52, 88, -22, -54, -17, 51, 8, 24, -9, -48, 34, 42, 5, -26, -14, -23, -36, -49, -48, -24, 67, 38, 22, 63, 7, 23, 31, -8, 0, 6, 32, 17, 49, -17, -16, -43, -64, 48, 0, -19, -22, -29, 2, 51, 17, -28, 49, 32, -35, -22, -44, -51, -17, -10, 27, 17, -57, 40, -55, -56, -8, -7, 39, 8, 45, -14, -2, 50, -1, -56, -41, -16, 18, -44, -47, 3, 41, 12, -68, -31, 42, -21, -49, 51, -25, -32, 31, -49, -18, -19, 45, -11, 14, -36, 25, 36, 34, 30, 36, -16, -24, -62, 75, 25, 29, 15, 18, 50, -43, 12, -47, 8, -5, 17, 15, -17, -48, 40, -14, -24, 59, -59, 33, -9, -41, 43, -46, -16, -3, -2, 27, 37, 32, -26, -29, 32, 5, 41, -24, 33, -36, -1, 13, -27, 20, -37, 6, -26, 26, 23, 3, -22, 41, 10, -40, -2, -15, 9, -21, -1, 1, 6, -23, 2, -42, 20, 26, -46, 38, -12, -42, -29, 17, -38, 45, 17, 40, -34, 18, 15, -50, -33, 35, 34, -35, -34, 35, 42, -39, -47, 17, -42, 23, -46, -4, -38, 0, 27, -42, -35, -42, 36, 5, 41, -37, 23, -34, 20, -9, -28, -23, -28, -31, -30, 50, 8, -10, 20, -13, 47, 48, -19, 21, -33, -9, 21, 18, 45, -31, 11, -29, -8, -17, 44, -34, 45, -38, 20, 34, 37, 17, -44, -26, 5, -46, -14, -42, -3, 1, 34, -24, 44, 49, 7, -40, -18, 60, -48, -39, 67, 73, 5, 49, 33, 4, -16, -43, -42, -41, 66, 92, -53, -37, -36, 23, 29, 3, -62, 43, 108, 74, 10, 44, -10, 15, -42, 45, -21, -10, 12, 35, 22, 25, -19, 54, 35, 49, -18, -81, -46, 7, 24, -5, 46, 7, -96, 64, 36, 10, 1, -35, -17, 5, -16, -44, -80, 26, 18, 16, -34, -30, 27, -71, 67, -72, -57, 9, -54, -23, 27, -23, 58, 34, -27, 28, -59, -29, 15, -14, 23, -38, -60, -37, -29, -36, -22, 21, 32, -3, -13, 82, 1, 60, -33, -2, 12, 49, -3, -30, -35, 28, -9, 32, -6, -17, -46, 18, -56, 58, -47, -69, 1, 16, 43, 19, -47, 31, -51, 20, 27, 38, 52, 28, -39, 44, 5, -35, 34, -31, -25, 19, 22, -36, -37, 38, -28, -29, -17, 32, 8, -43, -53, -29, -31, 46, 55, 34, 31, 6, 34, -45, -7, -32, 59, 51, 23, -67, 23, -37, -33, 17, -72, -17, -13, -55, 16, 24, 27, 50, -1, 30, -56, -64, 50, 26, 17, 47, 10, -25, 16, 49, -8, -36, 44, -60, 12, 44, 1, 12, -5, -24, -4, -38, -10, 47, -55, 54, 57, 41, 14, -7, -30, 29, 61, -36, 16, -3, 41, -56, 47, -10, -6, -55, -5, 2, 15, 37, 29, -13, -18, 29, 0, 42, -9, 34, 43, -3, -73, -8, 30, 28, 19, -5, 14, 9, -18, -28, -27, 2, -11, -11, 29, 44, 6, 5, -14, 25, -42, 53, 31, 26, 23, 32, 3, -58, -47, -29, -13, -34, 27, 42, 22, -50, 46, -1, 51, -32, 47, -18, -45, 10, -32, -10, -24, 42, -46, -42, 59, 56, -32, -17, 10, -38, -29, 8, 28, 2, -11, 21, -15, -48, -31, 36, -48, -45, -22, -20, 48, -23, 28, -11, 16, -2, 16, -39, 55, 6, 47, -25, 48, -7, -37, 33, 46, -34, 32, 22, -3, -5, -38, 47, -37, 2, -1, 52, -46, -16, 18, 41, 12, -17, 36, 5, -41, 48, 44, 25, -47, 21, 57, -22, -17, 40, 35, -22, -44, -43, 46, -40, -19, -14, 25, -65, 59, 45, -27, -24, 37, -16, -17, 3, 28, 52, 21, -27, -49, 43, 95, -44, -57, 19, -52, -6, -5, -24, -3, 7, 62, 56, -95, 57, -3, 12, 10, 7, 44, 56, 50, 13, 38, -12, 11, 6, -12, 26, -10, -50, -52, 13, -23, -27, -50, 41, -9, -29, -23, -50, 62, -36, 80, 31, -56, 52, 27, -6, -2, -28, -15, 16, 35, -35, -19, 29, -2, -3, 14, 55, 15, -16, -13, -26, -6, -23, 7, -31, -55, 47, -23, -47, 54, -43, 27, -2, -42, -48, 16, -43, 22, 48, -37, -4, 44, -34, -18, -14, -54, 34, 39, 32, 16, 47, 3, 0, 12, 50, 0, -48, -24, -69, -34, 7, -25, -39, 47, 33, 19, 15, -42, 28, -18, -13, 14, -17, -18, 8, 14, 16, 30, -16, 30, 9, 20, 50, -30, -33, 14, 37, 62, -42, -84, 10, 12, 55, -41, 94, 47, -5, 16, 5, 24, 18, 46, 26, 7, -35, -28, -13, 26, 59, -20, -1, 37, 42, 6, -44, -25, -16, 33, -46, 24, -19, -34, 33, 26, 13, -8, -58, 46, 63, -8, -24, -66, -29, 30, -24, 6, -39, 12, 39, -50, -47, 45, 40, 41, -49, -40, -19, -39, 15, -31, 50, 48, -22, -28, -50, -10, -48, -53, 22, -11, 34, 8, 3, -5, -19, 20, -51, -28, 11, -18, 20, 65, 13, 25, 3, -7, -8, 51, 28, 6, -15, -53, 40, -15, -21, -25, 32, 3, 51, -55, -51, 28, 35, -31, -18, -28, -43, 24, -33, -11, 15, -48, 34, -27, -42, 31, -51, 35, -25, 33, -45, -21, 28, 8, 18, 56, 41, -41, -37, -2, 43, -30, -51, -6, 35, 3, 0, 39, -25, 12, 10, 8, 26, -28, 1, 14, -2, -9, 47, -35, -2, 10, -44, 15, -38, 25, 34, 17, -29, -40, 23, 17, 43, 5, -35, 28, 30, 56, -6, 26, 45, 23, 1, -26, -27, 40, -14, 34, -44, -14, 26, -38, 51, -38, -40, -29, 43, 25, -16, -18, -49, 3, -51, -44, -39, -44, -4, 18, 45, -47, 39, 50, 3, -8, 31, -40, 5, 17, -43, -25, -17, -44, 34, -53, 21, -28, -41, -51, -35, 28, 43, 13, 0, 24, 22, 45, -5, 7, 12, 44, -97, -38, -45, -30, 10, 47, 44, 13, 50, 6, -75, -17, -23, -45, -18, -25, 52, 25, 7, 56, -25, -44, -5, 22, -27, -24, 7, 70, -51, -22, -34, 27, 9, -59, 11, -2, 9, 34, 15, -37, -8, 2, -24, -43, -35, 50, 3, 27, -49, 20, -22, 19, 19, 12, -18, -32, 18, 24, 27, 22, 41, -58, 31, 50, -64, 79, 6, 68, -26, 59, -49, -5, 12, 79, 40, -33, 28, -10, 29, -50, 5, -47, -20, 36, -42, 63, 14, 28, -7, -3, -16, 41, -10, 35, -36, 43, -44, 33, 14, 41, 49, 36, 29, -22, 10, 45, 22, -8, 20, -19, 54, -26, -17, 109, -57, 37, 2, 57, 10, -36, -8, -25, -31, 46, -15, 12, -55, -30, 20, 63, 65, 51, 74, 19, 35, -7, 73, -53, 54, 70, 52, 44, -57, -24, -31, -38, 70, -38, -38, -35, -36, -66, 32, 11, -32, 89, 39, 14, -46, -58, -21, -27, 44, -45, 50, 30, 16, -78, 51, -9, -12, 5, -27, -35, 88, -37, -44, 12, -37, 19, 11, -6, 33, 25, 10, -14, -40, 28, 22, 3, -29, 64, -4, -32, -44, -12, 9, -61, 23, -62, 62, 14, 21, 4, -42, -17, 22, -19, 0, 18, -12, -29, -17, -28, 33, 9, 46, 33, -52, -32, -7, -10, -5, -35, 28, 10, 28, 42, 31, 27, 20, -17, -61, 43, 15, 28, 4, 33, 30, 54, -50, 65, -2, -27, 55, 57, -27, -28, -39, 28, 10, 54, -26, -19, -24, -18, -41, 43, -44, -27, -39, 68, 18, -49, 67, 20, 24, -20, -12, -35, 17, -58, -2, -1, 60, 15, 40, 33, -20, 39, 24, 18, 42, 1, 23, 47, 31, -4, 59, 38, 15, -13, -15, 16, -16, -52, -48, -17, -49, 31, -46, -31, 44, 23, -47, 53, -16, -27, 49, -38, -20, 33, -28, -41, 35, -45, -21, -36, -15, -26, 35, 36, -15, 10, -2, 41, 5, -32, -12, 67, -17, 37, 20, -33, 16, -24, -18, 66, 63, -46, -4, 24, -46, -34, 9, -5, -26, 21, -28, 6, 23, -50, 31, 51, 62, -7, -5, 27, 0, -51, -1, -10, 1, 27, 4, 35, 41, -16, -26, 8, -53, -19, -42, 25, 45, -19, 30, 45, -1, -14, -22, 48, -28, -38, -52, 35, 9, 14, 60, 31, -44, 38, -48, -59, -25, 71, -38, 0, -1, 24, -56, -7, 37, 38, -3, 21, -3, -26, 27, 32, 26, -1, 75, -9, 16, 44, 56, 37, 23, 30, 25, 3, -7, -7, -66, 55, 40, -1, -9, 8, -51, 42, 56, 42, 2, -36, -29, -29, -32, -12, -18, -33, -6, 12, 22, -36, 20, -36, 26, 43, 16, 4, 26, -14, 40, 17, -21, 14, 21, -6, 47, -19, -15, -17, 69, 70, -14, -38, 5, 15, -29, 2, -27, 41, 39, 43, 4, 38, 49, 31, -5, 38, -44, 24, -36, 9, -30, -18, -14, -24, -53, 11, 9, -14, -8, 47, -35, -43, 16, 58, 50, -35, 2, -4, -39, 17, -7, 41, 71, 25, 6, -71, -29, 39, -30, 50, 4, -10, -13, -1, 28, 29, 70, -48, -19, 33, 30, -51, -50, -42, 5, -3, 4, -59, 75, -7, 32, 42, -19, -25, 10, 39, 11, -49, 35, 53, 42, -68, -28, -12, 49, 6, -10, 33, -4, -26, -27, -46, 17, -46, 35, -48, -27, -47, -15, -66, -50, -1, -36, -7, 7, 3, -14, -53, -22, 29, 20, -20, 15, -33, -12, 27, 1, 34, -41, -57, 73, -15, -10, -26, -4, 61, -41, -70, -32, 19, 17, 41, -45, 15, 42, 62, -22, -32, -9, -17, 41, 8, -54, 41, -13, -15, 37, -34, 52, -68, 7, -48, 7, -24, 16, 28, -50, -48, -8, -40, 5, -50, -72, -20, 52, -56, 37, 46, 34, 22, 49, 47, -22, 45, -30, 64, -33, 2, -1, 5, 6, -24, 39, -29, -25, 16, -20, 50, -20, -18, -22, -45, -4, 0, -37, -22, 65, 27, 31, -51, 10, 44, -37, -44, 0, 46, 36, -29, 47, 13, -30, 43, 52, -32, 0, -40, 37, 30, 41, 18, -58, -15, -20, 20, 2, 0, -18, -47, 43, -43, -17, 20, 85, 8, -21, -9, 28, 16, 35, -54, 52, 1, -26, -23, 23, -43, -6, 15, 65, -1, -44, 3, 96, -30, -88, 75, 29, 49, 31, -29, 74, 60, 2, 36, -71, -13, -61, -8, 5, 16, -19, 37, 22, -5, -58, 27, -55, -39, 54, 0, 30, 36, -45, 16, 6, -15, 15, -33, 37, 21, 57, -36, 43, 41, -3, -20, 42, -47, 50, 20, 53, -42, 29, 24, 12, -13, 79, 5, 101, 29, -55, 29, 12, -40, 41, -51, -62, -15, -71, 13, 23, 59, 0, -3, -47, -26, -40, -6, 33, 35, -8, -12, 54, -63, -57, -4, 46, 3, 0, 62, 34, 6, 29, 17, -53, 16, -54, 31, 12, 17, -16, 61, 57, 42, 5, 57, 32, -36, -23, -33, -32, -11, 38, 6, 16, 8, -20, 0, -13, -9, -33, 12, 19, -50, 4, 42, -4, -38, 32, -37, -18, 41, 8, 7, -19, -14, 38, 37, -32, -31, 42, -25, 36, -4, 28, 44, 31, 3, 34, -11, -26, 18, -25, 23, -11, -46, 21, 5, -1, 34, 15, -7, -31, 61, -12, 12, -1, -20, -21, -18, -22, 19, 8, 11, 30, -28, 46, -6, -28, -44, 24, 49, 19, 11, -18, 37, 24, 8, -58, 14, -22, 36, 0, -11, -27, 34, 18, 41, 16, -23, -16, -5, 49, 36, 12, 9, 46, -41, 16, -22, 2, 6, 37, -43, -46, -60, -34, 4, -1, 34, 5, -37, -51, 8, 13, 52, 5, 39, -38, 3, -27, -11, -24, -7, 13, 15, 4, -38, 24, -27, 18, 47, -8, 16, 96, -20, -1, -51, -29, 25, -6, -10, -38, -25, 25, 0, 21, 25, 24, 4, 17, -21, -29, -29, 43, -12, -9, 67, -25, 65, -10, -12, 4, 25, -2, -9, -16, -56, -34, -7, -32, 7, -18, 3, 27, -53, 26, -4, -41, -52, -24, 28, 25, -19, 85, -20, -17, 20, -70, 57, 7, 17, 8, -51, -12, 39, 47, 9, 25, -78, -5, 26, 37, -63, 80, -7, -53, -11, -21, 52, -41, -8, 10, 7, 49, 7, 73, 42, -38, -48, -4, 0, 28, 44, 35, 5, -27, -8, -47, -46, -34, -2, 12, -7, 11, -48, 48, -28, 2, -29, -29, -28, -7, 58, 26, -1, 2, 28, -1, 11, 40, -75, 1, 19, -8, 15, 32, -43, -5, 33, -24, -26, -56, -51, 25, 59, -41, -9, -60, -40, 39, 33, 35, -34, 12, -42, -22, 3, -55, 37, 12, 75, -3, 52, -23, -42, 38, -31, -41, 48, -52, -5, 21, -50, -54, 6, 7, 4, -38, 58, 0, 27, -37, -26, -11, 11, 67, 15, 48, -37, 45, 22, 26, 24, -24, -20, -35, 30, 14, -13, -4, 58, 41, -1, -12, 29, 54, -26, 2, 27, 46, 44, -36, -45, -22, 6, 5, -4, -37, 29, -13, 44, -31, 47, 8, -34, -39, 10, 34, -26, -4, -1, -30, 11, -11, -26, -38, -37, 10, 55, -9, 3, -12, 50, -35, 18, -19, -41, -8, 40, -47, 9, -52, 26, 47, 31, -40, -36, 50, 50, 16, -29, -56, -24, -22, 9, 11, -33, 69, -45, -6, -50, -8, -38, 22, -8, -2, 15, 43, -42, 8, 29, 20, 25, 61, -35, -12, -47, 19, -4, 43, 53, 12, 20, 31, 33, 13, 24, 3, 19, -24, 4, 55, -46, 13, -20, 5, 6, -51, 28, 22, -32, 72, 17, 44, -26, 40, -16, -8, -23, -9, 19, -22, -42, 75, 65, 40, -17, 55, 7, -9, -35, -66, -31, 17, 21, 1, -20, 20, 7, -5, -22, -26, 46, 26, 40, 4, 63, 3, -28, 4, -1, -9, 17, -26, 22, -23, 5, -50, 82, -62, -46, 25, 21, 41, -49, 17, 72, -9, 69, -6, -36, 37, -21, -9, -14, 19, 48, 37, 39, 51, -22, 11, 127, -36, -10, -73, 27, -64, -61, 28, 10, -57, 53, -17, 28, -39, -12, 30, -29, 78, 21, -68, 13, 0, 9, 21, -23, 4, -48, 70, -12, 11, -105, 33, -53, -26, 26, 44, 45, 37, 6, -34, 23, 57, -16, -25, -3, -41, 2, -34, -53, 2, -18, 5, 20, 7, -3, -25, 67, -80, 14, -38, 58, -56, 24, -76, -2, 32, -39, 30, 28, 4, -1, 33, -41, 9, 26, 11, -14, 63, -23, -39, 48, -22, -45, 24, -66, 8, -49, 46, 42, 6, 26, -31, -59, 41, -47, 32, -55, 58, -27, -45, 50, 40, 27, 40, 43, -17, 49, -42, -56, -52, 39, 23, -7, -45, 19, 21, -40, 58, -54, -4, -8, -40, 66, -40, 26, 37, -40, -21, -29, -17, 11, -59, 32, 29, 0, 45, 4, -9, -5, 16, -44, -16, -67, -12, 37, 67, -23, 69, -8, -13, 55, -22, -27, -55, 21, -34, -7, 53, -27, -43, -39, -28, 41, 36, 7, -44, 29, -37, 24, -41, 38, -49, -14, -9, 20, 30, 18, 33, 3, 30, -10, -46, -84, 35, 59, -32, -15, 44, -4, 25, 21, -59, -19, 50, -58, 49, 37, -32, 17, -26, 42, 29, -4, 12, 30, -26, -40, 0, 30, 62, -31, -25, 5, -10, -30, 13, 47, 31, 40, 48, 32, -46, 61, 30, 4, 6, 16, 16, 26, 6, 61, 31, 44, 24, 44, -2, -44, -41, -12, -4, 50, -18, 22, 60, -38, -3, -61, -35, -10, -26, -47, 22, -40, -40, 5, -33, -30, 1, -17, -40, 38, 1, -55, -35, -11, 34, -40, 18, 30, -33, 32, -12, 10, 19, -31, -8, -9, -6, -50, -4, 1, -56, 59, -25, 5, -27, -23, -47, -50, 3, 50, 30, 18, 26, 40, 39, 43, -49, 21, 26, -45, 64, 10, -4, 15, -31, 59, -41, 14, 34, -30, 13, 10, -37, -47, 2, 36, -61, -7, 41, 17, 64, -1, 42, 15, -5, -49, -11, -60, 72, -46, -1, 35, -63, 42, 7, -57, -9, -13, 5, -4, -11, 0, -3, -11, -63, -61, -51, 83, -44, -32, 22, 52, -13, -43, 28, 21, -72, 3, -10, -105, -39, -70, 26, -2, 73, 60, 13, -9, 24, 27, 44, 53, -5, -2, -38, 2, 17, 21, 41, -47, -37, 72, 63, 2, -55, 79, 0, -34, 30, 31, 15, -15, 31, -37, -8, 42, -70, 12, 2, 10, 37, -45, -15, -42, -68, 71, 60, 31, 68, 32, 30, 9, 12, 68, -27, -89, 44, 19, 24, 10, 19, 84, -33, -30, -35, 51, -37, -14, -21, -30, 19, -30, 32, -2, 47, -8, -49, -18, 4, -49, 87, 18, 23, 88, 39, -20, 33, -33, -45, -19, -3, 25, -24, -24, 24, -68, -16, 49, -27, -3, -28, 4, -20, -64, 31, -5, 23, 40, 42, 10, -37, 50, 40, -14, -27, -60, 72, 17, 22, -115, -35, -37, -26, 39, 85, 28, -47, 64, 84, 54, -13, 1, -5, 8, 22, 11, -2, -8, -6, -9, -66, 86, 0, -11, -19, 65, 13, 11, 7, 67, -46, 44, 45, 39, 2, 14, -58, 0, -49, -12, 43, 6, 65, -40, 66, 98, 70, 45, 25, 34, 20, -68, 11, 69, -8, -43, 4, 4, 39, 17, 21, 4, 36, -43, 41, 28, -48, 53, 52, -14, 15, -1, 66, -1, -16, 44, 9, 6, 36, 18, 62, 11, -16, 101, 22, -4, -39, 27, -25, -15, -11, 32, -10, 38, 7, -22, 31, -37, -36, -40, 1, -32, 22, -6, -39, 50, 21, -29, -34, -37, 8, -47, -37, 17, 19, -23, -44, 27, 25, -14, 44, -11, 16, 27, -14, -8, -16, 6, 0, 24, 50, -34, 35, 44, 21, -27, -28, -2, -48, -51, -32, 21, 10, -5, -17, 41, -44, 2, 20, 27, -5, -24, -41, -43, 25, 47, 14, -48, 34, -5, -9, -16, -33, -28, -3, 11, 14, -26, 44, -4, 7, -11, 31, -31, -47, -33, 36, -14, -10, -18, 13, -22, -40, 28, -37, 40, 13, 15, 10, -19, -36, 47, -49, -16, 35, 11, -50, -28, 19, -26, 8, -27, 16, 46, 31, 2, 22, 5, -13, -38, -23, 26, 4, 10, 42, 25, 6, -44, -12, 27, 54, 8, 50, -25, -17, 67, 30, -10, -66, 30, 29, -5, 28, -10, 18, 42, -12, 24, -63, -54, -70, -60, -58, -26, -25, 22, 18, -54, -37, 27, 11, -28, 32, 35, 14, 21, -55, -40, 31, 23, 7, -37, 58, -47, 23, -36, 56, 78, 46, -16, 10, -7, -14, -3, -28, -10, 40, 26, 11, 9, 20, 24, -26, 75, -35, 35, 36, 32, 35, -23, -13, 40, -27, 35, 50, -36, 35, 20, -49, 43, 56, 42, 59, 16, 59, 16, 26, -16, -42, 60, 16, 20, -35, 13, 7, 45, -87, 33, -10, 25, 81, -22, 37, -28, -51, 2, -59, -61, -16, 24, -4, 50, -68, 41, -49, -11, -58, -13, -31, -21, 44, -28, -9, 80, 17, 40, -36, 29, 6, -33, 26, 38, 7, -1, 55, -39, -80, -13, -20, 24, -17, -43, 46, -46, -6, 0, 45, 32, 6, 48, 33, 45, -7, -25, -27, 63, -57, -11, 15, 4, -13, 47, 42, -43, 22, -26, 28, 57, 39, 34, 38, 34, 55, -3, 42, -16, 33, 20, -51, -40, 34, -73, -51, -16, -28, 22, -36, 19, 14, 18, 7, 69, 40, 4, -45, 31, 9, 25, -21, -14, -59, 24, 41, 37, 25, 12, 22, -44, 23, 11, 2, 37, -41, -29, 20, -11, 19, -56, -27, -55, 42, -56, -32, 0, 43, -23, -4, 1, -36, 26, -11, 12, -17, 19, -40, -6, 5, -29, 12, 41, 26, -11, 3, 39, -20, -33, -7, -16, -41, 36, -49, 28, -1, 5, 26, 28, -20, 43, -20, -54, 50, -23, -19, -41, 55, 35, 54, -33, 63, 71, 7, 21, 50, -28, -19, 14, -24, 18, 45, -48, 42, 20, 33, -6, 15, -2, -18, 22, 50, 67, -48, -48, -34, -26, 31, -35, -48, 26, 40, -18, 30, -52, -55, 16, -46, 69, -38, 56, 46, -14, -8, 5, 15, 2, 30, 20, -36, 24, 13, 27, -49, 47, 22, -45, -40, 9, -4, -44, -41, -21, 26, -45, -33, 45, 18, 1, -48, 47, -30, -7, -20, -44, 20, 18, -19, -4, 16, 26, 27, 29, 42, -7, 49, 19, -37, 76, -19, 6, 14, 47, 8, -50, -21, -24, -16, 4, 16, -50, -11, 34, 80, 17, -6, -22, -11, 27, 53, 21, 21, 10, -43, -52, -29, 5, -56, 42, 28, -31, -55, -19, 35, 38, -16, 77, -15, 40, -33, 30, 57, 29, 43, 15, -5, -28, -7, -38, -11, -32, -39, -40, -21, 25, -55, 22, 30, 30, 45, 26, 30, -26, 24, 23, -52, -11, 19, -34, 51, 16, 55, -36, -29, 1, -16, -19, 20, -47, 18, -48, -28, 37, 46, 0, -9, 6, -30, -39, -47, 73, 9, 28, 25, 13, 14, -31, 38, -56, -26, -14, -20, 34, 17, 16, -16, 3, -7, 21, -36, 28, 26, 6, 37, 13, -64, 44, 14, -8, 0, -45, -6, -7, 58, 40, 42, 50, 40, 44, -9, 38, -72, 42, -57, -21, 39, 10, 26, -39, -46, 0, -43, -30, 22, -61, -53, 52, 35, -26, 41, -11, 11, 41, 9, -33, -27, -20, 28, 49, -50, -16, -49, 22, 18, 5, -30, 19, -35, -3, 49, 75, 40, 18, -45, 3, 19, 17, -25, 57, 42, 5, -11, 33, -3, -27, 19, 72, -39, -48, 33, -13, -10, 41, -26, -26, 56, 53, -13, 46, -36, 31, 1, -4, -25, 9, 63, -14, 28, 5, 44, 33, 33, -20, 54, -14, -4, -37, -18, -32, -34, 49, -30, -41, 95, 42, 37, -42, 33, -50, -41, -31, 38, -10, -48, -40, 81, -57, -57, -8, -10, 6, -59, 37, -41, -53, -41, -55, -24, 10, -47, -22, -3, 5, -42, 68, 33, 46, 15, 20, 102, -30, -65, -53, 43, -5, -6, -47, -11, -49, 39, 6, 33, -33, -23, -9, -49, 18, -2, 21, 49, 43, -18, -23, -12, 67, -5, -30, -26, -54, -29, -50, 32, 10, -42, -30, -74, -35, -21, 33, -29, 48, -27, -22, 7, 9, 82, 4, 43, -33, -24, -39, 10, -43, -15, -17, -1, -42, 42, -8, 55, 9, 33, -4, -33, 10, 36, 46, -26, 9, 8, -22, 2, -43, -55, -8, 41, -38, 45, 8, 55, -40, -5, -17, -26, 23, -17, 41, 51, 44, 6, 41, 46, -14, -57, 33, 35, -12, -4, -45, 26, -45, -48, -44, -37, -49, 43, 17, 23, 32, -42, -7, -18, -39, 33, -44, -43, 27, 24, 25, -17, -47, -52, 6, 27, -45, -28, 46, 47, -12, -9, 34, 3, -43, -31, -32, 28, -9, -18, 33, -55, 18, -47, -29, 9, -49, -35, 20, -6, 24, 26, 41, 3, -25, 49, -39, 34, 49, 28, -19, 26, 4, -39, -3, -10, 28, -32, -10, 18, 25, 51, 42, -14, 22, -2, 42, -20, 21, 21, -48, 5, -53, 22, -10, 31, -22, 43, -21, -53, -24, 48, -2, 33, -10, -40, 7, -47, -26, 45, -18, 19, 47, -24, 36, -14, -23, 0, -43, -43, -36, 14, -10, 8, -28, 51, -11, 68, 38, -59, -11, -44, -28, 13, 30, -20, 26, -65, 28, 42, -44, -31, -43, 61, 0, 51, -7, -36, -8, -34, -5, 80, 34, 11, 49, -27, 2, 49, -20, -28, 25, -7, 24, 16, 20, -11, -28, -16, 69, 14, -4, 28, 12, -29, 53, -15, 36, -49, -3, 3, 39, 15, -50, -42, 4, -49, -32, -27, 27, -28, 37, 52, -3, -22, 37, 8, 47, -19, -26, 84, 7, -13, -12, 50, 5, -7, 15, -36, -41, -22, -25, -48, 1, 18, 41, 0, -57, -33, 45, 5, -2, 14, 16, -8, 0, -3, -44, 64, -25, 0, -26, 57, 28, 6, 55, -47, 21, -18, 62, -15, -24, -17, 31, 40, 13, -39, -48, -40, 4, -24, -38, 27, 16, 18, -12, 6, -20, -16, -37, -34, 45, -33, -46, 34, 7, 31, 3, 32, -36, 46, 22, -51, 7, 17, -18, -10, -1, -26, 8, 7, -45, -47, -6, -36, 35, 39, 23, 25, 25, 18, 24, 14, -23, -11, -32, -1, 25, 32, 33, -33, 48, 5, 26, -8, -51, -37, 10, -38, -48, -8, -51, 1, -19, 13, -49, -45, -21, -30, 15, -40, 47, -28, -18, -22, -3, 21, 27, -6, -29, -23, -41, 15, 8, 23, -21, 35, 21, -35, 45, -23, -38, 50, -30, 4, -1, -33, -40, -31, 11, 50, -24, -30, -46, 42, 46, 6, 19, -16, -36, 48, -20, -8, -24, -49, 7, 17, 30, -12, 17, 21, -56, -42, -51, -37, -60, 28, -17, -22, -69, -32, 3, -28, 12, 29, -34, -18, -1, -15, -27, 36, -14, -36, 52, 39, -39, -40, -36, -5, 47, 14, 28, -30, -16, 58, 17, 25, 32, 21, -60, 29, -49, -56, -34, -4, -50, 52, -2, 69, 50, -27, 54, -4, 62, 39, 42, -29, 28, -43, -49, -39, 27, -23, -20, 40, -4, 17, -47, -30, 47, 2, -2, -30, 17, 41, -35, -47, 15, -37, 19, -7, 55, -30, 42, 36, 24, -14, 10, -22, -22, 43, -52, 42, 59, 48, -39, -65, 13, 21, 60, 11, -9, -20, 33, 5, 12, 54, 48, -32, -30, 35, -40, -16, 19, -14, -21, -48, -19, 28, -28, 33, -42, 35, 11, -8, -3, 38, -13, -22, -36, 20, -12, -32, 61, 61, 54, -52, 8, 18, 22, 58, 39, -16, 0, -15, -6, 65, -20, 0, -21, -35, -43, -26, 28, -16, 40, 42, -32, 41, -31, 62, 19, -18, -31, -28, -18, 44, 19, -29, 31, 28, -27, 75, 20, -22, 25, 36, 55, -11, -45, -45, -14, 47, 13, -45, -5, 27, -44, 27, 44, 41, 13, -1, -19, -75, 13, 32, 7, -28, 5, -10, -8, 21, -27, -44, 62, -36, -32, -23, 22, 50, -42, -26, -26, -38, 0, 36, -17, 0, 34, -48, 40, 15, 20, 9, -8, 39, -31, -22, -45, 31, -8, -40, 32, 68, 45, -21, 45, 12, -34, -45, 11, -27, 13, -6, 2, -30, -18, -61, -33, 29, -68, -25, 24, -71, -2, 32, 25, -41, 33, -39, -2, 24, -38, 20, 58, 36, -67, 79, -22, 47, 4, -15, -57, 0, 6, -37, -36, 14, -16, -13, -25, -5, -36, 9, 54, -38, -22, -40, 18, -37, -60, -16, -19, 4, 34, 20, 12, 13, -11, -28, 21, 32, -43, -13, -23, 65, 45, -33, 66, -84, 39, 22, 7, 40, -46, -41, 58, 23, -8, 37, -20, 27, 36, 9, -45, 1, 29, -63, 31, 52, 24, -32, -31, -64, 50, 15, -45, 19, -25, -1, 6, 7, -44, -2, 68, 40, 47, -8, -9, -43, -49, -30, 41, 29, 26, 28, 6, 4, -12, -52, -19, -28, -20, -6, 13, -41, 12, 26, 39, 42, -39, -12, 34, 17, 37, 15, -18, 30, -50, 50, 39, -32, -32, -15, -2, -44, 1, -30, 45, -51, -12, 0, -6, 35, -8, 25, 47, -47, -18, -30, 24, 11, 48, -20, -21, -9, -29, 5, -49, 55, 10, 18, 17, -15, -15, -28, -45, -13, 16, 41, 11, 24, -46, -47, 4, 9, 18, -9, 14, 6, -24, -21, 22, 15, -10, -33, -16, 3, -43, 11, -46, -51, -20, -6, 0, 32, -35, -20, -21, 12, 7, 49, 36, 19, -50, -51, 12, 9, 28, 30, -37, -43, 17, -20, 7, -13, -42, 2, -15, 13, 11, -10, -40, -33, -11, -36, -13, 59, -49, 47, -49, -13, 20, -39, 10, -66, -30, -44, -18, 53, -43, 3, -79, 29, -18, -23, 12, 43, 48, -67, -50, 77, -24, -23, -54, -6, 3, -12, 57, -37, 4, 3, 55, -1, 25, -10, -78, -39, 33, -31, -12, 56, 89, 51, 56, -34, 75, -1, 14, -70, -10, -42, -65, 32, -31, -77, 44, 40, -50, 25, 68, -15, 56, -54, 2, 64, 14, 39, -40, -13, 69, 76, 52, 41, -5, 36, 10, 14, 25, -36, 51, 1, 44, -21, 33, 78, 9, -22, 1, 20, -26, 30, 22, 5, -6, -29, 30, 10, 47, -10, 62, 66, 53, 52, 18, -25, 85, 48, 74, -35, 34, -14, 18, -42, 48, -5, 35, 48, -15, -46, 17, 36, 14, -44, 6, 29, 45, 47, 10, 14, 6, 38, -43, -26, 15, 37, -28, 39, 36, 1, -53, -51, 26, -18, 23, 49, -46, -26, 41, -31, 0, -23, 54, -3, 12, 40, 3, 7, 21, 26, 23, 22, -44, -22, 11, -36, 42, -28, -15, -6, -31, -7, -54, -40, -38, 35, -27, -28, -24, -44, -3, 27, -2, -26, 17, 27, 33, 14, -6, -41, -22, 14, -35, 13, -23, 20, 48, -44, 18, 21, -15, 56, 41, -8, -12, -4, 35, 43, -19, -12, -57, 40, 9, 17, -37, -2, -38, -22, -8, 22, 5, -19, 6, -48, -60, 12, 7, 44, -33, -28, 50, 33, -9, -41, 19, -36, -24, -44, -3, 41, 45, 55, 27, 1, 48, -17, 31, -43, -1, -22, 41, 37, 28, 15, 22, 7, 38, -16, -17, 70, -19, 23, -43, -20, 56, 12, -19, 30, 29, 37, -31, -40, -14, 35, -46, 34, -43, 9, -2, 17, -6, -37, -35, -47, -55, 24, -5, 50, -33, 21, 45, -40, 70, -20, 13, 46, -25, -21, -14, 48, -12, 28, -24, -23, -17, -48, 23, -25, -29, -58, -37, 15, -51, 48, -40, -18, -41, -35, 58, -41, 47, 34, -10, 0, -12, 34, 4, 24, -43, 57, 55, -48, 8, -12, -42, 10, 31, -5, -47, 14, 1, -39, -28, -14, 37, 62, -3, 0, 34, -39, -22, -13, 35, -19, -42, 45, -17, 25, 33, 26, -48, 39, 20, 6, -57, -17, 25, 12, 53, -4, -33, 13, -47, 28, 26, -47, 22, -5, 21, -42, 30, 9, -46, -22, -27, -24, 27, -13, 43, 23, -45, 15, -21, -15, 31, -38, 24, 18, -3, -22, 1, 34, 45, -20, -8, 27, -28, 35, -51, -5, 31, 3, -15, -20, 1, -45, -2, -1, -3, -7, -26, 19, -19, -30, 18, -51, 40, -25, -21, -11, -5, 22, -9, 50, 19, 4, -18, 37, 13, 22, -25, -7, -36, -1, 11, 13, 46, 13, -18, -46, -9, 15, -16, 29, 33, -45, -45, -8, 9, 9, 30, 49, 20, -41, -28, -26, 18, -31, 1, 38, -5, 28, -35, -22, 23, -32, 4, 11, -56, -15, 60, 22, -40, 2, -50, -28, 12, 8, 27, 23, 41, 48, -68, 54, 23, -2, 58, -17, -16, 17, 10, 44, 14, 29, 44, -34, 11, 41, -30, 37, -31, -15, 39, 4, -30, 31, -29, 22, 10, -50, -28, 30, 20, 13, 26, 12, 41, -35, -43, -14, 54, 27, -67, 46, -13, 22, 9, 39, 42, 21, 41, -14, -50, 47, 0, 5, -8, 64, -21, -8, -9, -50, -23, -35, 31, -47, -57, -66, 28, 20, 74, -2, -26, -23, 33, -28, 22, -47, 24, -35, -53, -19, 6, -20, -7, -13, -51, -16, -3, -40, 17, 62, 21, 12, 69, -61, -15, -6, 29, 43, -1, -7, 11, 56, -28, 31, -44, 4, -45, -16, -9, -17, 47, -52, 22, 18, 1, 36, 1, 2, 49, 10, -13, 2, -24, -9, 4, 13, -27, 10, 51, 38, -16, -38, -6, 43, 35, 44, -7, 22, -5, -16, 9, -40, -34, -8, -6, 0, 51, -23, 42, 38, 45, 5, -20, -12, 33, -41, 27, 42, -22, 20, -14, -37, -7, 7, -16, -57, -6, 24, -15, -19, -36, 2, -32, 17, 7, 10, 20, 29, 15, 30, 13, -3, 38, -39, -5, -8, 4, -2, -44, 1, 7, 28, -2, -25, -19, -6, -37, 8, -30, -48, 7, 32, -13, -38, 23, 17, 10, 41, 23, -36, 8, 32, 40, -4, -52, 41, -63, -32, 11, -43, -55, -17, -12, -6, -62, 22, 17, 11, -55, -42, 37, 47, -11, 62, 40, 43, 74, 27, -28, -24, 43, -1, -2, -101, 67, -17, 7, 1, 50, 90, -56, 63, -26, -15, 71, -10, 31, -79, 45, -43, 44, -23, 35, 17, 13, 26, -54, -17, -38, 14, 57, -9, 26, -11, -49, -40, -62, 4, 16, 28, -60, -6, 31, 24, -29, 11, 26, 0, 2, 27, 47, -34, -14, 3, 40, 85, 1, 69, -57, 15, -32, -67, 21, -18, -20, -30, -12, 2, -13, -14, 6, 33, 1, -19, -90, 0, 74, -8, 51, -51, 28, 63, 15, -70, -44, 41, -21, -4, -33, 65, 78, 42, 5, -14, -49, -22, -38, 57, -40, -16, -12, 71, 16, -26, 34, 6, 23, -36, 16, 44, -12, 18, -23, -52, 14, 21, -46, 6, -39, 18, 33, 41, -45, 10, 25, 48, -48, 1, -51, 11, -14, 20, 19, -31, -34, -35, -8, -43, -4, -2, 33, 3, 16, -29, 26, 21, -16, -45, 33, -46, 23, -24, -46, -39, -12, -40, 23, -41, 21, -30, 4, 21, 33, 11, 6, 36, -6, -2, -18, 23, 4, -6, 25, -44, 23, 39, 12, -4, 32, -38, 8, 29, -34, -14, -22, -18, 22, -8, 7, 37, 23, -45, 8, -27, 24, 48, -7, 1, 0, 39, -21, 12, -35, 12, 7, -16, -26, -24, 8, -6, -40, 47, -25, 33, 1, 50, 24, 12, -26, 1, -32, -26, 30, -37, -23, -32, 55, 66, 62, -1, 7, 48, -44, 20, -31, -58, -54, -62, 29, 43, 53, -8, 54, 32, 59, 20, 3, 82, 41, 32, 3, 7, 46, 23, 51, -47, -16, -12, -25, -65, -15, -18, -38, -18, 26, 8, 25, 47, -86, -17, -30, 46, -20, 17, -27, 58, -1, 94, -25, 39, 24, 2, -4, -24, 63, 29, -38, -37, -29, -37, -10, 21, -27, -56, 0, 75, 48, 26, 20, 26, -40, -64, 47, 25, -31, 20, -2, -47, -55, -52, -59, 46, 9, -18, -6, -52, -31, 35, 31, 10, 15, 49, 45, -40, -32, -10, 22, -5, 27, -66, -28, -54, -18, 19, 89, 27, -13, -2, 53, -32, 26, 113, 41, -39, -9, 45, 28, -1, -11, -13, 18, -39, -17, -58, 21, -22, -70, -22, -41, 41, -40, 27, 43, -52, 60, -20, -49, -19, -9, 18, 9, -61, -8, -84, -69, -32, 12, 51, 1, -7, -28, -18, -38, 38, -51, 38, 13, 9, 24, -3, -26, 1, 29, -9, 77, 34, 24, -38, 38, -24, -60, 50, 3, 36, 48, 29, 12, 36, -42, 27, -19, -5, 41, 5, 21, 29, -44, -18, 40, 41, 24, 66, -46, 52, 29, -44, 38, -20, -44, 46, -30, 48, -46, 66, 54, 24, -15, -37, -33, -22, -34, 5, 10, -10, -14, 48, -49, 40, 30, 23, 30, 51, -53, -10, -7, 2, 76, 40, -38, 43, 36, 7, 14, 15, 8, 19, -19, -33, -52, -43, 26, -5, -22, -39, 48, 23, 42, 2, -39, 4, -50, 25, 15, -39, -30, -43, -39, -51, -32, -30, 13, -35, -4, -57, 17, 5, -13, 12, 29, 9, 9, 51, 39, -50, -6, -35, -36, 14, 53, 2, -15, -23, 5, 36, 27, 14, -41, 5, -38, -43, 48, 45, -13, 29, 58, -41, -44, 27, -11, 24, -26, -42, 25, -24, -41, 43, 41, -30, 51, 52, 18, 24, 19, 4, -40, 11, 13, 33, 28, 30, 59, -38, 50, 53, -55, 2, 26, 42, -39, -22, -13, -42, 9, -36, 11, -13, 8, -19, -17, 46, 9, -5, 30, -49, 47, -41, -24, 21, -48, -28, -43, 38, 25, -8, 20, -1, -45, -12, 21, -38, 48, -42, 36, -50, 33, 21, 22, 31, 21, 26, -34, -15, -1, -46, 14, 21, 49, -31, -52, 25, 20, -51, -44, -3, 2, 44, -50, -13, -60, 33, 10, 32, 22, -33, -24, 18, -20, -17, -9, 31, 51, 24, -31, -14, -1, -3, 4, -53, -58, -51, 17, -24, 17, 10, 34, -32, -12, 23, -19, -25, -45, -31, -2, -16, 5, -23, 9, -59, -31, 18, 11, -15, -16, 35, -6, 4, 5, 27, 38, 24, 39, 6, -7, 36, 11, 25, -4, -31, -7, 15, 5, -51, 28, -43, -43, 16, -51, 34, 49, -31, 30, 14, -7, -15, 17, 22, 33, 8, 49, 36, 38, -54, 3, -47, 51, 13, 35, 6, -28, 48, 46, -13, 28, -41, -9, 27, 26, 52, 45, 21, 27, -3, -9, 2, 37, 8, -12, -38, -37, -33, -11, -3, -42, -49, -18, 16, 13, -11, -37, 16, 22, 14, -11, -34, -35, 40, -42, 51, 36, 4, 13, -26, 24, 13, -3, -21, -44, -50, 45, 36, 1, -41, 48, 31, 32, -35, -15, 40, -49, 3, 5, -45, 49, -47, -29, -32, 24, -51, 3, -14, 47, 43, -20, -32, -44, -49, -23, -27, 32, 52, -39, 14, -18, 52, -47, 35, 34, -14, -22, -20, 1, -9, 2, -11, 21, 11, 5, -25, -38, 30, 11, 32, 16, -9, -15, 29, -51, 8, 5, -8, -49, -26, 48, 43, -25, -25, 50, 12, 19, 7, -9, 51, 45, -31, 14, -8, -22, -4, 21, 6, 46, -27, -25, -41, 39, -25, 11, 39, 31, 26, -8, -19, -25, -12, -47, 14, -25, 37, -52, -38, 40, 6, 6, 30, -49, -16, 12, 17, -34, 3, -44, -14, -27, -37, -51, 29, 39, -51, -21, -37, 31, 11, 7, -10, -7, -9, -34, -47, -4, 49, -34, 18, -14, -27, -39, 30, -42, -19, -22, 31, -34, 4, -25, -44, -47, 23, -50, -17, -47, -11, 27, 33, -40, 18, 42, -18, -42, 11, -27, 37, 5, -33, 6, -26, -6, -50, 48, -28, 47, -11, 47, 36, 4, -31, 15, 18, -39, 10, 17, 26, 26, -47, 22, -43, -8, -23, -15, -24, 44, -39, -6, -39, 45, -15, -21, 0, 14, -37, 1, 48, -20, 42, 31, -31, -46, 0, 25, 30, -30, 10, 9, -50, 24, -31, -10, 2, -20, 38, 0, 63, 23, -28, 22, 47, 31, 40, 45, 11, 24, -16, -32, -24, -37, -41, 25, -28, -36, 16, 11, 45, -8, 1, 13, 43, -10, -44, 50, -12, -39, 13, 30, -54, -48, -4, -36, 21, 46, -27, -33, 1, -7, -4, 5, -29, -10, 15, 1, 46, -27, -28, -26, 4, 42, -39, -41, 66, 47, 19, 37, 39, -23, -2, -21, 0, -15, 24, 38, -18, -13, -32, -40, 13, -44, 51, -32, 52, -11, -29, 6, -51, 19, -16, 20, -6, -6, -22, -47, -32, -8, 44, 44, -51, -29, 6, -6, -26, -6, 3, 39, -27, -1, 12, 40, -26, 29, -29, 30, 48, -24, -27, 28, -55, 56, 47, -32, 29, 45, -35, 22, 52, -63, 11, 11, 9, 10, 10, -17, 4, 42, -7, 1, 19, 34, 2, -15, 28, 28, -26, -22, -9, 48, 28, -10, 32, -45, 50, 29, -5, 43, -1, 42, 25, 10, 9, 53, -46, 25, -31, 25, 5, -33, 65, 30, 6, 23, -30, -22, 39, -8, -40, -37, 33, -70, -20, -9, -13, -6, 45, -18, -9, -54, -15, 9, 61, 2, -16, 43, -42, -2, -43, 40, 12, -12, 17, 75, 37, 54, 17, 7, 34, 1, 45, -26, -23, -24, -32, -28, 60, -24, -15, -31, -58, 62, 28, -23, 24, 21, 46, -44, 21, -56, -55, -25, 10, 21, 41, -30, -24, 41, 20, -31, 13, 35, 44, 60, 19, -20, -18, -4, 6, -43, 15, 8, -38, -53, -30, 5, -42, 54, -47, -3, 43, -41, 52, 32, -12, 12, 48, -64, -34, 31, -20, -28, 13, 10, 33, -7, 40, 38, -39, 52, -10, 2, -29, 67, -45, 10, -33, -7, -25, 12, -16, 3, -38, -24, -51, -29, 15, 48, 29, -13, 8, 11, -19, -49, 65, 45, 31, 16, 34, 46, -44, 3, 23, 9, 19, -54, -46, 15, -18, 61, -17, 6, -13, 58, -46, -18, -11, -43, -40, -45, 15, 37, 9, 33, 6, 24, 47, -27, 42, -16, -21, -5, -21, -14, 39, 12, -31, 42, -49, -47, 22, 35, -48, 16, -3, 45, -3, -6, 46, 59, 34, -7, -34, 0, -28, 53, -28, -34, 63, 2, 18, 36, 21, -9, -33, -53, -40, 41, 16, 20, -3, -21, 26, -25, -40, 6, -8, -3, -21, -29, -50, 16, 38, 4, -1, -2, 39, 13, -13, 28, -9, -34, -23, -16, -2, 47, -36, 19, 10, -20, -13, 42, 18, 7, -50, 61, -37, 48, -58, -10, -48, -27, -36, 28, -2, 24, 58, 13, 11, 5, 35, -17, 3, 25, -51, -28, 35, 20, 31, 10, -22, 22, 28, -40, -10, -6, 38, 2, -37, 53, 5, -30, -17, 39, -41, -45, 3, 45, 28, -30, -33, 35, -25, -34, -15, 59, -4, 51, -26, -21, -42, -32, 2, 45, -48, -39, -47, 34, -26, 10, 17, -15, 46, -3, 2, -50, 17, 53, -49, -21, -15, -47, 21, 6, 32, 48, -46, -21, -45, -31, 23, -24, 14, -28, -1, -42, 29, 36, -1, -11, -49, 9, -1, 46, 48, 1, 36, 0, 45, 9, -40, -28, -33, 46, 11, 60, -20, 6, 5, 34, 30, -30, -25, -31, -9, -19, -34, 45, 1, 40, 16, 35, 33, -18, 50, -45, -31, 24, 27, -6, 49, 57, 23, 34, -27, -20, 38, 32, -17, -7, -49, -13, -15, -23, 9, -49, 42, -6, 0, 7, -31, -41, 4, 37, 39, -29, 21, 0, 10, 42, -9, 61, -12, -36, -2, -69, 1, -45, 37, 25, -69, 40, 39, -14, -40, 1, -28, -3, 2, 15, -35, -57, -33, 2, 9, 26, 16, 20, 12, -7, -9, -38, 40, -7, 53, -8, -26, 17, 11, 27, 29, 41, -5, -7, 13, -12, -7, -3, -48, 23, 2, -11, -5, 0, -52, -43, -20, -23, -43, -33, -35, -5, 45, 42, -41, 22, 17, 41, -29, -43, 44, -28, -21, 33, -20, 49, -9, 33, -1, -38, -23, -42, 6, 62, -21, 27, 62, -24, 39, -6, -59, 21, -43, -2, -3, -29, 43, 18, -13, -21, -27, -3, -2, 56, 38, 37, -13, 4, 10, 28, 35, -42, -41, 45, 46, 50, -16, 53, -20, -45, 62, -10, 15, -44, 23, 8, -10, 41, -27, 32, 24, 21, 21, 50, 10, 33, 0, 30, -10, -10, 6, -40, -44, 77, -52, -7, 30, -50, -40, -7, -39, 14, 3, 32, 48, 18, 63, -29, 21, -7, -57, 33, -30, -33, 47, 18, 64, -50, 43, -36, 16, -22, 45, -42, -66, -48, -38, -7, -2, -32, 12, -12, -48, -60, 8, 39, -10, -19, -6, -47, -68, -51, 32, -1, 12, -19, -17, 23, 7, 12, -20, 7, -30, -30, -47, 24, 19, -35, -17, -20, 22, -13, -56, -11, 43, 5, -42, -47, -27, 9, 13, 0, -27, -20, -2, 13, -1, 46, 31, 49, 63, 6, -23, -7, -43, -9, 7, -40, 28, 24, 2, -65, 72, -58, 57, -16, -7, 11, 44, -33, -9, 35, 8, 32, 34, -9, 21, -2, -15, 11, 66, 66, -49, 58, -79, -41, -31, -14, -13, 23, -14, 39, 37, 25, -17, -8, 48, 5, 46, 31, -29, -10, -8, 32, -4, 59, -55, 63, 35, -25, 46, -70, 47, -48, -3, 0, -23, 29, 4, -49, 19, 49, -11, -58, -42, 49, -19, -52, 1, -14, 19, -21, -7, 50, 13, 7, 19, 25, -11, -16, 22, 73, -39, 39, -22, 49, 51, -20, -42, 46, 21, -52, 17, -5, 31, 66, 8, 31, -14, -17, -50, 21, 2, -51, 14, -32, 21, -50, 29, 56, 25, 28, 17, 65, -10, -12, -34, -68, -50, 40, 14, 46, 84, 0, 50, 108, 51, -17, -48, -13, 20, -79, -8, 28, 46, -33, -5, 18, 38, 25, 56, -21, 20, 10, -14, -36, -19, -24, 77, -27, 43, 82, 18, -32, 28, -61, -45, 35, 52, 43, -64, 23, -31, 75, -11, 3, -65, 72, -25, -52, 28, 21, 9, -28, 74, -1, -29, -20, -46, -69, 28, -31, 2, -36, 44, -50, 15, -7, -34, 20, -62, -16, 31, 26, 3, -10, -76, -21, 31, -19, 18, 22, 21, 62, -6, -43, 36, -44, 48, 12, 32, -15, 15, -19, 55, 7, 11, -23, 34, -67, -32, 40, 4, -75, -52, -19, -51, -10, -34, 13, -19, 34, -27, -47, 25, -6, 37, 34, -4, 27, -8, 8, -20, 1, -47, 8, -28, -12, 40, -38, -40, 11, 40, -27, -14, -26, 1, 33, 22, -2, 17, 32, 17, -10, 30, 3, 15, 36, 16, 18, 9, -8, 8, -48, 14, 26, -12, 15, 33, 34, 7, 43, 18, -52, -14, -51, -40, 45, -48, 24, -28, 16, -22, -38, 63, -17, 12, -14, -30, 8, 8, 48, -11, 51, 7, -15, 58, -55, 4, -16, 11, -37, 43, -16, -10, -63, -38, -18, -18, -11, 16, -10, 33, 49, 44, -36, -4, -9, -48, -24, 10, -47, -36, -42, 45, 21, 14, -52, 6, 5, -40, 47, 44, -15, 13, -43, 28, 46, 39, 23, 7, -40, 17, -11, 20, -32, -32, 36, 10, 12, 18, -26, -41, -14, -49, 47, -46, -3, -43, 26, -44, -35, 21, -42, 32, 30, -48, 5, 15, -3, -2, 11, 44, -54, 43, -25, 2, 38, 17, -44, 38, -38, -39, 12, 30, 17, 32, -5, -44, -24, 45, 38, -5, -9, 7, -14, -9, -35, -42, -6, -3, -43, -28, 52, 29, -25, -41, -29, -42, -10, 19, 14, -24, -8, 3, 20, 44, 12, 3, 34, -19, -40, -22, 11, -49, -20, 10, -5, -25, 19, -35, -23, -25, -50, -26, -8, -24, -43, -36, -26, 9, -19, -14, -16, -35, -40, -43, -31, -49, -42, 51, -29, -43, 22, 41, 7, -50, 24, -51, 1, -7, -39, -14, 31, -12, -28, 25, 41, -15, -5, -7, 9, 43, -22, -36, -40, -12, -2, 49, 10, 3, 18, 31, -24, 17, -32, -5, -11, -55, -22, -48, 30, -8, -15, -6, 10, -50, 56, -31, 24, 30, -27, 54, 9, 1, -20, -15, 4, 26, -12, 37, 23, -39, 46, -35, 26, -20, -4, 31, -34, -16, 46, -18, -37, -38, 17, 39, -7, -19, 29, -32, -45, -43, -1, 7, 23, 1, -1, 39, -4, 22, -40, 5, -1, 0, -10, -34, -33, 38, 26, 25, -34, 11, 18, 44, -45, -28, -17, 46, -22, 31, 7, 42, -35, 55, -1, 28, -15, -27, 48, 39, -12, 24, 2, -15, -32, 40, 23, -29, 27, -44, 18, 45, -48, 12, -34, -49, -26, 45, -49, -18, -8, -27, -5, 31, -17, 7, -52, -14, 9, 31, -19, -39, -18, 32, -48, -12, -33, -31, -35, -10, -16, 52, -35, 40, 0, 67, 30, -8, 18, 60, 51, 51, 43, -13, -47, 19, 31, -25, -16, 41, -25, -5, 43, -24, -14, 25, 56, -4, -50, 3, -25, 37, -29, 3, -20, -31, -18, 31, -30, -18, -46, 27, -25, 47, -6, 3, -19, 18, 18, -45, -28, -6, 5, 10, -44, -59, -21, 19, 26, 10, 34, 13, -33, 21, -36, -3, 49, -4, 25, 47, 27, 14, 44, 45, -2, -22, -25, -36, -43, -12, 36, -47, -16, -13, 52, 33, -42, -39, 1, 24, 48, 10, 8, -57, 55, 83, -16, 11, 34, -13, -50, -3, -23, 52, 69, 18, 42, 19, 18, -29, -17, 5, -53, 50, -40, -41, 26, -39, 37, 34, 25, 9, 25, -14, 10, 17, 29, 2, 12, -34, 13, -4, 60, -34, -37, -17, -41, 67, -40, 95, 8, 37, -40, 52, 1, -27, 63, 1, 51, 19, -39, -46, -24, 44, -45, 16, 63, -35, 31, 41, -10, -32, -17, -53, -62, -8, -51, -10, 42, 66, 40, 5, -51, -55, -7, 13, 56, 22, -10, -18, 31, 12, 45, 22, -40, -20, 13, 37, -7, -30, -64, -15, -24, -56, -33, 9, -23, -62, 19, 50, 0, 50, 37, -25, -49, -34, -14, 27, -10, -18, -48, 17, 59, 24, -44, -23, -55, 48, -27, -34, 72, -18, 16, 38, -73, -42, -67, -37, -51, -59, 8, 39, -13, -8, -13, 25, -49, -18, 5, -51, -12, 28, -3, 72, 29, -7, 22, 32, -48, 0, 35, -42, -66, -46, 34, -32, 48, 32, -42, -52, -30, -21, -33, 5, 27, 2, 7, 24, 18, -1, -40, -14, 14, 33, 26, 42, -15, 16, 8, -22, 17, 38, 55, -21, 60, -63, -13, 46, -35, -2, -47, -29, 40, -7, -25, 61, 33, 79, 18, 22, -66, 83, -7, 6, -32, 47, 10, 30, -22, -46, 3, 12, -34, 62, -46, 41, 42, 21, -34, 12, 37, 10, 77, 14, -18, 2, 40, -44, -3, 13, 23, 20, 7, 28, 5, -14, 51, -42, 49, -41, -35, 0, -14, 2, 26, 18, -11, 28, -8, 49, -33, 30, -13, -30, -23, 39, 34, -20, -5, 46, -23, 4, -38, 31, -44, -33, 2, 39, 5, 14, 55, -30, -7, -40, -35, 28, 16, 81, -21, 73, 47, -13, -45, 19, -41, -39, 84, -4, -53, -37, -34, -50, -46, 81, -19, 39, 45, -43, -63, -25, -32, -19, -34, 9, 31, 76, 28, -48, 45, -30, -17, 1, -9, -25, -3, 32, -7, 22, -24, -34, -43, -14, 11, 22, 1, 25, 25, 36, -15, 47, -62, -37, 32, 18, -11, 28, -1, 60, -23, 28, 68, -35, 33, -27, 56, -27, 5, -30, -18, 30, 49, 52, 45, 38, 45, 33, 25, -28, -6, -18, 47, 9, -36, -44, -22, 49, 19, -50, -44, -39, -52, 59, -3, 24, -4, 44, 23, 10, 5, 16, -45, -8, -56, -37, -13, 13, -51, 64, 40, 3, 3, -40, -57, 28, 66, 1, 10, -14, -40, -40, 12, -14, -25, 24, -24, -17, -50, 20, 19, 21, 3, 20, 39, -55, 20, 9, -53, -15, 2, -6, 33, 47, -46, -50, 30, -17, -53, 2, -5, 3, -2, -52, 65, 48, 37, 55, 33, -1, 0, 33, 64, -19, -47, -2, 1, 6, -46, 24, -14, -39, 37, -24, -31, 58, 15, -24, 9, 9, 32, 34, -22, 32, -75, -43, 25, 53, -33, 21, -30, -18, -9, -12, -51, 55, -44, -41, 20, 13, 19, -6, 10, 11, 50, 6, -8, 30, 1, -15, 12, -10, 16, 7, 56, 5, -42, 54, 23, 61, 41, -15, -45, -27, 54, -18, 13, 35, -44, -41, 56, 41, -40, 43, 9, -14, 20, 12, -57, 28, -47, -74, 14, -20, -49, 13, 46, 24, -52, -1, -33, 1, 49, 42, 56, -25, 50, -11, -13, 41, -47, 32, -16, -64, 57, -2, 69, -31, 10, 7, -50, 0, 5, 8, -28, 15, -45, 41, 44, 35, 46, 8, 23, 14, -12, -51, 34, 51, -25, 16, 14, -8, 16, 7, 40, 21, -47, 43, -16, -45, -46, -1, 62, 21, 9, 45, -35, -28, -15, -28, 33, -2, -23, 17, -33, -9, 2, 13, -34, -17, 12, -28, -11, 7, 4, 4, 43, -42, -12, 27, -58, 0, -28, 16, 5, -15, -5, -64, 17, -20, 0, -6, -21, 8, 17, 56, -26, 53, 5, -31, -30, -46, -23, 16, -5, -36, -28, -23, -33, 61, 26, 28, -8, -31, 38, -45, 35, -5, 36, -51, 24, 42, -24, -31, 25, 87, -20, 33, -22, 7, -36, 18, 49, -19, 43, 49, -11, -33, 6, -50, 33, 36, -21, -14, -37, 2, -38, -23, 29, -45, -69, 39, -57, 57, 71, -28, 28, 36, 36, -10, -29, -33, 9, 63, 40, -45, 1, -27, -33, -38, 13, 18, 31, 55, 69, -10, 16, 8, -32, 29, 34, 54, -61, 32, -4, 38, 10, 33, 67, -50, 45, -43, 43, -70, 30, 31, -10, 32, -9, 13, -61, 18, 13, 31, 32, -40, -25, -10, 8, 10, -1, -37, 30, 4, 2, 32, 43, -1, -11, -46, 35, 23, 5, 17, -47, 19, 42, 40, -6, 29, 62, 39, 53, 16, 25, -5, -7, -22, -50, -30, -45, -50, -14, 6, 44, 65, 7, -12, -41, 13, 49, 13, -26, -43, 51, 21, -65, -31, -43, -13, 4, 51, -42, -4, -39, -12, -17, -9, -3, 36, -28, 42, -17, 23, 46, 32, 37, 38, -28, 51, -30, 15, -15, -40, 12, -27, 14, -18, 4, -14, -44, -14, -28, 39, 61, 30, 2, 9, -10, 55, -28, 40, 6, 16, -11, 11, -19, -36, 2, 9, 48, 32, 49, -34, 45, 3, -55, -36, -51, -22, 4, 11, 6, 58, 50, -32, 31, 12, -34, -39, -18, 21, 69, 52, 41, 20, 43, 3, -48, -23, 25, -4, -68, -38, 45, -8, 38, 52, 44, -47, -54, -60, 3, -10, -49, 1, 36, 54, -55, 41, 21, -42, -18, -38, -58, 3, 18, -23, -50, -17, 17, -5, 41, 2, -10, -73, 4, 36, 47, 8, -50, 23, -19, 15, -10, -4, 50, -17, -31, 13, -34, -25, -5, -39, -10, 1, 25, 10, 44, -35, -36, -20, -54, 40, -7, 45, -38, 14, -63, 40, 9, 0, 21, -51, 25, 45, -5, 19, -7, -13, -13, 21, 17, 0, 14, 41, 38, -41, -55, 20, 8, -35, 55, -52, 36, 51, 34, 32, -49, -46, -54, -7, 18, 23, 21, 15, 48, -25, -9, 55, 39, 0, -13, 17, 13, -57, 47, -14, 6, 37, 42, 59, -48, -45, -74, 12, -31, -50, -7, 0, -26, 14, 48, 27, 58, -24, 2, 13, -12, 10, -32, -7, 56, 0, 62, -50, -16, -27, 44, -52, 34, 11, 46, -1, -46, 68, -25, -30, 20, -5, 51, -38, 11, -20, 35, 23, 0, 5, -14, 57, 68, -16, 15, 6, 8, -19, 44, 15, 43, -17, 0, -11, 36, -2, -44, 40, 48, 43, -51, -29, 42, 45, -37, 10, 2, -6, -9, -2, -29, -19, 49, -41, 1, -2, 42, 13, 10, 49, 18, 46, -24, -8, 40, -8, 7, 33, -24, 6, 14, 26, -33, -4, 43, -35, -44, -16, -23, -10, 0, -33, 25, -22, 34, 9, -22, -29, -51, -4, 19, -18, 15, 40, 45, -32, -35, -44, 3, -42, -26, 44, 32, 38, 10, 1, -6, 6, 30, 9, -43, -40, 56, -11, 16, 13, 39, 24, 17, -50, 13, 50, 5, 48, 23, -46, -46, 19, -22, -41, -13, 39, 14, -9, -45, 7, 42, 31, -40, 9, 24, 4, -8, 16, 1, 46, -26, -32, 45, -22, 25, -49, -24, 40, -16, 38, -5, -51, -26, -27, -21, -57, -11, -38, -40, 53, -29, 27, -30, 32, 20, -10, -13, 52, 23, -13, 79, -69, 50, -30, -1, -15, 38, 9, 33, 45, -17, 36, 87, -46, 38, -36, 3, 42, -54, -2, -39, 5, 51, 33, 38, 14, -54, 16, 20, 57, -41, 49, 27, -33, 5, 70, -35, 62, 62, -8, 20, -35, 38, -38, 30, 34, 30, -15, -65, -49, 21, 17, 4, -24, 54, 53, 48, -37, -38, -5, 23, -6, 42, 21, -29, -18, 21, 22, -39, -41, -52, -24, -35, 16, 23, -18, -24, 34, -11, -16, 59, 13, 4, 9, -1, 35, 35, -47, 17, -5, 1, -11, 30, 14, 5, 25, -33, 13, -21, 38, -49, 37, 13, -40, 15, 13, -45, -10, -34, -15, -90, -19, -41, 31, 14, -19, -32, -60, -3, -43, -25, 30, -8, -5, -23, 16, -1, -23, 56, -6, 3, -9, -59, -38, -29, 45, -14, -66, 64, 31, -25, -43, -5, 53, -23, -52, 42, -68, 16, 28, 32, 97, -4, 17, -32, 5, 30, -29, -77, -44, -52, 23, -56, -28, 8, 24, -26, -12, 27, -29, -45, 26, 21, 8, -39, -68, 21, 49, 71, -4, 32, -19, -6, -38, -62, 3, -40, -17, 22, -28, 71, -38, 74, -29, 20, 41, 3, 13, 50, 15, -32, -2, -50, 36, 2, -40, -8, -47, 3, 75, 40, -13, -38, 69, 15, -31, -28, -29, 55, 3, -42, 38, 13, 15, 48, -44, -7, 19, 37, 56, 12, -26, 44, -7, -53, -53, 1, 17, 17, -47, -25, -17, 0, 24, 79, -32, 10, -50, 50, -48, 27, -26, -3, 26, 5, 18, -65, -27, -10, 66, 9, -30, 39, -51, 70, 54, -64, 9, 63, -21, 52, 57, -8, -13, 63, -63, -2, -73, -65, 37, 4, -45, 46, 30, 30, -18, 48, 64, -14, 52, 50, -34, -35, 40, -3, 15, 10, -52, -44, -20, -48, 22, -39, -34, 37, -40, 60, 12, -2, 59, 20, 35, -75, 16, -6, -34, 31, 73, 12, -28, -2, -56, -43, 8, 7, 31, -39, -5, -21, 16, 33, -4, -47, -7, -10, -51, -2, -40, -34, -6, -15, 22, -37, 16, 31, 1, -6, -6, -10, -43, 75, 9, 54, 30, -50, 31, 8, 41, -28, -29, -13, -23, 32, 4, -74, 44, -40, -4, -22, 20, 15, 13, -38, -29, -54, -30, 51, 40, 11, 28, 44, -48, -12, -26, 4, 35, 28, 38, -39, 31, 56, -37, 43, -28, 22, 13, -23, 58, -53, -50, -25, -20, -59, 60, -3, -29, -31, -55, -18, -2, 24, 58, 14, -49, 1, 56, 42, 28, 30, -37, 56, -5, -34, 17, 28, 15, 31, 7, 27, 23, 9, 2, 16, -20, -1, -16, 16, -47, -20, -18, 43, 8, 70, 30, -29, -27, 26, 27, 60, 23, 43, -40, -31, 37, -33, 31, 45, -36, -54, 37, 34, -2, 8, -31, 20, -46, 8, -10, -52, -18, -40, -20, -49, 12, 35, -42, -7, 22, -28, 30, 32, -7, -2, -13, -21, 0, -26, -19, 20, 17, 50, 31, 30, 24, -25, -6, -28, 0, -7, -5, -51, 20, -45, 23, -7, 52, 42, -38, 2, -42, -3, 23, -16, 14, -2, 28, -48, 13, -43, 2, 0, -47, -50, -49, 29, -5, 11, 37, 25, 24, -34, 0, 20, 21, -9, 17, -26, 5, -48, -47, -43, 5, -45, -4, 16, 25, -24, -20, -47, 39, -1, 10, -7, 7, 12, -49, -41, 15, -36, 11, 24, -21, -17, 30, 47, -34, 30, 31, 18, 1, -45, 56, -39, 55, -50, 32, 43, 0, -29, -31, 48, -44, 41, 42, -24, -16, -14, -30, -16, -18, -50, -7, -22, -4, 51, 0, -39, 23, -31, 18}
#define FC1_BIAS {-138, 327, -332, 556, 354, -416, -298, -427, 138, 339, 404, 76, -67, 513, 625, 349, -313, 528, 185, -388, 178, -103, -15, 231, -312, -391, -358, -103, 154, -75, -83, -354, -120, 261, 577, 436, 228, -122, 27, -115, 385, 345, 377, -369, -425, -420, 573, 152, 672, -362, 505, -101, 48, -475, 46, -15, -344, 404, -138, 173, 363, 67, -173, -117, 394, 245, -304, -43, 282, 234, 169, 196, 160, 205, 231, -320, -199, 226, -210, 116, 283, 512, 549, -39}
#define FC1_QUANT_PARAM {1305960448, -8}

#define FC1_PARAM {1, 0, -12, {-12, 127}}

