#define CONV2_KERNEL {7, -57, 24, -22, 31, -28, -53, -13, 34, 43, -12, -47, -57, -19, 16, -18, -2, -32, 12, 44, -6, -39, -7, -42, 16, -7, -10, 36, -6, -2, -86, -25, -37, -10, -12, -54, 3, 25, -41, 28, -9, -11, 43, 17, 26, 13, 10, -34, 60, -7, 41, -48, -18, -32, -15, 12, 8, -36, -11, 4, -74, -31, 1, -11, 41, -34, -32, 66, 1, 19, -14, -10, 127, 19, -39, 10, -32, 24, -31, -54, 23, -51, -18, 1, -85, -41, -35, -32, 19, -54, -108, -10, 46, -16, 26, -13, 15, 45, -21, -40, -2, 5, 110, 37, -17, -55, -38, 30, -4, -45, -8, -14, 54, 37, -76, -49, 35, 37, 43, -62, -108, -51, 23, 9, -19, -41, -29, 81, 25, -42, -13, -63, 61, 13, -21, 18, 32, 38, -2, -48, -28, 30, 42, 42, -53, -27, -36, -5, 7, -8, -45, 29, -21, -4, -44, -30, 24, 5, -32, 28, 17, -41, 75, 38, -46, -33, -48, 47, 51, -7, -14, 25, -34, 22, -49, -27, 2, 10, -43, 19, -46, 29, 12, 22, 0, -35, 84, -3, -47, 16, 18, 33, 127, 42, 2, 15, -32, 39, -4, -3, 21, -33, 26, 4, -28, -24, -43, -7, 31, 15, 36, 27, -15, -55, -41, -30, 92, 1, 8, 13, -14, 10, -23, -33, -8, -33, 23, 17, -42, -29, -39, 2, 11, 5, -114, 24, -37, 36, -42, -36, 57, 22, 22, -12, -7, 9, -19, 0, -34, -4, -4, 3, -22, -47, 0, -39, -3, -25, -45, -60, 33, -2, 25, 4, -32, 21, 33, -35, -2, -7, -57, -50, -32, 16, -9, 22, -108, -50, 33, -1, -40, -6, -37, -6, -17, 34, -55, -20, -2, 2, -45, 37, 26, -9, -49, -25, 38, 39, 22, -39, -29, -30, -1, 26, -20, 12, -119, 2, 40, -25, -2, -10, -43, -31, 9, 15, 17, -39, 40, 9, -36, -32, -34, -15, 18, -34, 0, 26, 18, 20, -27, 19, 54, 41, 34, 30, -113, -37, 22, -35, 3, -74, -40, 11, 37, -24, -16, -66, 78, 30, 4, 25, 4, 30, -84, 34, 35, 15, -14, 4, -97, -3, -34, -39, 18, -58, -32, 11, -37, -46, -17, -34, 78, 56, -28, 2, -32, -24, 52, 6, -23, 17, 36, 43, -128, 10, 39, 16, -25, -52, -12, 10, -26, 34, 36, -48, 48, 72, 12, 34, -49, -11, 68, -6, 22, -46, 8, -19, -13, -42, 7, -10, 13, 0, -41, -41, 33, -11, 43, -10, -17, -28, -30, -30, -30, 31, 47, 37, -28, 20, 14, -10, 6, 26, 41, -14, 13, 33, -27, 3, 5, 29, 31, -8, -7, 32, -28, 13, 14, -67, -75, -30, 29, 8, 20, -1, -73, -6, 16, -16, -5, -28, -83, 19, -22, 27, 17, -11, -78, 18, 29, 18, 10, 45, -38, 5, 33, 4, -25, 48, -64, -12, 14, 0, -1, -56, -42, 7, -22, -18, 15, -54, -83, -31, 33, 10, 7, -53, -128, -37, 11, -8, 6, -12, -63, 34, 15, 31, 11, -59, 69, 34, -16, 16, 20, -16, 57, -18, -18, -6, -13, -41, 57, -5, -38, 13, 21, -39, 85, 42, -32, 2, -17, -31, 55, 1, -13, -15, -32, 20, 57, -35, -3, -7, -19, 36, 54, -25, 25, 10, -15, 41, 56, 34, 24, 35, -16, 33, 51, -20, -24, -13, -12, 28, -5, -5, 22, -15, -27, 54, -8, -9, -2, -20, 26, 14, -61, -10, 22, -6, -20, 35, -15, -34, 31, 15, -17, -14, -50, -23, -24, 13, -28, 21, -20, -42, -7, 3, -34, -11, 38, -48, 69, 25, 32, 52, 53, -30, -7, 8, -11, 74, 33, 33, 20, -38, 33, -37, -6, -49, 47, -28, 19, -2, -92, -60, 53, -2, -2, -55, 24, 28, -27, 7, 50, 40, -55, 45, 74, 32, 44, -42, -128, -4, 61, 42, 76, -72, -76, -42, 34, -14, 30, -22, -84, 40, -17, 65, 10, 4, -71, -55, 51, 24, 75, -68, -56, -4, 47, 8, 45, -98, -88, -34, 54, -6, 49, -29, -12, 52, -29, -35, 52, -45, -56, 31, 8, 29, 8, 44, 17, 10, -20, -34, 44, 33, -52, 23, 15, 60, 62, -22, -39, 6, 17, 7, 80, -38, -109, -48, -46, 21, 16, 30, 41, 65, 42, 70, 80, 3, 121, 17, 64, -50, 30, 1, 46, 30, -18, -54, 4, -41, -10, -19, 51, -52, 9, -56, -93, -25, -2, -32, 25, -50, 53, 82, 29, 62, -29, -8, -77, 70, -10, 26, -57, 48, -18, 30, -75, 20, -29, 83, -91, -81, -29, -49, 67, -99, -83, -46, 42, -44, -16, 46, -114, -62, 68, -50, -30, -39, -33, -9, -14, 4, -86, -97, -34, -47, 45, 68, -31, -11, 24, -84, -27, 76, -1, 9, -67, -63, 101, -64, -76, -63, 46, 40, 0, -102, 44, -44, -36, -57, 90, -66, 27, -83, -75, 90, -68, 55, 19, -34, -39, 65, 27, -81, -77, -15, -49, 7, -57, -87, 47, -9, 127, -48, 59, -91, -56, -36, -78, -25, -3, -31, -75, 24, 29, 70, 48, 91, -57, 51, 74, 78, 14, 83, -34, 19, -3, 11, 83, -45, -96, -18, 84, 123, 65, 59, -14, -38, 68, -58, 95, 41, 22, -97, -27, 7, -66, -97, -5, 53, 46, 22, 38, -93, 31, 5, -72, -105, 4, -51, 47, -49, 11, 106, 44, 51, -62, 60, 8, 16, -45, -10, -8, 0, 27, 21, 22, -18, 25, 12, -1, 29, 12, 34, 14, 5, 5, -13, 3, 26, 11, -39, 5, -41, 48, -44, -37, 33, -43, 1, -19, 55, 53, -50, -32, -24, 9, 36, 49, 6, -75, -39, 15, -37, 44, 35, -40, 52, -23, 37, -10, 30, 32, 40, -48, -17, -52, 8, -18, -26, -31, 34, 29, 35, -52, 38, 41, -15, 39, -10, -17, 42, 13, 8, -15, 36, -43, 64, -4, 17, -43, -27, 127, -4, 8, 21, -38, 62, 13, 17, 30, 15, -30, -2, -46, 21, -2, -2, 17, 20, -55, -46, 9, 22, -3, 1, -68, 49, -2, 19, -42, -64, 36, 51, -33, 2, -60, -3, 30, 50, -28, 18, -49, -14, -14, -3, 11, 2, 10, 49, -60, -54, 26, 7, -2, -15, -73, -16, -7, -10, 2, -24, 22, 16, -1, 20, -60, 46, -42, 6, -28, -29, 4, -37, -27, 4, 4, -19, -9, 0, 47, 53, -9, 19, -11, 11, 24, 8, 0, -25, 32, 29, -73, -20, -3, -30, 22, -16, -42, -19, 17, -12, 31, -10, -43, 17, -25, 21, 29, -37, 85, 9, 1, 6, 18, 11, 13, -16, 0, 4, 43, 8, -128, -34, 36, 0, 15, -54, -52, -23, -12, 24, -11, -43, 10, 41, 10, -3, -18, -7, 92, 48, 11, -19, 37, 36, -51, -34, 8, -27, 19, -15, -79, -23, 24, -5, 44, -62, -4, 24, -2, -24, -27, -41, 46, 47, 21, -16, -17, -10, 50, 12, -3, -4, 26, 20, -42, 3, -16, 8, 24, -20, -32, 7, -33, 1, 27, -45, -12, -4, -10, -14, 16, -5, 15, 54, 25, 2, 2, -22, 17, 22, 15, 18, 14, 21, 5, -15, -23, 17, 21, -13, 17, -17, 14, -1, 15, 16, 27, 16, 19, 3, 12, 3, -10, -22, -9, -19, 1, 7, -49, -26, 19, -16, 11, -37, -50, -15, -14, -9, 9, -2, -73, -5, -1, -8, 3, -4, 8, 13, -7, 6, 10, 3, -3, -16, -1, -21, -6, -6, -34, 0, -6, -27, -3, -8, -23, -21, -4, -4, 8, -37, -27, 9, -11, 15, 10, -17, 26, 4, -25, -15, -19, 0, 65, 4, 7, -23, -32, 5, 112, 15, -3, -6, -43, 5, 99, 2, 10, -18, -27, -17, 61, 25, 0, -3, -15, -13, 14, 15, 1, 11, -18, 2, 34, -17, 8, 12, -8, 35, 22, -10, -6, 19, -20, 47, 41, 8, -9, -5, -20, 41, 44, 16, -5, 25, 10, 39, -77, -32, 14, 10, 7, -6, -128, -26, -10, 8, 17, -34, -118, -16, 23, 10, -15, -24, -96, -14, -7, 45, -27, -7, -37, -16, -4, 23, -9, -12, 57, 39, 3, -34, -25, 33, 11, -17, 19, -3, 47, -48, -57, 21, 9, 4, 5, -19, -34, -50, -38, -13, 19, 25, -77, -23, 58, 36, 43, 12, -11, 42, 55, 45, 20, 12, -67, -1, 23, -11, -11, -52, -83, -32, -36, -12, 38, -49, -69, -15, -13, -20, 12, -71, 4, -32, -38, 4, 45, 20, -54, -6, 40, 43, 33, 14, 41, 35, -10, 24, -10, 42, 62, -18, 32, -44, 44, 38, 127, -15, -32, 6, 38, -3, 110, -39, 16, -29, 13, 26, -15, -26, -33, -1, 7, 37, 61, 50, 42, -4, -10, 18, 61, 9, -46, 24, -29, 40, 24, 31, 24, -34, 41, 63, 22, 39, -32, -21, -43, 1, -22, 20, -14, 13, -34, 21, -19, -29, 53, -28, -42, -27, -84, -25, 17, -34, 45, -22, -122, -45, 34, -5, -17, -16, -94, -45, 47, 45, -34, 24, 4, 27, 28, -6, -9, 22, 64, -11, 26, 23, 3, 11, 10, 25, 21, -5, -22, 1, -39, 1, 5, 28, -28, 9, -25, -15, -30, 7, 5, 37, -78, -24, 23, 5, 3, 15, -83, -23, 34, 21, 7, 13, -107, 7, -19, 19, 25, 14, -68, -1, 11, 37, -24, -49, -17, 23, 5, 3, -35, 26, -92, -42, 22, 2, 12, -52, -128, 4, 15, 17, 18, -4, -121, 2, 31, 18, 26, -64, 26, 0, 12, 28, 2, -32, 88, 5, 15, -22, -24, -20, 29, -10, 4, -10, -15, 3, 1, 30, -2, -9, 14, -14, 56, 32, 14, -22, -18, -32, 96, 22, -13, 16, -4, -15, 28, 8, 36, 25, -35, 13, 38, -28, 11, -14, -34, 17, 49, 31, 25, -3, 7, 38, 70, 25, 26, -9, -7, 41, -1, 18, -16, 10, 27, 30, -74, -27, 8, -22, 23, -42, -37, -6, 43, -18, 7, -19, 41, -47, -53, 15, -26, 3, -104, 12, -11, -21, 72, -8, -112, 25, -12, 5, 47, -90, -2, 63, -7, 38, -52, -66, 92, -28, -4, 2, 20, 63, 68, 3, 22, 30, 27, 11, -125, -55, 53, -57, 56, -77, -128, 13, 50, -42, 5, -43, 4, 41, -47, 11, 25, -61, 94, 32, -30, 10, -16, 2, -5, 17, 3, -64, -1, 45, -100, -43, -43, 33, -3, -96, -47, 77, -20, -1, -16, -66, 55, 73, -1, 46, -61, 74, -1, 51, 37, 47, 48, 40, -50, 15, -38, -35, -3, -36, -59, 26, 43, 37, 39, -91, 19, 63, -31, -53, -57, -25, 50, -8, 4, 34, -12, 16, 5, -20, -17, -57, 0, 41, -12, -7, -30, -60, 40, 27, -52, -45, -54, 20, -5, -29, 91, 53, 15, -4, -23, -39, -17, -19, -21, 50, 1, 8, 16, 14, -38, -32, 38, -28, -23, -24, 8, -39, 1, 26, 2, -26, 6, -26, 13, -9, 15, 26, -19, 36, 16, -7, -17, 21, -38, 16, 7, -31, 2, -16, 33, -41, -19, 26, 73, -27, 30, -13, 15, 20, -65, -33, 11, 20, 13, -32, -96, 37, 7, 5, 35, -5, 33, 47, -11, -31, -28, 34, 68, -29, -15, -27, -25, 47, -45, 5, 22, -12, 35, 22, -126, -25, 23, -3, 46, -32, -41, 55, -12, -28, 19, -22, 95, 27, -2, 16, 31, 18, -21, 4, -15, 23, -23, -9, -59, -67, 53, -4, -5, -37, -128, -23, -18, 1, 33, -21, 77, 36, 19, -26, 37, -21, 51, 39, -12, -14, 2, 27, -30, -45, 20, 35, 35, 8, -113, -13, 16, 5, -9, -4, -29, 42, 30, -39, 38, -18, 91, 26, 30, -1, 32, 1, -18, 14, -4, 15, 26, 18, 73, 60, 0, -31, -63, 25, 78, -20, -49, 2, 34, 42, -99, -9, 34, 33, 6, -3, -9, -34, -20, 17, -23, 12, -44, -21, -13, -37, -7, 8, 125, 38, -40, -10, -34, 50, -23, -37, 39, 24, 11, 40, -128, -40, 4, 1, -26, -68, -85, -6, 24, 23, -13, -49, 5, -38, -3, -39, -45, 12, 90, 49, 19, -17, -36, 52, -75, 7, 13, -34, 10, 0, -101, -11, -16, -35, 37, -31, -2, -31, -58, -25, -40, -46, 35, -42, -5, 25, 15, -7, -13, -16, 51, -11, -41, 35, -100, 1, 17, 11, 26, -74, -17, -14, 20, 16, -37, -74, 33, 53, 6, 17, 16, -23, -25, -46, -31, -19, 24, 50, -8, -47, 37, 22, -39, 14, -17, -47, -28, 29, -2, -12, 71, 56, 35, 27, 21, 16, 85, 47, 30, -1, -54, 59, 15, 18, -19, 29, 7, 15, -64, 33, 3, 26, -11, -39, 18, 32, -15, 22, -15, -14, -7, -27, 30, 17, 12, 15, -53, -32, -26, 28, 71, 7, -128, -40, 29, 9, 69, -65, 121, 34, 6, -27, 1, -11, 127, 15, -9, -26, 1, -20, 84, 48, 1, -27, 43, 31, 67, -28, -14, -40, 26, 5, -17, 33, 14, -38, -10, -53, 8, 5, -8, -26, -1, 12, -10, 20, 36, 43, 22, 14, 30, 41, 26, 46, 6, 39, -8, 16, -13, 7, 33, 30, -37, -23, -38, 7, 31, 30, -97, 11, 45, 20, -25, -5, -126, -23, 34, 31, 4, -13, -59, 7, 3, 6, 24, -27, -52, 16, -3, 21, -21, 39, -2, -9, 27, -10, 38, -21, -46, -33, 29, 29, 1, -11, -36, 26, -18, -31, 19, -35, 15, 9, -37, 22, 42, -29, 50, 40, -16, 25, 40, -35, 37, 51, 24, -15, 35, -12, 34, 2, -15, -1, 21, -10, -9, -1, -6, 29, 4, 0, 30, 34, 5, -7, -35, -4, -6, 13, -15, -37, -11, 15, -40, -60, -28, -13, 6, 2, 13, 16, -1, -3, -30, -24, 46, -9, -35, 17, -19, -21, 57, 40, 12, 19, -41, -15, 127, -3, -39, 2, -8, 38, 60, -36, 0, -20, 1, 36, -45, -27, 5, 24, -31, -11, -90, -19, 20, 23, -19, -29, -39, 15, -21, 40, 5, 29, 3, 24, -45, -27, -33, 67, 22, -9, -2, 10, 0, 46, -65, -31, 5, 25, -13, -34, -80, -6, 32, 26, -25, -8, -46, 21, 17, 23, -31, -41, 6, -23, -3, 24, -22, 1, 18, -40, -8, 16, -18, 31, -25, 23, -1, -14, 6, -44, -27, -13, -17, 23, 15, -43, -15, -4, 10, -4, 26, -11, 9, -20, 2, -8, -19, -11, -15, 1, 4, 25, -24, 0}
#define CONV2_BIAS {-34, -194, -81, -120, 408, 666, 231, 116, 166, 149, 106, -245, 101, -77, -94, -167}
#define CONV2_QUANT_PARAM_MULTI {1568179145, 1724237673, 1604927721, 2079484886, 1163882298, 1484806758, 1360197166, 1326597518, 1750113217, 1447357131, 1184308836, 1285047051, 1915094858, 1570837640, 1910410244, 1120330172}
#define CONV2_QUANT_PARAM_SHIFT {-10, -10, -10, -10, -10, -11, -10, -9, -9, -10, -9, -10, -10, -10, -10, -9}
#define CONV2_PARAM {65, 10, {1, 1}, {0, 0}, {1, 1}, {10, 127}}

